{"type":"LSTMTimeStep","options":{"inputSize":3,"inputRange":0,"hiddenLayers":[20],"outputSize":3,"decayRate":0.999,"smoothEps":1e-8,"regc":0.000001,"clipval":5,"maxPredictionLength":100,"dataFormatter":{"indexTable":{},"characterTable":{},"characters":[],"specialIndexes":[]}},"hiddenLayers":[{"inputMatrix":{"rows":20,"columns":3,"weights":[-0.5434347987174988,-0.6177030205726624,-0.6437808275222778,-0.17147795855998993,-0.15326061844825745,-0.2592194676399231,-0.3653576076030731,-0.5458387136459351,-0.7261629700660706,-0.35531383752822876,-0.44225943088531494,-0.46018534898757935,-0.3906562924385071,-0.3703436851501465,-0.4320814907550812,-0.31392979621887207,-0.3815138638019562,-0.6742400527000427,0.35445502400398254,0.5450905561447144,1.1687588691711426,-0.9491584897041321,-0.9023222923278809,-0.9992859959602356,0.17740106582641602,0.03850720450282097,0.17986144125461578,-0.6721439361572266,-0.24584418535232544,-0.12245906889438629,0.420280784368515,0.6123912930488586,1.149193525314331,-0.4511941969394684,-0.4449700713157654,-0.40551963448524475,-0.16210155189037323,-0.4940568208694458,-0.9657440185546875,0.7616698741912842,0.73714280128479,0.6301001310348511,-3.2242953777313232,-1.0915865898132324,3.441870927810669,0.12984225153923035,0.2681596875190735,0.5420843362808228,-0.8047540187835693,-0.7854174375534058,-0.9270726442337036,-0.25508666038513184,-0.4255616068840027,-0.4252374768257141,-1.1177172660827637,-0.1329393833875656,1.479676365852356,0.4705086350440979,0.5034354329109192,0.6725232601165771]},"inputHidden":{"rows":20,"columns":20,"weights":[-0.04013793170452118,-0.02480648085474968,-0.0610412061214447,0.029477331787347794,-0.017454933375120163,0.0184223223477602,-0.35251542925834656,0.008404655382037163,-0.3465022146701813,0.31093788146972656,-0.22275638580322266,0.0412311777472496,0.06481253355741501,-0.2115384191274643,0.37325093150138855,0.26481688022613525,-0.07233863323926926,-0.03937162458896637,-0.3586645722389221,-0.24120214581489563,0.06018070504069328,3.1401634216308594,-0.38149094581604004,-0.18916134536266327,-2.194066286087036,-0.25812193751335144,1.1906452178955078,0.6851122379302979,1.5540233850479126,-1.758466362953186,1.3882778882980347,0.1896761804819107,0.3019713759422302,-0.3056224584579468,-1.9090619087219238,-1.4701831340789795,1.9303932189941406,0.16388411819934845,2.0281214714050293,1.7598975896835327,0.25901466608047485,0.8124822378158569,-2.005683660507202,-0.35162055492401123,-1.18659508228302,-0.7368995547294617,-5.000168323516846,5.722709655761719,0.008464830927550793,0.4983489215373993,0.049846939742565155,0.2768988013267517,1.8659380674362183,-2.486607551574707,-0.8340674042701721,2.2473676204681396,1.6629029512405396,0.6043705344200134,-0.05137457698583603,0.30661314725875854,0.17443616688251495,0.43132978677749634,-0.21578346192836761,-0.32344719767570496,-0.400000661611557,-0.3820931911468506,-0.2630603611469269,0.5564599633216858,-0.2854488790035248,0.4281666874885559,-0.39875730872154236,0.22497114539146423,0.2663815915584564,1.4407873153686523,0.007143648341298103,0.40185219049453735,0.6299546957015991,0.3035197854042053,-0.18129922449588776,-0.01782052032649517,0.07483938336372375,1.8875072002410889,-0.2599252760410309,-0.14004352688789368,-2.5874712467193604,-0.1963997185230255,0.4936119318008423,0.0003351986815687269,1.0808789730072021,-1.8645955324172974,0.7758848071098328,0.04450893774628639,0.27409157156944275,1.221443772315979,-2.40962553024292,-0.6088178753852844,1.870513677597046,0.13776253163814545,1.6303335428237915,1.2594467401504517,0.27388009428977966,0.29851096868515015,0.391959011554718,-0.4171634614467621,-0.4376663863658905,-0.4745325446128845,-1.1950620412826538,2.7347826957702637,-0.5694672465324402,0.4672432839870453,-0.591525137424469,0.2639237940311432,-0.41653919219970703,-0.20000556111335754,-0.0005949627375230193,1.3441835641860962,0.5809260606765747,0.379239946603775,-0.3657695949077606,-0.17712651193141937,-0.18228191137313843,-1.1931349039077759,3.6775612831115723,0.43556180596351624,0.9249218702316284,0.6374624371528625,-1.1868072748184204,-3.240939140319824,-0.8372923135757446,1.0001262426376343,-0.8382499814033508,-0.3305601179599762,-1.9950613975524902,0.15849247574806213,0.3693171441555023,0.47541385889053345,-2.772383689880371,-0.6673141717910767,-0.8719742298126221,-1.1855993270874023,-0.0018505342304706573,1.6161632537841797,0.7770703434944153,-0.9337953925132751,-2.0808258056640625,-0.7619835138320923,0.25114163756370544,1.6156386137008667,0.6868284940719604,-0.48335951566696167,0.7180142998695374,0.5517245531082153,0.6334375739097595,1.2636687755584717,-1.387783169746399,-0.33868682384490967,2.6287708282470703,1.049285650253296,0.9204753041267395,0.8669876456260681,0.03321535140275955,0.739129900932312,-0.03962867707014084,-0.035624910145998,-0.5625578761100769,0.04107920825481415,0.21335512399673462,0.10379726439714432,0.6683163642883301,-0.5956417322158813,0.5165635943412781,-0.009790781885385513,0.020921751856803894,-0.04721883684396744,-0.5550296306610107,-0.03497704491019249,0.32539650797843933,0.01645270548760891,0.7075353860855103,0.7271991968154907,-0.07323005795478821,3.0437092781066895,0.4401156008243561,0.03621558099985123,-5.8395256996154785,0.1927732527256012,-0.9755254983901978,0.09246688336133957,0.5440634489059448,-1.3151441812515259,-0.17744144797325134,0.002828932600095868,-0.24493750929832458,-0.42791810631752014,-2.348287343978882,-0.15275996923446655,1.068122386932373,-0.1569589525461197,0.6989462375640869,0.526167094707489,-0.2619682550430298,-1.7506592273712158,-0.8063122034072876,0.2641240358352661,0.41366317868232727,0.37074315547943115,-0.6285203695297241,-0.4260480999946594,-0.08825317770242691,0.07870946824550629,-0.169422447681427,-0.25342974066734314,1.045702576637268,-1.722870945930481,0.24313434958457947,-0.1387549638748169,-1.691455364227295,-0.2968183755874634,-0.1705072820186615,-0.4967133700847626,0.15431378781795502,0.3080352246761322,-0.23092135787010193,-0.281208336353302,-0.25101375579833984,-0.2430616021156311,-0.2846093773841858,0.25933995842933655,-0.17180848121643066,0.30647775530815125,-0.20901569724082947,0.1972559094429016,0.2529217302799225,1.2641390562057495,-0.0712820440530777,0.2882104516029358,0.45552295446395874,0.32831987738609314,-0.2224031239748001,0.08302977681159973,0.2695348262786865,0.3421825170516968,-6.328896999359131,-0.416948139667511,-0.7034324407577515,-1.0548940896987915,-3.5145039558410645,5.010838031768799,-0.4956721067428589,0.40607592463493347,-0.5690920948982239,0.3210904002189636,4.803895950317383,-0.7062022686004639,-0.33344322443008423,2.3825736045837402,1.0588486194610596,0.6804373264312744,-0.31482887268066406,-0.2745398283004761,0.055914487689733505,0.41140666604042053,-0.00006648040289292112,0.0507657565176487,-0.36005765199661255,0.06365960836410522,0.3965761661529541,0.014744057320058346,0.5974509716033936,-0.4916781783103943,0.40682196617126465,-0.0649675503373146,-0.0936083048582077,0.4064033031463623,-0.5097577571868896,-0.45099949836730957,0.2997574508190155,-0.07685951888561249,0.5285847783088684,0.5097532868385315,0.0292098056524992,2.3053910732269287,4.183230400085449,0.1791176050901413,-1.581444501876831,1.1481021642684937,-0.7681850790977478,-2.0236685276031494,1.3980339765548706,2.7235918045043945,0.8796034455299377,0.04926281049847603,-1.8327281475067139,0.13726621866226196,-0.8005375266075134,-1.4347201585769653,-0.33340945839881897,-0.5061500072479248,1.1377241611480713,1.3234422206878662,-0.20648835599422455,0.030528821051120758,0.3516753911972046,0.3970082402229309,0.2421686351299286,0.27620354294776917,0.3642001450061798,-1.1221578121185303,0.1163376197218895,-0.20094533264636993,0.16640159487724304,-0.2824467420578003,-0.3337627053260803,0.3742760419845581,0.375326931476593,-0.38773009181022644,-0.8445889949798584,-0.2802026867866516,0.05391125753521919,-0.13387714326381683,0.1217416375875473,1.9237728118896484,-2.8861188888549805,-0.6210106611251831,-2.550447940826416,-0.9257646799087524,0.5854299068450928,1.2726973295211792,0.6396793127059937,-0.9313733577728271,0.6033450365066528,0.48531103134155273,0.9950932264328003,1.0434386730194092,-0.9535113573074341,-0.6124567985534668,1.3754403591156006,1.0181832313537598,0.9479972124099731,0.8990875482559204,0.30897900462150574,0.34317898750305176,-0.17662179470062256,-0.3786798417568207,-0.47507163882255554,-0.3065683841705322,-0.474974125623703,1.013551115989685,-0.37507039308547974,0.3942466676235199,-0.36972060799598694,0.28541144728660583,0.29102784395217896,0.6730045080184937,0.17874965071678162,0.7335792183876038,0.6316701173782349,0.27278831601142883,-0.41820070147514343,-0.20441080629825592,-0.08958114683628082,1.3284446001052856,-0.9237477779388428,0.18442118167877197,-1.118295669555664,0.1258271038532257,0.4902735948562622,-0.06084483861923218,0.8591919541358948,-1.2813210487365723,0.5863698124885559,-0.20094352960586548,4.4361724853515625,-0.9649983048439026,3.460211753845215,0.004932021256536245,-1.7221161127090454,-0.32851019501686096,0.027528097853064537,0.5917125940322876,-0.03193030506372452,-0.05790966376662254,0.20470885932445526,0.1730254739522934,0.11804994195699692,0.10262316465377808,0.07087859511375427,-0.11593049019575119,0.15827827155590057,-0.08836272358894348,0.18973717093467712,-0.1412716507911682,-0.08552264422178268,-0.5368545651435852,-0.00506898807361722,-0.14946763217449188,0.07452304661273956,-0.17249076068401337,0.0762070044875145,-0.015400308184325695]},"inputBias":{"rows":20,"columns":1,"weights":[-0.10578400641679764,-1.887298583984375,-0.422703355550766,-0.45234572887420654,-1.2406760454177856,-0.43748846650123596,1.0761418342590332,-0.4451402425765991,-0.47393015027046204,-2.1257307529449463,0.9569702744483948,-0.4066435694694519,-0.4349623918533325,0.3291504383087158,-2.5020575523376465,-1.0214179754257202,-0.6399104595184326,-0.3937419354915619,-4.535396099090576,0.31767916679382324]},"forgetMatrix":{"rows":20,"columns":3,"weights":[-0.27254220843315125,-0.2571101784706116,-0.3066225051879883,-0.5034077167510986,-0.6217926740646362,-0.9657629728317261,-0.36121034622192383,-0.25974375009536743,-0.21664105355739594,-0.25099074840545654,-0.2910819947719574,-0.2379269152879715,-0.7173342108726501,-0.8235804438591003,-0.9343271851539612,-0.33096975088119507,-0.24561738967895508,-0.3032456040382385,-0.15440097451210022,-0.08808669447898865,-0.045008838176727295,0.2879478335380554,0.2507609724998474,0.221732959151268,0.5362009406089783,0.5582801699638367,0.6885384917259216,-0.34375110268592834,0.003435502527281642,0.7370535731315613,-0.295504093170166,-0.2109510749578476,-0.1413753181695938,-0.3073042333126068,-0.3581303358078003,-0.3160991072654724,-0.2698686122894287,-0.23321612179279327,-0.3494386076927185,0.7569360136985779,0.5050178170204163,1.1680361032485962,-1.4814566373825073,-0.863288164138794,1.9577528238296509,0.08333100378513336,0.25022798776626587,1.015185832977295,0.364915668964386,0.421427458524704,0.4530876874923706,-0.37495365738868713,-0.3631497323513031,-0.2709895670413971,0.3923162519931793,0.38989078998565674,0.9382551908493042,0.4284517467021942,0.49372854828834534,0.7491459250450134]},"forgetHidden":{"rows":20,"columns":20,"weights":[0.03426887094974518,0.018818195909261703,0.03553163260221481,-0.009650543332099915,-0.061865322291851044,0.03577764704823494,0.06576934456825256,0.021943647414445877,-0.07896237075328827,0.029335955157876015,-0.0020628722850233316,0.011007902212440968,0.07408645749092102,0.029431035742163658,-0.05169466510415077,-0.015206627547740936,-0.02017205022275448,-0.06291811168193817,-0.06712333858013153,0.06182454153895378,0.004296655301004648,0.13819517195224762,0.2805591821670532,-0.23364990949630737,-0.2245912402868271,-0.8050928115844727,0.08040902763605118,0.8426588773727417,-0.019563758745789528,-0.09238529950380325,-0.028028562664985657,0.07858408242464066,0.33856818079948425,1.0718574523925781,-0.1329111009836197,-0.05879970267415047,0.8176677227020264,0.5776154398918152,0.14053025841712952,0.10013515502214432,0.12855149805545807,1.0770570039749146,0.06572200357913971,-0.25179436802864075,-1.0924025774002075,-0.2735840380191803,-0.38148361444473267,0.6981210708618164,0.4053366184234619,-0.35447001457214355,0.37453511357307434,0.21751408278942108,0.8589059114456177,-1.2175079584121704,0.2975974380970001,0.23806504905223846,1.2102248668670654,0.3385654091835022,0.41044071316719055,0.7581297755241394,0.06887244433164597,0.07280521094799042,-0.29973188042640686,-0.27444368600845337,-0.07723692059516907,-0.3276650011539459,-0.24315758049488068,0.32488447427749634,-0.177427276968956,0.1694350242614746,-0.16085490584373474,0.17412438988685608,0.2932511568069458,-0.1899871975183487,0.266021728515625,0.34142154455184937,0.1411309391260147,0.27925392985343933,-0.3062663972377777,-0.06504487991333008,0.06657620519399643,2.0497639179229736,0.0749417096376419,-0.37214574217796326,-0.19182436168193817,-0.501574695110321,0.3803275525569916,1.7375916242599487,0.14091520011425018,-0.0011107890168204904,0.13029791414737701,0.17410245537757874,0.11312830448150635,1.3928780555725098,-0.42525532841682434,0.01060117781162262,1.947860836982727,0.5178734064102173,0.29920125007629395,0.3184081017971039,0.12484382092952728,0.3625722825527191,-0.23157766461372375,-0.35196205973625183,-0.3285686671733856,-0.34934279322624207,-0.30015864968299866,0.29682478308677673,-0.24459488689899445,0.1473584622144699,-0.2555181384086609,0.17975519597530365,0.23927514255046844,-0.3725452721118927,0.14846129715442657,0.32104262709617615,0.344270795583725,0.2494533509016037,-0.12531603872776031,-0.06293517351150513,-0.07488872855901718,-0.6789231300354004,0.2763132154941559,0.22351473569869995,0.5238972902297974,0.31538063287734985,-0.8202434182167053,-0.6829461455345154,-0.9240765571594238,0.8632014989852905,-0.9991603493690491,-0.15298715233802795,-0.377774715423584,-0.8190401792526245,0.7502761483192444,0.665211021900177,-1.3717588186264038,-0.2626938819885254,-0.9001342058181763,-1.2116782665252686,0.004923608154058456,0.7089148759841919,-0.08569629490375519,-0.08152664452791214,-0.6844739317893982,0.014407307840883732,0.3369371294975281,0.2570861876010895,0.6839276552200317,-0.6500368118286133,0.6587545275688171,0.03332176059484482,0.03982016071677208,0.1274910718202591,-0.6444835662841797,-0.47771507501602173,1.7554786205291748,0.08439262211322784,0.6806511878967285,0.7676309943199158,0.031079666689038277,-0.4684876501560211,-0.10445313155651093,-0.0006177580798976123,0.5304518938064575,0.09827034175395966,0.1849314272403717,-0.08978839218616486,0.3211548328399658,-0.34905487298965454,0.4354269802570343,-0.03161710873246193,0.010527970269322395,-0.16832523047924042,-0.29378241300582886,-0.2330092191696167,-0.48090702295303345,-0.07135709375143051,0.3215219974517822,0.388788104057312,0.04138237237930298,-0.6929863691329956,-0.010551365092396736,-0.015717197209596634,0.6438938975334167,-0.022195832803845406,0.7313212156295776,-1.0403896570205688,-0.012663190253078938,-1.1197819709777832,0.06757064908742905,0.057734664529561996,0.6734511852264404,0.7871079444885254,-6.417574882507324,0.3213050067424774,-5.426999092102051,-0.05861528590321541,-0.937279224395752,0.09264803677797318,-0.09714052826166153,-0.4676884412765503,0.30206963419914246,0.1301712840795517,0.4002206325531006,0.24294088780879974,-0.9723894596099854,-0.5960592031478882,-0.9621677398681641,0.9259556531906128,-1.015141248703003,-0.15298126637935638,-0.1242118775844574,-0.9293040633201599,0.9722626209259033,0.9377267360687256,-0.764057993888855,-0.21132902801036835,-0.9178998470306396,-1.2173629999160767,0.08792965114116669,0.10481046140193939,-0.3092794716358185,-0.04694699868559837,-0.11909084767103195,-0.17800407111644745,-0.09773193299770355,0.20693635940551758,-0.11956658214330673,0.11210635304450989,-0.18016579747200012,-0.003803448984399438,0.10130111873149872,-0.07621815800666809,0.19399747252464294,0.22275389730930328,0.11101522296667099,0.10315258055925369,-0.20601096749305725,0.012434740550816059,0.19598978757858276,1.1131322383880615,-0.26819634437561035,-0.34666144847869873,-1.2811579704284668,-0.38096746802330017,-0.3064621686935425,0.6428631544113159,0.1924518644809723,-0.3035812973976135,0.17093311250209808,0.2090572565793991,0.19302554428577423,-0.7703492641448975,-0.20779749751091003,0.30371755361557007,1.2548632621765137,0.34620505571365356,0.30988872051239014,0.7406458258628845,-0.06908801943063736,-1.3780992031097412,0.027572982013225555,0.0622483491897583,1.364656925201416,0.00967682246118784,-0.15609610080718994,-1.4732232093811035,-0.5839636325836182,-1.7857427597045898,-0.4517180621623993,-0.08645404130220413,-1.9312949180603027,-1.5388400554656982,2.9170405864715576,0.19274842739105225,-2.695978879928589,0.054456911981105804,0.042351752519607544,-0.5983384847640991,-0.08065015822649002,0.09857972711324692,2.364868640899658,0.08575939387083054,1.0144915580749512,0.23039251565933228,0.18707673251628876,-2.189810037612915,0.341216504573822,1.5976762771606445,0.25479650497436523,-0.06581319868564606,-1.3434762954711914,1.4112529754638672,1.7998467683792114,-1.5043541193008423,-0.3174397945404053,-0.1567111611366272,-0.02993137575685978,0.30150938034057617,-0.11635050177574158,-0.948442816734314,0.38606128096580505,0.2739175260066986,1.1366063356399536,0.3502384126186371,-0.7130244970321655,-0.9654695987701416,-0.6037143468856812,1.5204566717147827,-0.528201699256897,-0.3067345917224884,-0.5569919347763062,0.21179050207138062,1.6936227083206177,0.41660648584365845,-1.357763409614563,-0.3521459400653839,-1.1502505540847778,-0.7277501225471497,0.030233535915613174,1.5937589406967163,-0.14911070466041565,-0.12953919172286987,-1.686905026435852,-0.057355768978595734,0.5824368596076965,0.2974264323711395,0.6856667399406433,-0.6460387110710144,0.6504285931587219,0.04850679263472557,0.02495664358139038,0.7218995094299316,-0.7277759909629822,-0.572656512260437,0.5623466372489929,0.021967688575387,0.6417449116706848,0.8062609434127808,0.08889985084533691,0.23781190812587738,-0.33633458614349365,-0.3133096992969513,-0.2273009717464447,-0.2965192496776581,-0.2907473146915436,0.28196659684181213,-0.2678067684173584,0.3494611382484436,-0.18510353565216064,0.16187138855457306,0.24539034068584442,-0.2904292643070221,0.2733374238014221,0.3035055994987488,0.20169389247894287,0.23631787300109863,-0.26256757974624634,-0.2034786194562912,-0.10503631085157394,-0.8702837824821472,-0.45118284225463867,0.1178421899676323,-0.11177844554185867,0.2401031255722046,-0.4825315773487091,0.4224899113178253,0.17725464701652527,-0.9981523156166077,0.28402164578437805,-0.1479174643754959,0.2746729850769043,-2.5718469619750977,1.300662636756897,0.21262265741825104,-1.2827600240707397,-0.12299445271492004,0.11684618145227432,0.2132914662361145,-0.05693553388118744,-0.009181096218526363,0.10634957998991013,0.13814640045166016,0.018420781940221786,0.11406946182250977,0.1470162719488144,-0.02473701536655426,0.32306328415870667,-0.3124479055404663,0.30818477272987366,-0.029274635016918182,-0.052838679403066635,-0.35528358817100525,-0.2762952446937561,-0.22962282598018646,-0.08810406923294067,-0.11472395807504654,0.41380974650382996,0.3322753310203552]},"forgetBias":{"rows":20,"columns":1,"weights":[0,0,0,0,0,0,0,0,0,0,0,0,0,0,0,0,0,0,0,0]},"outputMatrix":{"rows":20,"columns":3,"weights":[-0.6305503845214844,-0.5283674001693726,-0.5048140287399292,-0.042739372700452805,0.08732422441244125,-0.0857619047164917,-0.6996426582336426,-0.6149949431419373,-0.6529912948608398,-0.34364280104637146,-0.3465827405452728,-0.4755918085575104,-0.37029188871383667,-0.3963538408279419,-0.39245307445526123,-0.2529692053794861,-0.42751964926719666,-0.4980597496032715,0.30533912777900696,0.3915792405605316,1.0741796493530273,-0.817868709564209,-0.7147002220153809,-0.7028623223304749,0.6142646074295044,0.6768544912338257,0.9202406406402588,-0.2693311870098114,0.029456939548254013,0.9003388285636902,0.3893202245235443,0.5870403051376343,0.9034693837165833,-0.4240370988845825,-0.45766958594322205,-0.39643892645835876,-0.029933571815490723,-0.2616289258003235,-0.5528038144111633,1.0646673440933228,0.8911017179489136,0.6329300403594971,0.6122817993164062,0.7724486589431763,0.8021376132965088,0.10029634088277817,0.250546395778656,0.9320250749588013,-0.3019486963748932,-0.2337399423122406,-0.3795631229877472,-0.3476046025753021,-0.31625890731811523,-0.3962079882621765,0.15887056291103363,0.3380885422229767,0.872648298740387,0.6543260812759399,0.6798380017280579,0.8357490301132202]},"outputHidden":{"rows":20,"columns":20,"weights":[-0.03863299638032913,0.03016624227166176,-0.056373052299022675,0.05391424894332886,0.026686832308769226,-0.0376681424677372,-0.2513718903064728,0.06644593924283981,-0.36967504024505615,0.28528645634651184,-0.21805547177791595,0.029187168926000595,-0.036287758499383926,-0.26731210947036743,0.27369919419288635,0.24336117506027222,-0.04392629116773605,0.0706600621342659,-0.26698610186576843,-0.24087631702423096,0.05717676132917404,2.7561147212982178,-0.3820889890193939,-0.2630506157875061,-2.039593458175659,-0.25789323449134827,1.003921627998352,0.9415818452835083,1.491821050643921,-1.654063105583191,1.2099065780639648,0.20774051547050476,0.23403814435005188,-0.3723873794078827,-1.6322280168533325,-1.261751651763916,2.2233591079711914,0.23738062381744385,1.707894206047058,1.7234694957733154,0.3143838346004486,0.8978001475334167,1.6578224897384644,-0.3811357319355011,-1.1969531774520874,-0.42309698462486267,-4.911291599273682,4.981625080108643,0.1040259376168251,0.5241166353225708,0.004325074143707752,0.3235422968864441,2.179755449295044,-2.7594802379608154,-0.3075537085533142,1.944435477256775,1.6396770477294922,0.4072944223880768,-0.09388900548219681,0.22532996535301208,0.3139461278915405,0.3288140892982483,-0.22807154059410095,-0.3075314164161682,-0.4963056743144989,-0.39479395747184753,-0.33739373087882996,0.46370434761047363,-0.369780033826828,0.39226779341697693,-0.46134766936302185,0.3073715269565582,0.2582818567752838,1.0545779466629028,0.10887964069843292,0.4719172418117523,0.5771306753158569,0.2830004096031189,-0.2510594427585602,-0.1968141794204712,0.09747786074876785,2.0653581619262695,-0.14901064336299896,-0.09930223971605301,-2.3013784885406494,-0.1663999706506729,0.5716708302497864,0.32478541135787964,1.038511872291565,-1.6200257539749146,0.6723417043685913,0.19563789665699005,0.2608058452606201,0.918613612651825,-1.8073463439941406,-0.6052751541137695,3.144371747970581,0.09421710669994354,1.5294296741485596,1.2290403842926025,0.2834762632846832,0.1951473206281662,0.29967039823532104,-0.32537057995796204,-0.5032989382743835,-0.4069269001483917,-1.0835434198379517,2.588534355163574,-0.5791824460029602,0.4759519398212433,-0.6004323363304138,0.30962878465652466,-0.4310970902442932,-0.14021162688732147,0.044962357729673386,1.304479718208313,0.6023464202880859,0.37211301922798157,-0.4214056730270386,-0.19867415726184845,-0.3148498237133026,-1.0719410181045532,2.512848138809204,0.37291958928108215,0.5594301223754883,0.5464783310890198,-1.136377215385437,-1.9754364490509033,-0.6753562688827515,0.8249704837799072,-0.6199682950973511,-0.3942417800426483,-1.1582558155059814,-0.33572688698768616,0.30590465664863586,0.580051839351654,-2.15360689163208,-0.5225970149040222,-0.7288882732391357,-0.8165234327316284,0.0421590656042099,1.545242428779602,1.712630033493042,-0.9900009036064148,-2.005295515060425,-0.8510568737983704,0.2217073291540146,0.31528908014297485,0.6747081875801086,-0.33101820945739746,0.5847307443618774,0.664943277835846,1.7229328155517578,0.6608555912971497,-1.0254862308502197,-0.3798539340496063,2.297875165939331,1.2945250272750854,0.7545874714851379,0.8823179602622986,-0.00009890708315651864,-1.1668728590011597,-0.48166611790657043,0.052464794367551804,1.5459389686584473,0.30461758375167847,0.30452761054039,-0.4395363926887512,0.41482678055763245,-0.4543725550174713,0.5021823644638062,0.005488341208547354,0.48398956656455994,-0.7644094228744507,-0.1641419678926468,-0.4740076959133148,-0.7504285573959351,-0.13684546947479248,0.5049651861190796,0.4637186825275421,-0.06013612449169159,-1.429772138595581,0.24730513989925385,0.22963431477546692,1.6187465190887451,0.27637213468551636,0.9035425782203674,-1.2072577476501465,0.08593568205833435,-0.09554043412208557,-0.08869390934705734,-0.03769479691982269,3.1409554481506348,0.46019092202186584,-5.643957138061523,-1.2615262269973755,-6.156165599822998,-0.19922813773155212,-1.15460205078125,0.02610190585255623,-0.2938328981399536,-0.2033948451280594,0.07250115275382996,0.260104238986969,0.4668540358543396,0.3838282823562622,0.16836632788181305,-0.33498093485832214,0.35182061791419983,-0.19104713201522827,0.3765953481197357,-0.338020384311676,-0.12309892475605011,-1.6079860925674438,-0.27426108717918396,-0.4330017864704132,-0.7747107744216919,-0.3446217477321625,0.27607202529907227,0.26818645000457764,0.19087591767311096,0.2504136264324188,-0.19078204035758972,-0.28986361622810364,-0.29285335540771484,-0.3364062011241913,-0.2871052622795105,0.3063693642616272,-0.327567994594574,0.3281644582748413,-0.3475654125213623,0.21314771473407745,0.29755598306655884,1.0064810514450073,-0.042826637625694275,0.4075686037540436,0.43504634499549866,0.23893004655838013,-0.1294243335723877,-0.0821755975484848,0.29216745495796204,0.6281413435935974,-2.9060282707214355,-0.4592781960964203,-0.9436428546905518,-0.7259695529937744,-2.359602689743042,4.674458026885986,-0.17247633635997772,0.1999017745256424,-0.22210393846035004,0.4214232563972473,1.652436375617981,-1.0698058605194092,-0.48742932081222534,1.9935873746871948,1.1806617975234985,0.434623122215271,-0.13742555677890778,-0.04013080894947052,0.06841341406106949,-1.207192301750183,-3.6426825523376465,-0.021127259358763695,1.0528059005737305,-0.28944382071495056,1.5310285091400146,0.6499611735343933,-0.016243843361735344,-0.17087113857269287,0.09658922255039215,0.05960192531347275,2.0159847736358643,2.8270652294158936,-0.5500834584236145,-0.6055966019630432,-1.2125130891799927,0.07900380343198776,0.040530014783144,-0.037239447236061096,-0.12702667713165283,-0.4414495825767517,0.38129186630249023,0.18982471525669098,0.6504835486412048,0.23002226650714874,0.5167955756187439,-0.40315577387809753,0.7140840291976929,-0.7434380054473877,0.6701207160949707,-0.04896730184555054,-0.3818383514881134,-0.20804964005947113,-0.6789721250534058,-0.5797221660614014,-0.4729996919631958,-0.20168857276439667,0.7050435543060303,0.6460139751434326,-0.2652622163295746,-1.1586174964904785,1.9870829582214355,0.6971917748451233,1.0250681638717651,1.0333216190338135,-0.7906448245048523,-2.0149905681610107,-0.6356685757637024,0.7420816421508789,-0.6191295385360718,-0.49912193417549133,-2.233541488647461,0.29511377215385437,1.6342107057571411,0.30117151141166687,-1.91866934299469,-0.9519747495651245,-1.0295442342758179,-0.7610239386558533,0.08103810995817184,2.34794020652771,-0.43186357617378235,-0.3084838092327118,-2.812189817428589,-0.44095152616500854,0.8550788164138794,0.5313006639480591,0.954375684261322,-0.9669061303138733,0.894385576248169,0.15011446177959442,-1.047329068183899,1.359900712966919,-1.0691977739334106,-0.8867618441581726,0.5604515671730042,0.2742201089859009,0.9892176985740662,1.0506478548049927,0.24851307272911072,0.3378511071205139,-0.16646374762058258,-0.3280109763145447,-0.44980788230895996,-0.2981749475002289,-0.3255595266819,1.0111759901046753,-0.3934766352176666,0.4140104353427887,-0.5102225542068481,0.3320270776748657,0.25135454535484314,0.6322454214096069,0.17206761240959167,0.6562018394470215,0.5059068202972412,0.34086912870407104,-0.2852022051811218,-0.14310739934444427,-0.20956169068813324,0.07487446814775467,-0.5880609750747681,0.20296964049339294,0.20398296415805817,0.26262831687927246,0.18291383981704712,0.1518203467130661,0.5505408644676208,-1.5240155458450317,0.4062485694885254,-0.17966815829277039,0.4587787389755249,-2.725533962249756,1.8860301971435547,0.3951303958892822,-0.8240914940834045,-0.21692194044589996,0.3426704406738281,0.443880170583725,-0.056931328028440475,-0.5835387110710144,0.1766907274723053,0.18058909475803375,0.6086269617080688,0.14744216203689575,0.4384334087371826,0.20923693478107452,0.535498857498169,-0.5946260094642639,0.5399764180183411,-0.0987832173705101,-0.09647245705127716,-0.41311123967170715,-0.4432266056537628,-0.4662019610404968,-0.49850407242774963,-0.19649797677993774,0.605911135673523,0.5467494130134583]},"outputBias":{"rows":20,"columns":1,"weights":[-0.09882521629333496,-2.1660735607147217,-0.40193435549736023,-0.4517272710800171,-1.1225272417068481,-0.4755804240703583,1.2574025392532349,-0.424259215593338,0.26731500029563904,0.27893054485321045,0.7809539437294006,-0.406045526266098,-0.4185996949672699,0.2563755214214325,0.3115438222885132,-0.30596205592155457,-0.6130169034004211,-0.39537206292152405,-0.5137324929237366,0.2923349440097809]},"cellActivationMatrix":{"rows":20,"columns":3,"weights":[0.3143814504146576,0.25941386818885803,0.351305216550827,0.30852699279785156,0.35040587186813354,0.3338701128959656,-0.2943195700645447,-0.284786581993103,-0.27079036831855774,-0.21508385241031647,-0.1990106999874115,-0.29150161147117615,-0.22110015153884888,-0.3149159550666809,-0.23288306593894958,-0.24304510653018951,-0.22156040370464325,-0.1509483903646469,0.22779765725135803,0.28221237659454346,0.4041842818260193,0.2983550429344177,0.3093618154525757,0.3033180832862854,0.6419742703437805,0.6294625401496887,0.6003710031509399,-0.38323405385017395,-0.27738356590270996,-0.38747361302375793,0.2916911244392395,0.3147323429584503,0.3972408175468445,0.30328279733657837,0.24580465257167816,0.35257941484451294,0.09401776641607285,0.11204755306243896,0.17554759979248047,0.37633082270622253,0.3549920320510864,0.8289613127708435,-0.3911694884300232,-0.45106902718544006,-0.46097099781036377,-0.27581587433815,-0.3558102548122406,-0.37915563583374023,0.31401774287223816,0.3527776300907135,0.28027722239494324,0.1781047284603119,0.21772891283035278,0.17411138117313385,0.3724197745323181,0.2501421272754669,0.38187170028686523,0.34364810585975647,0.23920220136642456,0.35299211740493774]},"cellActivationHidden":{"rows":20,"columns":20,"weights":[-0.12719637155532837,-0.22905367612838745,0.24550607800483704,0.2153134047985077,0.20850245654582977,0.2665315866470337,0.3519684970378876,-0.3121958076953888,0.2737036943435669,-0.33668890595436096,0.34891578555107117,-0.2739080488681793,-0.37968549132347107,0.2608869969844818,-0.35782724618911743,-0.33123326301574707,-0.2873128652572632,-0.25589799880981445,0.3503383696079254,0.28640732169151306,-0.2270759493112564,-0.08100755512714386,0.36293187737464905,0.3893529176712036,0.03223784640431404,0.36161795258522034,0.6900475025177002,-0.4227023124694824,0.47196969389915466,-0.39195114374160767,0.5040541887283325,-0.33724236488342285,-0.6407603025436401,1.0090748071670532,-0.7306869029998779,-0.42254477739334106,-0.30274391174316406,-0.3186166286468506,0.37647074460983276,0.509785532951355,0.2740187346935272,0.04850979894399643,-0.24120749533176422,-0.26997190713882446,0.07643905282020569,-0.3810531795024872,-0.3692231774330139,0.18115326762199402,-0.5691489577293396,0.3660900592803955,-0.5318619608879089,0.258567750453949,0.34980309009552,-0.2014826536178589,0.38676607608795166,0.2773043215274811,-0.07495849579572678,0.34042054414749146,-0.4746261239051819,-0.7756248116493225,0.3681164085865021,0.3448399305343628,-0.2666379511356354,-0.3738500773906708,-0.3386041522026062,-0.3186943829059601,-0.25342127680778503,0.3128814995288849,-0.23716174066066742,0.3162938058376312,-0.3673909902572632,0.3593153655529022,0.24241475760936737,-0.36984431743621826,0.3035590946674347,0.36132583022117615,0.4036020338535309,0.29523175954818726,-0.27789995074272156,-0.2846631109714508,0.3469357490539551,0.4094451367855072,-0.20854809880256653,-0.2778133451938629,-0.39448273181915283,-0.2648541331291199,-0.4002712070941925,0.31113508343696594,-0.31594741344451904,0.4167068302631378,-0.2941131293773651,0.30004197359085083,0.2372932881116867,-0.6288694739341736,0.36755967140197754,0.41182631254196167,0.5614301562309265,0.38890138268470764,-0.3848113715648651,-0.22014014422893524,0.3313254714012146,0.4251757264137268,-0.2924284040927887,-0.28304311633110046,-0.38496190309524536,-0.3278944790363312,-0.3119739592075348,0.31693750619888306,-0.21773870289325714,0.2699801027774811,-0.291860967874527,0.39360055327415466,0.25246354937553406,-0.43383798003196716,0.3232384920120239,0.3782432973384857,0.37886497378349304,0.3302120566368103,-0.24475370347499847,-0.09554848819971085,-0.2500305771827698,-0.7396673560142517,0.5758665204048157,0.26887643337249756,0.6761202812194824,0.39921873807907104,-0.00824672356247902,-0.7646275758743286,0.026606354862451553,0.06051638722419739,0.11576246470212936,-0.2891523241996765,-0.3875419795513153,1.5457040071487427,-0.0014026699354872108,-0.38902610540390015,-0.9130070209503174,-0.3122606575489044,0.255776971578598,-0.24025006592273712,-0.12096534669399261,0.23258864879608154,0.3477298617362976,0.18988226354122162,-0.29360103607177734,0.284782350063324,0.37714603543281555,-0.17671740055084229,0.5895620584487915,-0.5496363043785095,0.5243716239929199,-0.16892346739768982,-0.2430841624736786,0.24486713111400604,-0.6174921989440918,-0.36903437972068787,0.30527812242507935,-0.27397191524505615,0.5193040370941162,0.6238312721252441,-0.05746179446578026,-0.07762160152196884,0.3499549627304077,0.17085565626621246,0.2135159820318222,0.2723608613014221,0.21159353852272034,-0.016791462898254395,0.1282425820827484,-0.10122901201248169,0.07278914749622345,-0.1539444625377655,-0.3097127377986908,-0.20225512981414795,-0.23265552520751953,-0.22681134939193726,0.15809835493564606,-0.1749373823404312,0.1401575803756714,-0.1749497652053833,0.168063685297966,0.050985679030418396,-0.24509164690971375,-0.29432404041290283,-0.10802065581083298,-0.36468079686164856,-0.32752710580825806,0.35028159618377686,-0.3682831823825836,0.4085156321525574,-0.47766029834747314,0.19436144828796387,0.21999362111091614,0.001943439245223999,0.38446035981178284,0.36346831917762756,0.15605325996875763,0.2380729466676712,-0.4336370825767517,-0.3980766832828522,-0.34129709005355835,-0.09898432344198227,0.3780844807624817,0.3497940003871918,0.043450966477394104,0.3113938271999359,0.3463878035545349,-0.2670550048351288,0.36821863055229187,-0.4101735055446625,0.4803338646888733,-0.379299134016037,-0.3294568955898285,0.09347038716077805,-0.39889147877693176,-0.2752382457256317,-0.11834385991096497,-0.30390220880508423,0.4676264226436615,0.5842592120170593,-0.3728153109550476,-0.36398845911026,0.2814105451107025,0.29908788204193115,0.31792521476745605,0.2589256167411804,0.37136879563331604,-0.376083105802536,0.25787603855133057,-0.2816201150417328,0.2552892565727234,-0.36474233865737915,-0.27720412611961365,0.3562314212322235,-0.25075262784957886,-0.3191756308078766,-0.2848753333091736,-0.34542784094810486,0.27173152565956116,0.3621542453765869,-0.36058515310287476,-0.04210682213306427,0.26073774695396423,0.30981239676475525,-0.10018467903137207,0.3015875518321991,0.2892528474330902,-0.25477880239486694,0.4845176935195923,-0.41046997904777527,0.4363299608230591,-0.3391287922859192,-0.33631080389022827,0.2221352607011795,-0.33421435952186584,-0.2525891661643982,-0.0010733518283814192,-0.372579962015152,0.5028458833694458,0.7157307863235474,-0.04260529950261116,-0.18794572353363037,3.3225178718566895,1.7812151908874512,0.8726189136505127,1.7543202638626099,-0.2992490828037262,-1.9592063426971436,-0.8728244304656982,0.5933221578598022,-0.6710942983627319,-1.5229432582855225,-2.819777011871338,-0.45952606201171875,1.2710708379745483,0.49536725878715515,-1.9975156784057617,-2.212596893310547,-0.7205488085746765,-0.8996407985687256,0.06468670815229416,-0.013754625804722309,-0.2572835385799408,-0.20066919922828674,0.01168646477162838,-0.32013562321662903,-0.21125520765781403,0.20357611775398254,-0.3985772430896759,0.42798587679862976,-0.4313511550426483,0.23324054479599,0.22278179228305817,0.24082742631435394,0.3371894061565399,0.34256604313850403,-0.039347440004348755,0.2021355777978897,-0.34348535537719727,-0.28297099471092224,0.2342090606689453,0.6940317153930664,-0.37684938311576843,-0.3393886089324951,-0.7434499263763428,-0.3175739645957947,-0.2995423674583435,0.4443058669567108,-0.10775578767061234,0.17825748026371002,-0.10305348038673401,0.259578138589859,0.3576129674911499,-0.22011417150497437,0.09211425483226776,0.2713812291622162,0.6861605644226074,0.3161911368370056,-0.1623382568359375,0.11213266104459763,-0.3322421610355377,-0.04691959545016289,0.38916531205177307,0.3029429614543915,-0.06311623752117157,0.29742830991744995,0.4300003945827484,-0.2574000954627991,0.47977393865585327,-0.3544590473175049,0.3913824260234833,-0.3353535532951355,-0.2522330582141876,0.4411354064941406,-0.4574272036552429,-0.3608268201351166,-0.09979569166898727,-0.25355955958366394,0.5091029405593872,0.6920744180679321,-0.3425716757774353,-0.36115801334381104,0.24663235247135162,0.3198920786380768,0.38076499104499817,0.3877171277999878,0.27367550134658813,-0.25974830985069275,0.24103938043117523,-0.37546926736831665,0.26758167147636414,-0.35731005668640137,-0.3912614583969116,0.26583024859428406,-0.26613032817840576,-0.24925737082958221,-0.2969985604286194,-0.2909521460533142,0.33876803517341614,0.2786422073841095,-0.3024386763572693,-0.16640673577785492,0.3518196940422058,0.28840136528015137,0.07638353109359741,0.2846987843513489,0.38033464550971985,-0.2599397301673889,0.45265689492225647,-0.39981865882873535,0.44275110960006714,-0.33269956707954407,-0.3484322428703308,0.16473282873630524,-0.413892537355423,-0.2939889430999756,-0.2014758437871933,-0.29319533705711365,0.40210452675819397,0.5053007006645203,-0.3043951988220215,-0.2012525051832199,0.2750382423400879,0.38162821531295776,0.18037547171115875,0.26153427362442017,0.3377779424190521,-0.2862969934940338,0.39762625098228455,-0.39360037446022034,0.3810257613658905,-0.3489324748516083,-0.25738468766212463,0.2197764664888382,-0.32472753524780273,-0.35981395840644836,-0.15791919827461243,-0.2419877052307129,0.3126455843448639,0.37931501865386963]},"cellActivationBias":{"rows":20,"columns":1,"weights":[0.2765280306339264,0.3003189265727997,-0.3140844404697418,-0.3144235908985138,-0.3078480064868927,-0.31431350111961365,0.3763982653617859,0.19389712810516357,0.38820746541023254,-0.16336674988269806,0.2906382977962494,0.3140268325805664,0.3131280541419983,0.7913002967834473,-0.1463722288608551,-0.2736404836177826,0.3097994327545166,0.3142881691455841,0.20430800318717957,0.15462680160999298]}}],"outputConnector":{"rows":3,"columns":20,"weights":[-0.35560423135757446,-0.5181190967559814,-0.6237449049949646,0.24174214899539948,0.4153693616390228,0.30137744545936584,0.429316908121109,0.5367810726165771,0.3599995970726013,-0.4967880845069885,0.5005027055740356,-0.300985187292099,-0.41229215264320374,0.4236202836036682,-0.49269068241119385,-0.32889506220817566,0.012263256125152111,-0.2519591450691223,0.19393424689769745,0.3267984688282013,-0.31093963980674744,-0.5132210850715637,-0.3332687318325043,0.2990644574165344,-0.1544436812400818,0.14217457175254822,0.4406649172306061,0.1368969827890396,0.4447808265686035,-0.17389589548110962,0.4992446005344391,-0.30014967918395996,-0.18731047213077545,0.34897834062576294,-0.37340307235717773,-0.2309384047985077,-0.3743041157722473,-0.2508925497531891,0.1535254865884781,0.4745228588581085,-0.262257844209671,-0.39808031916618347,-0.03191059082746506,0.28068631887435913,-0.20605532824993134,0.17372329533100128,0.26035767793655396,-0.14629822969436646,0.3347630798816681,-0.03254764527082443,0.3416686952114105,-0.24723239243030548,-0.07955678552389145,0.3250422477722168,-0.2235451340675354,-0.38590025901794434,-0.5107694268226624,-0.24860917031764984,0.4586802124977112,0.386883020401001]},"output":{"rows":3,"columns":1,"weights":[2.060793161392212,2.0248074531555176,2.168468952178955]},"inputLookup":null,"inputLookupLength":0,"outputLookup":null,"outputLookupLength":0}