{"type":"LSTMTimeStep","options":{"inputSize":3,"inputRange":0,"hiddenLayers":[20],"outputSize":3,"decayRate":0.999,"smoothEps":1e-8,"regc":0.000001,"clipval":5,"maxPredictionLength":100,"dataFormatter":{"indexTable":{},"characterTable":{},"characters":[],"specialIndexes":[]}},"hiddenLayers":[{"inputMatrix":{"rows":20,"columns":3,"weights":[0.8023386001586914,0.6706761121749878,0.671322762966156,-0.3587339520454407,-0.3654734492301941,-0.3526175618171692,0.03226209059357643,-0.03248845040798187,0.015734296292066574,-0.41521796584129333,-0.36289870738983154,-0.39971157908439636,-0.08432262390851974,0.36598923802375793,0.29290449619293213,-0.8020634055137634,-0.3151976466178894,-0.09955466538667679,-0.414763480424881,-0.3666318655014038,-0.3224633038043976,-0.3389844000339508,-0.39048388600349426,-0.4354713261127472,-0.7931680679321289,0.4975665509700775,0.659248411655426,0.5464786887168884,0.6457035541534424,0.5870622396469116,0.18052932620048523,0.20889797806739807,0.09385517984628677,-0.3369552195072174,-0.4014856219291687,-0.4011814594268799,0.44842103123664856,0.3895202875137329,0.3566201329231262,-0.4684372842311859,-0.3720054626464844,-0.40397128462791443,0.7688702940940857,0.8556104302406311,0.7582446336746216,-0.4268982410430908,-0.32472872734069824,-0.3900371789932251,-0.4311022460460663,-0.4203568696975708,-0.462507963180542,0.4939727485179901,0.4531397819519043,0.45940932631492615,-0.34268346428871155,-0.38224709033966064,-0.38946661353111267,-0.36586377024650574,-0.3303215205669403,-0.39697566628456116]},"inputHidden":{"rows":20,"columns":20,"weights":[-0.25098541378974915,-0.015612214803695679,-0.05779806897044182,0.044588591903448105,-0.373790979385376,-0.33075717091560364,-0.012661397457122803,0.03683091700077057,-0.38068661093711853,0.4399481415748596,-0.413339763879776,-0.010030720382928848,0.3561704158782959,-0.0429912693798542,0.3969813883304596,-0.07765630632638931,-0.022073330357670784,-0.46565893292427063,-0.040748365223407745,0.019706493243575096,0.030247237533330917,0.0802188292145729,-0.2561439573764801,-0.34582406282424927,0.20110127329826355,0.2575441300868988,0.26167789101600647,-0.1537848263978958,0.22647780179977417,-0.2900446355342865,0.3422907590866089,0.3049594759941101,-0.2729239761829376,0.3189024329185486,-0.2677968442440033,0.3217492401599884,-0.27471646666526794,0.36385390162467957,0.28584179282188416,0.26123154163360596,4.259589195251465,0.2772475779056549,-0.2787722945213318,-0.3865843415260315,3.7465832233428955,1.7713561058044434,0.30924543738365173,-0.24847449362277985,3.6432530879974365,-2.428101062774658,1.6721985340118408,0.2842521071434021,-3.800668478012085,0.3585723042488098,-3.3905975818634033,0.33316123485565186,-0.2977660894393921,3.6193654537200928,0.34981104731559753,0.25182750821113586,0.11703996360301971,0.06891117990016937,-0.3243330121040344,-0.35697296261787415,0.24719911813735962,0.18824373185634613,0.2780430316925049,-0.16405320167541504,0.18437349796295166,-0.24113929271697998,0.3218451738357544,0.17525582015514374,-0.3389424681663513,0.2721048891544342,-0.318951278924942,0.2636089324951172,-0.32278314232826233,0.3359353840351105,0.3034866154193878,0.35207438468933105,3.989018678665161,-0.12439386546611786,-2.0254013538360596,0.28556719422340393,3.075874090194702,4.884182929992676,-0.3301103115081787,0.09678125381469727,-7.380687713623047,3.3426146507263184,-2.1749532222747803,-0.29775890707969666,-2.0265374183654785,-0.3439159393310547,2.603891134262085,-0.24085257947444916,0.32559823989868164,1.7674192190170288,-0.32738712430000305,-0.26753947138786316,3.711299419403076,-0.006421054247766733,-1.6725503206253052,0.17721699178218842,0.6049935221672058,-4.840267181396484,-0.11428415775299072,-0.05900184065103531,6.47622537612915,-2.8192853927612305,-0.160390242934227,-0.10655547678470612,0.635802686214447,-0.2347082644701004,1.1245646476745605,-0.18549391627311707,0.09498109668493271,-0.6137397289276123,-0.2943515479564667,-0.2725370526313782,0.019814379513263702,0.1999608427286148,-0.2600996196269989,-0.3096482753753662,0.16807758808135986,0.20439700782299042,0.20025596022605896,-0.1553952991962433,0.1763300746679306,-0.2305467575788498,0.37259745597839355,0.3014073967933655,-0.3321669101715088,0.31730327010154724,-0.38276952505111694,0.274694561958313,-0.3089468479156494,0.4003179669380188,0.3246675431728363,0.29716089367866516,-0.020319338887929916,0.0922166034579277,-0.250377893447876,-0.2225181758403778,0.02706964500248432,0.14986282587051392,0.15112315118312836,-0.11378835141658783,0.15578733384609222,-0.3648849427700043,0.2728264331817627,0.1578422486782074,-0.36404889822006226,0.24614465236663818,-0.24914298951625824,0.15375983715057373,-0.31630250811576843,0.28994014859199524,0.20897194743156433,0.2043309062719345,1.8981101512908936,-0.194232776761055,-4.367437839508057,0.29207348823547363,0.6559284329414368,-2.0502712726593018,-0.23786777257919312,0.1612837165594101,-3.8671984672546387,4.574723720550537,-7.171868324279785,-0.37111711502075195,-0.10218991339206696,-0.34723159670829773,-1.0437145233154297,-0.3729754090309143,0.3085472285747528,-0.06824789941310883,-0.3618760406970978,-0.3740518093109131,0.9169793128967285,-0.22955168783664703,0.4107871353626251,0.37166714668273926,0.6793137788772583,0.9519287943840027,-0.26649993658065796,0.20037883520126343,0.7290216088294983,0.7204693555831909,0.1134895384311676,-0.24849016964435577,0.3740138113498688,-0.2725954055786133,0.2708071768283844,-0.26847097277641296,0.2976909279823303,-0.48813289403915405,-0.2520903944969177,-0.22755666077136993,1.209815263748169,-0.13545149564743042,2.9082303047180176,0.3220282196998596,1.0663580894470215,0.47008588910102844,-0.3456703722476959,-0.05008697882294655,0.821831226348877,4.107075214385986,-3.5019240379333496,-0.24497851729393005,0.40159013867378235,-0.3122914731502533,2.7732341289520264,-0.24202613532543182,0.13863009214401245,-0.46377915143966675,-0.34398379921913147,-0.30359193682670593,0.058661866933107376,0.2797448933124542,-0.2553720474243164,-0.31987684965133667,0.3519163131713867,0.2449948936700821,0.27547723054885864,-0.28143495321273804,0.22385290265083313,-0.36508822441101074,0.38462769985198975,0.34610897302627563,-0.322543203830719,0.2859863042831421,-0.3220177888870239,0.2860715091228485,-0.3708394467830658,0.35988298058509827,0.3811643123626709,0.3554486632347107,-2.4415764808654785,-0.3775196373462677,-0.4121452271938324,0.3407481908798218,-1.7600103616714478,-0.7873261570930481,-0.24613536894321442,0.31315621733665466,-1.3523164987564087,0.5000166893005371,-0.628260612487793,-0.28115716576576233,1.1481989622116089,-0.31480714678764343,0.7959989905357361,-0.23787231743335724,0.25022122263908386,-1.047054648399353,-0.322976291179657,-0.32964327931404114,0.10986490547657013,-0.045972343534231186,-0.06425613164901733,0.005479732993990183,0.10822092741727829,0.06667399406433105,0.09717923402786255,0.063718780875206,0.022103432565927505,-0.18725265562534332,0.09425339102745056,0.05515104532241821,-0.16826701164245605,0.19187825918197632,-0.14216990768909454,0.09834384173154831,-0.1364087462425232,0.21465733647346497,0.14480525255203247,0.028382128104567528,0.5651662349700928,-0.08094524592161179,0.26307857036590576,0.1839333325624466,0.47793111205101013,0.6523284316062927,-0.13604354858398438,0.1346013993024826,0.5283650755882263,0.6427961587905884,0.00884243194013834,-0.0700899288058281,0.22745539247989655,-0.3156128525733948,0.28945448994636536,-0.21618269383907318,0.3003811240196228,-0.4057394862174988,-0.3392939567565918,-0.1875782459974289,0.09255964308977127,0.13406476378440857,-0.2973536550998688,-0.3539693355560303,0.23803479969501495,0.25848323106765747,0.21526716649532318,-0.15317922830581665,0.2990339994430542,-0.37959790229797363,0.3531533479690552,0.2618728578090668,-0.273220419883728,0.33723899722099304,-0.2555061876773834,0.35324782133102417,-0.25927236676216125,0.3658728003501892,0.3596702218055725,0.2898089289665222,0.38177230954170227,0.23830077052116394,-0.17654383182525635,-0.3768349587917328,0.5461079478263855,0.2847672700881958,0.32289743423461914,-0.17172202467918396,0.2871306836605072,-0.3326491117477417,0.32893162965774536,0.22395090758800507,-0.47638994455337524,0.29976776242256165,-0.3263408839702606,0.29135647416114807,-0.33063799142837524,0.45707711577415466,0.3717523217201233,0.26801466941833496,-2.3913192749023438,-0.3665781021118164,0.13094891607761383,0.3778311610221863,-1.6901986598968506,-0.5455013513565063,-0.24838562309741974,0.32806381583213806,-1.0666450262069702,0.382792592048645,-0.4418334364891052,-0.3644481301307678,0.8329052925109863,-0.2837616205215454,0.5069862008094788,-0.2864767014980316,0.3291696608066559,-0.6840251088142395,-0.3048569858074188,-0.24967508018016815,0.09682862460613251,0.07542312890291214,-0.2835911810398102,-0.20084106922149658,0.20646663010120392,0.2231776863336563,0.2899415194988251,-0.11941387504339218,0.23780421912670135,-0.2747149169445038,0.3288021683692932,0.24093276262283325,-0.3172318637371063,0.3457225263118744,-0.3494521379470825,0.2930707037448883,-0.2367577701807022,0.3972482681274414,0.35058897733688354,0.3567144572734833,0.0828423723578453,0.33678528666496277,-0.3449110984802246,-0.2723059356212616,0.25417235493659973,0.3355407118797302,0.3157055974006653,-0.289538711309433,0.38207074999809265,-0.3540707230567932,0.35170498490333557,0.366186261177063,-0.3893011808395386,0.37101224064826965,-0.3283159136772156,0.36126622557640076,-0.315097451210022,0.3394067883491516,0.3394165337085724,0.36385244131088257]},"inputBias":{"rows":20,"columns":1,"weights":[0.42205142974853516,-0.2851201295852661,5.56877326965332,-0.2520034909248352,0.5811738967895508,5.396100044250488,-0.2788998484611511,0.10190143436193466,-1.90572190284729,0.3740115165710449,-6.5185322761535645,-0.3076647222042084,2.0395779609680176,-0.11600571870803833,0.45441311597824097,-0.30076491832733154,-0.4190184473991394,1.9462581872940063,-0.24301838874816895,-0.3096347153186798]},"forgetMatrix":{"rows":20,"columns":3,"weights":[0.1807161271572113,-0.0741136372089386,0.32943806052207947,-0.35122010111808777,-0.2918437421321869,-0.3574275076389313,-0.7296738624572754,-0.6779413223266602,-0.5931401252746582,-0.31261950731277466,-0.3023044168949127,-0.37426239252090454,0.6075292229652405,0.7617077231407166,0.6109099984169006,-0.06952168047428131,-0.09666378051042557,0.03573337197303772,-0.34304383397102356,-0.38695189356803894,-0.2873188853263855,-0.3551420569419861,-0.32793503999710083,-0.2597595751285553,-0.2714487314224243,0.31658148765563965,0.004870863165706396,0.5969889163970947,0.6044633388519287,0.5844289660453796,-0.09517600387334824,0.28730159997940063,0.014967087656259537,-0.26246801018714905,-0.32753732800483704,-0.2926620841026306,0.7634614706039429,0.9178762435913086,0.8351337909698486,-0.2537122666835785,-0.35033637285232544,-0.3660896122455597,0.7446961402893066,0.6802694797515869,0.6839209794998169,-0.23507578670978546,-0.23596256971359253,-0.24536654353141785,-0.26044878363609314,-0.27089670300483704,-0.3210371434688568,0.7767127752304077,0.765785276889801,0.7948713302612305,-0.33434292674064636,-0.3106513023376465,-0.25135111808776855,-0.3073744773864746,-0.24621093273162842,-0.2999103367328644]},"forgetHidden":{"rows":20,"columns":20,"weights":[3.1629765033721924,0.027762627229094505,-0.20516030490398407,0.06327686458826065,-1.1306540966033936,-3.3161702156066895,-0.00865434855222702,0.08179403096437454,-4.817300319671631,-0.9973140358924866,1.8270357847213745,0.01417627464979887,0.11052940040826797,-0.03455265983939171,-0.543006956577301,-0.02851574309170246,0.10095667839050293,-0.007265614811331034,0.019051093608140945,-0.07917648553848267,-0.011633961461484432,0.028293771669268608,-0.3144858479499817,-0.13007852435112,0.05119132623076439,0.07974394410848618,0.1565045714378357,0.09108201414346695,0.0538799986243248,-0.26306772232055664,0.2971650958061218,0.06878957152366638,-0.30237844586372375,0.2669290602207184,-0.21343350410461426,0.1208345890045166,-0.21386587619781494,0.2114105224609375,0.16636112332344055,0.1458178609609604,-0.9152543544769287,0.31849852204322815,-0.28217917680740356,-0.2858890891075134,-0.4465721547603607,0.0811711773276329,0.25195541977882385,-0.32955583930015564,-0.18848492205142975,-0.3868521451950073,0.5630839467048645,0.28656241297721863,-0.4228384792804718,0.26990488171577454,-0.47733309864997864,0.34709882736206055,-0.3763457238674164,0.5372299551963806,0.24465443193912506,0.33901119232177734,0.05292113125324249,0.03852185234427452,-0.26774415373802185,-0.17452555894851685,0.014724316075444221,0.11983324587345123,0.2392149716615677,-0.05075754597783089,0.10748279094696045,-0.2237614244222641,0.26754844188690186,0.0947965458035469,-0.2633136212825775,0.3200925290584564,-0.25839850306510925,0.17875444889068604,-0.25797250866889954,0.36063069105148315,0.3038577735424042,0.2372000366449356,1.5444583892822266,-0.03876209631562233,-0.19815140962600708,0.2187151163816452,0.8984101414680481,0.8664451837539673,-0.08560388535261154,-0.015487967990338802,-0.325604647397995,0.1625785529613495,0.7451529502868652,-0.06025804579257965,-0.7228808403015137,-0.20510199666023254,-0.3829679787158966,-0.0860234797000885,0.29720351099967957,0.6984988451004028,-0.32378023862838745,-0.3107171058654785,1.7760101556777954,0.05352195352315903,-1.729658603668213,-0.05531099811196327,0.7294321060180664,-2.8456969261169434,-0.01775066927075386,-0.07952406257390976,6.735276222229004,0.8103654980659485,-1.6026281118392944,0.052719540894031525,0.011618624441325665,-0.13149325549602509,1.21579110622406,-0.024141358211636543,0.07736733555793762,-0.007487271446734667,-0.03466575965285301,-0.06451401859521866,0.06831250339746475,0.07293994724750519,-0.19388063251972198,-0.06936230510473251,0.06157749518752098,0.07916856557130814,0.11154346913099289,-0.011485546827316284,0.1052197813987732,-0.27604857087135315,0.25709694623947144,0.07013475149869919,-0.18088777363300323,0.2689286470413208,-0.21870698034763336,0.059990689158439636,-0.2505674362182617,0.2682653069496155,0.1413537710905075,0.21409939229488373,0.07359451055526733,-0.014035380445420742,-0.14958830177783966,-0.14508934319019318,-0.04027410224080086,-0.018433574587106705,0.08988212049007416,-0.06430524587631226,-0.008265496231615543,-0.24684245884418488,0.10346375405788422,0.047503191977739334,-0.29796722531318665,0.21882407367229462,-0.20376522839069366,0.13082167506217957,-0.2124563604593277,0.25027981400489807,0.13931480050086975,0.17631162703037262,1.7661259174346924,0.025258423760533333,-1.0331096649169922,0.2064322829246521,2.2229154109954834,3.068298816680908,-0.17152521014213562,0.02145983837544918,-5.321310997009277,3.9009640216827393,-2.212620496749878,-0.10364505648612976,-2.183065414428711,-0.317178875207901,0.11547233164310455,-0.15473845601081848,0.17615728080272675,2.056046724319458,-0.2198948860168457,-0.14980250597000122,0.5980919003486633,-0.018001016229391098,0.40796196460723877,0.18531715869903564,0.4378436505794525,0.41884177923202515,-0.2225394994020462,0.12444636225700378,0.5426039695739746,0.39460232853889465,-0.07890985906124115,-0.22071588039398193,0.0505521297454834,-0.3657669126987457,0.08358041197061539,-0.1349542737007141,0.3118486702442169,-0.10195000469684601,-0.3294318914413452,-0.2555975019931793,-0.2838417887687683,-0.030206389725208282,7.997531890869141,0.1227613240480423,-2.5206730365753174,2.3893160820007324,-0.15900918841362,0.08859426528215408,0.3519356846809387,1.9704490900039673,-0.7565109133720398,-0.07049382477998734,0.7612178921699524,-0.26210471987724304,4.347783088684082,-0.12439201027154922,0.1302463710308075,-0.9198673963546753,-0.22048699855804443,-0.26605796813964844,-0.03296845406293869,0.04008837789297104,-0.32496801018714905,-0.18058285117149353,0.08219577372074127,0.2395407110452652,0.16915857791900635,0.050869524478912354,0.016834883019328117,-0.23994675278663635,0.29371538758277893,0.12391292303800583,-0.2526501417160034,0.3258592486381531,-0.32518070936203003,0.24145309627056122,-0.2967282831668854,0.24748997390270233,0.20232830941677094,0.2256820648908615,2.3159773349761963,-0.31639885902404785,1.3082672357559204,0.2528895437717438,1.1253001689910889,0.8967202305793762,-0.3770112991333008,0.2931661009788513,1.1314653158187866,1.138249158859253,0.29348626732826233,-0.33328133821487427,0.2750663459300995,-0.3388056457042694,0.3919900357723236,-0.3183881640434265,0.29630911350250244,-0.26604336500167847,-0.35451143980026245,-0.3808555603027344,0.023577235639095306,-0.06815984845161438,-0.04142468795180321,-0.038390953093767166,-0.002673075068742037,-0.010106474161148071,-0.029636213555932045,-0.04621149227023125,0.003988967277109623,0.010150063782930374,0.11186660081148148,0.06814120709896088,0.022570913657546043,0.02390403300523758,0.012644949369132519,-0.0062156496569514275,-0.09438054263591766,0.09695344418287277,-0.009904464706778526,-0.026774965226650238,0.03467108681797981,0.006430425681173801,0.25063249468803406,0.11076691001653671,0.024459166452288628,0.26919999718666077,-0.08219335228204727,0.05198288708925247,0.24814923107624054,0.12501651048660278,-0.09416721016168594,-0.017129678279161453,0.2945011854171753,-0.2580038011074066,0.13070888817310333,-0.025079762563109398,0.21644872426986694,-0.465644508600235,-0.18603309988975525,-0.22402584552764893,0.05362710356712341,0.0458746999502182,-0.17766813933849335,-0.1133316159248352,0.11588406562805176,0.16733522713184357,0.1310565322637558,0.057576168328523636,-0.01860366202890873,-0.2800731360912323,0.18588808178901672,0.13035497069358826,-0.2165585458278656,0.2930271327495575,-0.17321184277534485,0.05151508376002312,-0.24090610444545746,0.3266960382461548,0.19731834530830383,0.22614115476608276,0.04305345192551613,0.11110622435808182,-0.2744916081428528,-0.20250436663627625,0.10015004873275757,0.24608640372753143,0.2736131548881531,-0.023615583777427673,0.13057956099510193,-0.29635339975357056,0.2815881669521332,0.23191095888614655,-0.2753163278102875,0.27795928716659546,-0.34318995475769043,0.2679295837879181,-0.30094292759895325,0.362244188785553,0.2722238004207611,0.22584456205368042,1.4880472421646118,-0.33797359466552734,0.48834356665611267,0.3801649808883667,0.7712985277175903,0.6899532675743103,-0.3679780662059784,0.3523697853088379,0.8083844184875488,0.9202803373336792,-0.14655807614326477,-0.3641774356365204,0.4097423255443573,-0.3071640133857727,0.4450518786907196,-0.27458417415618896,0.3131658434867859,-0.47903740406036377,-0.3432044982910156,-0.24496105313301086,0.0579303577542305,-0.013429172337055206,-0.2280484139919281,-0.19904763996601105,0.039558958262205124,0.08382261544466019,0.07984364777803421,0.01312952395528555,-0.008200646378099918,-0.3628239333629608,0.2977115511894226,0.177388533949852,-0.32294362783432007,0.2737081050872803,-0.3085295259952545,0.18701954185962677,-0.239890456199646,0.23332585394382477,0.19050104916095734,0.25945350527763367,0.07236640155315399,0.19434431195259094,-0.2278851568698883,-0.3111901879310608,0.11681503057479858,0.20705333352088928,0.19379568099975586,-0.10793723165988922,0.21603767573833466,-0.2997768521308899,0.3202608823776245,0.2699209451675415,-0.3841909170150757,0.23085784912109375,-0.3621349036693573,0.23021958768367767,-0.2371804416179657,0.24839527904987335,0.36448395252227783,0.2815820276737213]},"forgetBias":{"rows":20,"columns":1,"weights":[0,0,0,0,0,0,0,0,0,0,0,0,0,0,0,0,0,0,0,0]},"outputMatrix":{"rows":20,"columns":3,"weights":[0.6635691523551941,0.7765463590621948,0.8189149498939514,-0.33703893423080444,-0.3941554129123688,-0.4002263844013214,0.053992580622434616,0.07081219553947449,-0.13035552203655243,-0.38960760831832886,-0.41424497961997986,-0.3058149218559265,0.10548747330904007,0.24125753343105316,0.22759512066841125,0.6618618965148926,0.6480317115783691,0.6385372281074524,-0.38009440898895264,-0.4266278147697449,-0.3121796250343323,-0.37315526604652405,-0.348145067691803,-0.42070695757865906,0.6566546559333801,0.669792890548706,0.6958283185958862,0.2436835765838623,0.19540436565876007,0.22371789813041687,0.7708159685134888,0.7814441919326782,0.8656769394874573,-0.299305260181427,-0.39371538162231445,-0.3787502944469452,0.5737398862838745,0.49518463015556335,0.5066831707954407,-0.4401285946369171,-0.3840986490249634,-0.36170265078544617,0.1461581140756607,0.12952375411987305,0.19366276264190674,-0.3201952278614044,-0.43025875091552734,-0.3175279498100281,-0.22421611845493317,-0.2779620289802551,-0.28682318329811096,0.4880174994468689,0.5595030188560486,0.5492037534713745,-0.4039986729621887,-0.379448801279068,-0.336720734834671,-0.27165791392326355,-0.3763262927532196,-0.3641592562198639]},"outputHidden":{"rows":20,"columns":20,"weights":[-0.46417468786239624,0.0786043182015419,0.04965832456946373,0.05159679800271988,-0.48099881410598755,-0.32115572690963745,0.04031781852245331,-0.026325076818466187,-0.5377188324928284,0.3275490701198578,-0.3091958463191986,0.0024126770440489054,0.3798154890537262,0.038843899965286255,0.47880399227142334,0.07455044984817505,-0.020015982910990715,-0.47128909826278687,-0.022319212555885315,-0.0033211347181349993,0.11734776943922043,0.2343042492866516,-0.302382230758667,-0.30465587973594666,0.31839126348495483,0.36794427037239075,0.22201628983020782,-0.2328018993139267,0.26247072219848633,-0.3691500127315521,0.24408487975597382,0.3068805932998657,-0.3658103346824646,0.37961116433143616,-0.33197489380836487,0.28133392333984375,-0.30971449613571167,0.3504828214645386,0.33352217078208923,0.3425546884536743,4.085803508758545,0.31203827261924744,-0.5074841976165771,-0.3439607322216034,3.8431553840637207,1.754151463508606,0.26274508237838745,-0.22826777398586273,3.5500268936157227,-2.4884564876556396,1.5339999198913574,0.345939576625824,-3.7229762077331543,0.2675919234752655,-3.4261093139648438,0.2867456376552582,-0.3657003939151764,3.6670944690704346,0.25562670826911926,0.3444778025150299,0.1787007600069046,0.25880879163742065,-0.32163113355636597,-0.3098130524158478,0.22746367752552032,0.2885204553604126,0.32727929949760437,-0.2856745719909668,0.3502999544143677,-0.3437613844871521,0.28399452567100525,0.21539156138896942,-0.3983367681503296,0.2789624333381653,-0.2449307143688202,0.24071693420410156,-0.2724665105342865,0.306939959526062,0.3397740125656128,0.3279985785484314,-0.7553480863571167,-0.25329676270484924,-2.0449576377868652,0.3329237997531891,1.3451937437057495,-0.4607802927494049,-0.3036366105079651,0.046931006014347076,1.6203181743621826,0.7657548785209656,-0.4207755923271179,-0.24081391096115112,1.2340283393859863,-0.23110005259513855,2.564514398574829,-0.20063988864421844,0.2549019753932953,-1.2560005187988281,-0.29404187202453613,-0.3122817277908325,-0.44795578718185425,-0.11717252433300018,0.3172062635421753,0.19077159464359283,-0.6844509243965149,-0.6159030795097351,-0.11467958986759186,0.016481615602970123,-0.33905094861984253,0.7139025330543518,-0.7413107752799988,-0.10989315807819366,0.8770142197608948,-0.3517550528049469,0.8111851215362549,-0.23564527928829193,0.2375389039516449,-0.7203213572502136,-0.29288220405578613,-0.31510889530181885,-0.002981784287840128,0.26343342661857605,-0.32884493470191956,-0.30922362208366394,0.22168967127799988,0.3257342576980591,0.3628513514995575,-0.22541038691997528,0.31109511852264404,-0.3756100833415985,0.3191608190536499,0.23508954048156738,-0.38147225975990295,0.3502190411090851,-0.25638285279273987,0.35427719354629517,-0.24423880875110626,0.29498881101608276,0.2451048195362091,0.3224366307258606,0.10292190313339233,0.0022394133266061544,-0.2926981747150421,-0.17907214164733887,0.09539414197206497,0.1747070848941803,0.06704068183898926,-0.1750931292772293,0.08050720393657684,-0.3136996924877167,0.32206255197525024,0.061609309166669846,-0.3370164632797241,0.3218354880809784,-0.32378241419792175,0.19558213651180267,-0.25880610942840576,0.2823939621448517,0.3510048985481262,0.22897638380527496,-0.8359116315841675,-0.23343271017074585,-0.2036093771457672,0.3313716948032379,-0.8943192958831787,-0.9540868997573853,-0.3651313781738281,0.2947894036769867,0.18592067062854767,0.6274094581604004,-0.7725303769111633,-0.24967961013317108,0.638207197189331,-0.3162728250026703,0.8419971466064453,-0.3792498707771301,0.28772565722465515,-0.5449064373970032,-0.3099576234817505,-0.3679928481578827,1.060516357421875,-0.161520853638649,4.982705116271973,0.33074554800987244,0.2930110692977905,0.009354514069855213,-0.2442886233329773,0.03253675624728203,4.23268461227417,7.838435649871826,-2.089561939239502,-0.24199889600276947,0.3435612916946411,-0.3640703558921814,0.5228576064109802,-0.2241734117269516,0.252150297164917,-0.5123568177223206,-0.37134432792663574,-0.27002155780792236,0.7092146873474121,-0.21896496415138245,0.6331503987312317,0.34600627422332764,0.289752334356308,1.0202826261520386,-0.2751410901546478,0.28981640934944153,0.4505625069141388,0.9950248599052429,-0.3186085820198059,-0.25002291798591614,0.48671185970306396,-0.3190365135669708,0.765093982219696,-0.3298473060131073,0.2581988275051117,-0.6491161584854126,-0.2954113781452179,-0.3195127546787262,0.04323681443929672,0.31092843413352966,-0.3706478178501129,-0.3292974829673767,0.23676608502864838,0.2931671142578125,0.2634781002998352,-0.2055141031742096,0.34259796142578125,-0.3448137938976288,0.2780807614326477,0.30127856135368347,-0.3784589171409607,0.259291410446167,-0.30551818013191223,0.3721441626548767,-0.3568762540817261,0.30926263332366943,0.2761668860912323,0.2466447353363037,-1.8782042264938354,-0.3805261552333832,-0.07139109820127487,0.25782138109207153,-1.5162744522094727,-0.6636731028556824,-0.24577990174293518,0.3073846697807312,-1.2941306829452515,0.5902320742607117,-0.784766435623169,-0.2611168622970581,1.2282811403274536,-0.38617783784866333,0.9762033820152283,-0.3821755349636078,0.33256131410598755,-1.0141937732696533,-0.30403637886047363,-0.34257811307907104,0.0380236953496933,-0.03011140786111355,-0.2219041883945465,-0.06380623579025269,0.09205235540866852,0.007841198705136776,0.09189304709434509,0.13399240374565125,0.07386470586061478,-0.14231528341770172,0.20295824110507965,0.04229669272899628,-0.271869957447052,0.1933940052986145,-0.1308070868253708,0.09030526876449585,-0.16585688292980194,0.27214711904525757,0.1702868491411209,0.030888918787240982,-0.26171547174453735,0.00401759659871459,5.05290412902832,0.05668797716498375,0.4730013608932495,0.20197893679141998,-0.11739113181829453,-0.24197296798229218,-1.277603030204773,6.2165656089782715,-3.8946287631988525,-0.17179563641548157,0.9143714904785156,-0.27252086997032166,2.6784517765045166,-0.23125290870666504,-0.41151463985443115,-1.004041075706482,-0.13744565844535828,-0.21398179233074188,0.08157378435134888,0.21189868450164795,-0.2706129252910614,-0.29027485847473145,0.2802083492279053,0.30328550934791565,0.30893242359161377,-0.1290154606103897,0.1940518319606781,-0.3869144320487976,0.3754734396934509,0.20966653525829315,-0.3124985694885254,0.2562662959098816,-0.37998491525650024,0.25780248641967773,-0.26007065176963806,0.38980451226234436,0.25826847553253174,0.3479577898979187,0.46449199318885803,0.32707977294921875,-0.19396573305130005,-0.33426132798194885,0.4369228780269623,0.34653016924858093,0.3000970184803009,-0.23378382623195648,0.36144664883613586,-0.28113630414009094,0.345590740442276,0.2380559742450714,-0.4271680414676666,0.2339339554309845,-0.289053350687027,0.25326040387153625,-0.37579748034477234,0.2916198968887329,0.3100513815879822,0.26264816522598267,-1.6749544143676758,-0.34461697936058044,0.009025122039020061,0.2612084448337555,-1.4304931163787842,-0.6283199787139893,-0.35627761483192444,0.25989609956741333,-1.071524977684021,0.537717878818512,-0.7084528207778931,-0.30945634841918945,1.1736667156219482,-0.34199729561805725,0.8990945816040039,-0.25327226519584656,0.3720680773258209,-1.1032634973526,-0.3202556371688843,-0.3241254687309265,0.12261706590652466,0.2403973639011383,-0.2885277569293976,-0.26739978790283203,0.24204310774803162,0.2789728343486786,0.2594674229621887,-0.1378612071275711,0.2426699697971344,-0.35556504130363464,0.2684565484523773,0.27254748344421387,-0.335835337638855,0.30079877376556396,-0.2605528235435486,0.2699292302131653,-0.24282418191432953,0.2982209622859955,0.3640674650669098,0.35440245270729065,0.15521372854709625,0.21418903768062592,-0.3265328109264374,-0.36760464310646057,0.3035983443260193,0.3310500979423523,0.24766460061073303,-0.22537215054035187,0.2556965947151184,-0.2330102175474167,0.28852829337120056,0.3632373809814453,-0.27795910835266113,0.3202073574066162,-0.26268598437309265,0.3665136396884918,-0.27018284797668457,0.3755781054496765,0.2753634750843048,0.28986844420433044]},"outputBias":{"rows":20,"columns":1,"weights":[0.3183758556842804,-0.3064616918563843,6.083359718322754,-0.29061564803123474,2.7815678119659424,0.7222418785095215,-0.2893630862236023,0.08483098447322845,1.7500903606414795,-7.417784690856934,0.5728678107261658,-0.30681097507476807,1.7584720849990845,-0.10905716568231583,-7.31641149520874,-0.29834380745887756,-0.3770276606082916,1.6503148078918457,-0.29887494444847107,-0.30615341663360596]},"cellActivationMatrix":{"rows":20,"columns":3,"weights":[-0.27915823459625244,-0.3674566149711609,-0.32430362701416016,-0.043151188641786575,0.028138302266597748,0.09735210984945297,-0.30585822463035583,-0.2574057877063751,-0.31864774227142334,-0.1022634282708168,-0.045933082699775696,-0.05134287104010582,0.21621675789356232,-0.04843799024820328,0.2748340964317322,-0.3586929738521576,-0.3270743191242218,-0.36529868841171265,0.1234767735004425,0.1666640043258667,0.19653016328811646,-0.06063755229115486,0.008287602104246616,-0.11799890547990799,0.23193621635437012,0.042151905596256256,0.09080035984516144,0.3390117585659027,0.31505832076072693,0.19981418550014496,-0.3875182271003723,-0.36807873845100403,-0.3712119162082672,0.15918806195259094,0.1495216190814972,0.23410694301128387,0.12563170492649078,0.26713669300079346,0.2648922801017761,0.30234184861183167,0.3074586093425751,0.23810863494873047,0.4093882441520691,0.4010296165943146,0.29827797412872314,0.10752289742231369,0.12847742438316345,0.050845853984355927,-0.09985530376434326,-0.08393386751413345,-0.10794245451688766,-0.33166611194610596,-0.4069993495941162,-0.4138144552707672,0.301639199256897,0.24135106801986694,0.29235348105430603,0.09751906245946884,0.08693370223045349,0.009555757977068424]},"cellActivationHidden":{"rows":20,"columns":20,"weights":[-3.1265869140625,0.34739798307418823,-0.25631874799728394,-0.28816336393356323,-0.8802719712257385,2.044804096221924,0.29523375630378723,-0.2716151773929596,10.868011474609375,-2.726445436477661,-0.7681031823158264,0.28348883986473083,0.2290414273738861,0.2701856195926666,0.5194450616836548,0.29256173968315125,-0.36762720346450806,-0.25197163224220276,0.26910915970802307,0.2478184700012207,-0.28055235743522644,-0.3325815498828888,0.28552067279815674,0.2344129979610443,-0.30568960309028625,-0.3404543399810791,-0.30330827832221985,0.30280953645706177,-0.24986369907855988,0.37667354941368103,-0.29834356904029846,-0.2924593985080719,0.24652084708213806,-0.3243163228034973,0.3730345070362091,-0.2986966073513031,0.2574669122695923,-0.23592019081115723,-0.36515432596206665,-0.2459748089313507,-0.04336134344339371,0.2487802505493164,-0.26688772439956665,-0.2779005169868469,0.23797674477100372,0.2629902958869934,0.2782559394836426,-0.22362110018730164,0.2949501872062683,-0.23997922241687775,0.29584094882011414,0.3073856234550476,-0.3611525297164917,0.29297125339508057,-0.312362402677536,0.2514684498310089,-0.29233798384666443,0.3224550485610962,0.382053941488266,0.27083078026771545,0.09669223427772522,0.2683309018611908,-0.2576134204864502,-0.36765217781066895,0.25362858176231384,0.2706524729728699,0.3061291575431824,-0.24359002709388733,0.33264604210853577,-0.2637578547000885,0.3464111387729645,0.37045082449913025,-0.3330550193786621,0.2342640459537506,-0.3716626763343811,0.30823183059692383,-0.2967710793018341,0.29709506034851074,0.26967599987983704,0.3469552993774414,-2.8053126335144043,0.3589135706424713,3.7457666397094727,-0.2532994747161865,-0.5153595805168152,-2.668301582336426,0.34662118554115295,-0.3914203643798828,3.107412099838257,-3.833348274230957,0.5556448101997375,0.284184992313385,0.02033233642578125,0.23914144933223724,-3.563709259033203,0.3060057461261749,-0.4261023998260498,0.05292519927024841,0.3185184895992279,0.27560752630233765,-0.06050430238246918,0.1304117739200592,-0.2556242346763611,-0.3562118709087372,0.1097835823893547,0.20259365439414978,0.2150173783302307,-0.0407053641974926,0.19761310517787933,-0.3067319989204407,0.29492491483688354,0.2913776934146881,-0.27219659090042114,0.3218822479248047,-0.29771941900253296,0.2283535897731781,-0.26371312141418457,0.28351232409477234,0.2636694610118866,0.28325679898262024,-0.02459617331624031,-0.250048965215683,0.35153138637542725,0.3609441816806793,-0.3038911521434784,-0.2594965696334839,-0.27436962723731995,0.25281310081481934,-0.37257876992225647,0.304068922996521,-0.311482697725296,-0.30420470237731934,0.23418951034545898,-0.29574713110923767,0.3458012044429779,-0.275245726108551,0.26128730177879333,-0.3856724202632904,-0.34666818380355835,-0.2672019898891449,0.20040662586688995,0.36078792810440063,-0.35031455755233765,-0.3803792893886566,0.3807472288608551,0.31241047382354736,0.3655359447002411,-0.3038915991783142,0.37135300040245056,-0.26781120896339417,0.25935202836990356,0.3479587435722351,-0.27790290117263794,0.2725410759449005,-0.2753711938858032,0.35396379232406616,-0.3108646869659424,0.27282625436782837,0.2743874788284302,0.29571732878685,-2.2700634002685547,0.30345988273620605,-0.9876725673675537,-0.2947585880756378,-0.7809605598449707,0.9514379501342773,0.23194080591201782,-0.15650925040245056,1.046088695526123,-0.7310088276863098,0.31759583950042725,0.25387123227119446,0.11178628355264664,0.34008100628852844,1.4923211336135864,0.33901482820510864,0.011216445825994015,0.021735571324825287,0.17966166138648987,0.26364457607269287,-0.2934512197971344,-0.373798668384552,0.2523154616355896,0.29622384905815125,-0.36512982845306396,-0.28910893201828003,-0.3340562880039215,0.3264773488044739,-0.33034414052963257,0.30200091004371643,-0.3177759647369385,-0.23343805968761444,0.2987113893032074,-0.3583391010761261,0.2925872802734375,-0.26361045241355896,0.2963872253894806,-0.28394538164138794,-0.36709949374198914,-0.299780011177063,-0.021170129999518394,0.24707525968551636,-0.35719698667526245,-0.31690433621406555,0.2701675593852997,0.3245401382446289,0.3016114830970764,-0.24271443486213684,0.3521084785461426,-0.35915324091911316,0.3344103693962097,0.359441876411438,-0.2664918601512909,0.23779743909835815,-0.33313342928886414,0.3031444847583771,-0.2965554893016815,0.3257884383201599,0.38629043102264404,0.34625256061553955,-0.05139283090829849,-0.31201985478401184,0.36172449588775635,0.2711978852748871,-0.26692935824394226,-0.38413992524147034,-0.2990841269493103,0.2068900465965271,-0.3211210072040558,0.2789948582649231,-0.3130667805671692,-0.24644091725349426,0.37137371301651,-0.32089024782180786,0.26630523800849915,-0.3668755888938904,0.2792060375213623,-0.23700091242790222,-0.2943361699581146,-0.2976575791835785,-1.2982118129730225,-0.35944679379463196,-0.08002123236656189,0.3296765089035034,-0.942258358001709,-0.45691508054733276,-0.3202212154865265,0.2764701247215271,-0.9131397604942322,0.4242108464241028,-0.48274296522140503,-0.31232282519340515,0.8560962677001953,-0.3399239182472229,0.48213648796081543,-0.3688492178916931,0.29708385467529297,-0.8015217781066895,-0.3163363039493561,-0.2374727427959442,-0.01082689594477415,-0.011605949141085148,0.25674793124198914,0.0610458143055439,-0.02351764403283596,-0.1478092521429062,-0.07688243687152863,-0.09835536777973175,0.017101269215345383,0.244348406791687,-0.17421981692314148,-0.04596904665231705,0.21238842606544495,-0.2019883245229721,0.08769811689853668,-0.17554742097854614,0.2759827971458435,-0.2258329838514328,-0.27838265895843506,-0.25590279698371887,-0.1876973658800125,-0.2714233100414276,0.23908472061157227,0.3732880651950836,-0.2877749800682068,-0.3584241569042206,-0.33500584959983826,0.23000192642211914,-0.36496055126190186,0.3526138663291931,-0.2640571892261505,-0.37164944410324097,0.3088463544845581,-0.2712627649307251,0.23942595720291138,-0.2560228109359741,0.2843036651611328,-0.3291136622428894,-0.3517012596130371,-0.2689453363418579,-0.11647459864616394,-0.24401730298995972,0.32586437463760376,0.3648315370082855,-0.3767598867416382,-0.37525421380996704,-0.30775365233421326,0.2648470103740692,-0.2785469591617584,0.3748871684074402,-0.34676241874694824,-0.36338570713996887,0.3603156805038452,-0.34968748688697815,0.2900952100753784,-0.31528598070144653,0.3326970934867859,-0.34244415163993835,-0.34559598565101624,-0.387395977973938,-0.03231183439493179,0.23799818754196167,-0.36702045798301697,-0.34181469678878784,0.37204593420028687,0.33346137404441833,0.3281581699848175,-0.3001093566417694,0.3002411127090454,-0.3263718783855438,0.24321779608726501,0.3191213309764862,-0.35550230741500854,0.24874469637870789,-0.3150295317173004,0.3716112971305847,-0.3144053816795349,0.2512618899345398,0.3020334839820862,0.23758436739444733,1.3650788068771362,0.24508114159107208,-0.18693366646766663,-0.3277556300163269,0.8514419794082642,0.338747501373291,0.3179979622364044,-0.3693743348121643,0.7383900284767151,-0.2653962969779968,0.3538859188556671,0.3504069745540619,-0.4533305764198303,0.3426455557346344,-0.32079076766967773,0.2761017978191376,-0.38412711024284363,0.3982449769973755,0.2981238067150116,0.3237118422985077,-0.04964163899421692,-0.22298629581928253,0.24220259487628937,0.3522363007068634,-0.315494567155838,-0.3487448990345001,-0.3148287832736969,0.2629430294036865,-0.2668479084968567,0.2911747395992279,-0.24973878264427185,-0.3173139989376068,0.38110578060150146,-0.3029596209526062,0.23636507987976074,-0.34488365054130554,0.2540789842605591,-0.23852254450321198,-0.37211155891418457,-0.32876056432724,-0.11466743052005768,-0.28517523407936096,0.36793649196624756,0.3485802710056305,-0.24057406187057495,-0.23924534022808075,-0.3418784439563751,0.35571059584617615,-0.3011164963245392,0.29461026191711426,-0.303459495306015,-0.2586619555950165,0.3376048505306244,-0.26499849557876587,0.29110854864120483,-0.35624203085899353,0.28840747475624084,-0.300630658864975,-0.3562246561050415,-0.27381762862205505]},"cellActivationBias":{"rows":20,"columns":1,"weights":[-1.5493874549865723,0.30880045890808105,-1.6080752611160278,-0.3094560205936432,-2.9931089878082275,-0.2737523913383484,0.30944183468818665,-0.3096391260623932,-5.927840232849121,0.3191569149494171,-0.30853691697120667,0.30938470363616943,1.2886205911636353,0.21387486159801483,0.3052920699119568,0.3097035884857178,-0.3085746467113495,-1.2496882677078247,0.30884116888046265,0.30951792001724243]}}],"outputConnector":{"rows":3,"columns":20,"weights":[-0.5554091334342957,-0.2780483067035675,-1.3999906778335571,0.19779132306575775,-0.8772792816162109,2.189276933670044,-0.21867068111896515,0.25237828493118286,-0.6503216028213501,1.6184152364730835,-0.3364267647266388,-0.29578763246536255,1.5370088815689087,-0.1164555773139,0.5143786668777466,-0.18810756504535675,0.030456440523266792,-1.5755407810211182,-0.1336468905210495,-0.034736618399620056,-0.9826008677482605,-0.24026614427566528,-1.2573546171188354,0.12422381341457367,-0.7739817500114441,-8.51717758178711,-0.18605941534042358,0.24574653804302216,-0.8601900935173035,1.490257978439331,-1.4734493494033813,-0.2338842898607254,0.22464564442634583,0.013084969483315945,-0.22744405269622803,-0.20494326949119568,0.019800636917352676,-0.21182547509670258,-0.045828744769096375,-0.07114529609680176,-0.4062134623527527,-0.26530948281288147,-1.1221253871917725,0.09636102616786957,-0.6511783599853516,-2.135769844055176,-0.17653697729110718,0.38314318656921387,-0.7111961841583252,0.9487079977989197,-1.3500741720199585,-0.2413557767868042,0.9695836901664734,-0.054234232753515244,-0.1749706119298935,-0.2000892013311386,0.08353491872549057,-0.9100983142852783,-0.01653911918401718,-0.1511053442955017]},"output":{"rows":3,"columns":1,"weights":[2.5819203853607178,4.929333209991455,3.970750331878662]},"inputLookup":null,"inputLookupLength":0,"outputLookup":null,"outputLookupLength":0}