{"type":"LSTMTimeStep","options":{"inputSize":3,"inputRange":0,"hiddenLayers":[20],"outputSize":3,"decayRate":0.999,"smoothEps":1e-8,"regc":0.000001,"clipval":5,"maxPredictionLength":100,"dataFormatter":{"indexTable":{},"characterTable":{},"characters":[],"specialIndexes":[]}},"hiddenLayers":[{"inputMatrix":{"rows":20,"columns":3,"weights":[-0.3367982804775238,-0.013369674794375896,0.4919273555278778,0.9768204689025879,1.1721960306167603,1.4604296684265137,-0.3865894377231598,-0.7119088172912598,3.0826613903045654,0.42907238006591797,0.8037219643592834,1.6805012226104736,-0.6611942648887634,-0.6592382788658142,-0.6960635185241699,0.7488527894020081,0.9122297167778015,1.0679124593734741,0.7181269526481628,0.6966490745544434,0.9992803931236267,-1.2098066806793213,-1.7376643419265747,-1.4449621438980103,-0.5482641458511353,0.4709472358226776,2.285452365875244,-0.815071165561676,-0.7521077394485474,-0.8126886487007141,-0.8450117111206055,-0.08135449141263962,-0.36017727851867676,0.8860617876052856,1.0226755142211914,1.3901289701461792,1.0271401405334473,1.1106282472610474,1.5091204643249512,-0.4710511863231659,-0.4505482614040375,-0.4412895739078522,-0.4573532044887543,0.975602388381958,0.6775506138801575,-0.7361303567886353,-0.7987256646156311,-0.6457779407501221,-0.641082763671875,-0.5171809196472168,-0.5220311880111694,-0.8246186375617981,-1.1554219722747803,-0.9332277774810791,-0.24698634445667267,-0.42399469017982483,-0.8006199598312378,0.8291641473770142,-0.015927020460367203,0.929746687412262]},"inputHidden":{"rows":20,"columns":20,"weights":[2.1920807361602783,-2.9755687713623047,3.3559672832489014,2.794508457183838,-0.12718062102794647,-2.5060746669769287,-0.8625296950340271,1.3740342855453491,3.514021396636963,0.15610913932323456,-1.0428448915481567,-2.7552878856658936,-2.8586089611053467,-0.3400859832763672,-3.4019529819488525,-0.9970682859420776,0.23994310200214386,-0.013367705047130585,-3.5537965297698975,-1.6189748048782349,0.488116055727005,-0.5644798874855042,0.9688341617584229,0.4495391249656677,-0.29878443479537964,-0.41042619943618774,-0.10257873684167862,-1.0839592218399048,0.35027647018432617,0.18038615584373474,-0.06671719253063202,-0.46591007709503174,-0.4512401521205902,-0.3217688500881195,-0.19059692323207855,-0.6899018883705139,0.08038228750228882,0.32217562198638916,-0.41727524995803833,-0.5227068066596985,0.45818448066711426,-1.3428524732589722,4.355226039886475,1.1964266300201416,-0.3824082016944885,-0.030435653403401375,-7.083640098571777,-3.4588401317596436,2.0443363189697266,0.4745914340019226,-0.8492569923400879,-1.0654925107955933,-1.468429446220398,0.0506574772298336,-2.0701894760131836,2.6463053226470947,0.19350695610046387,0.6480979919433594,-0.09394492208957672,-7.318543910980225,0.24769996106624603,-0.7941418290138245,0.5533255934715271,0.5215522050857544,-0.2487960159778595,-0.3863064646720886,-0.3216114938259125,0.39336639642715454,0.2745600938796997,0.2630196511745453,-2.648763418197632,-0.5900347828865051,-0.5415059328079224,-0.2304064780473709,0.7920200824737549,2.0125179290771484,0.26173827052116394,0.34299859404563904,-0.9541728496551514,-2.2872421741485596,0.2297508418560028,0.09594777226448059,-0.09809751808643341,0.01768876053392887,0.0437370166182518,-0.08175551891326904,-0.1495036631822586,0.20581267774105072,0.3085874021053314,-0.015919925644993782,-0.2832733988761902,-0.12444747239351273,0.012876437045633793,0.23816725611686707,-0.3805052638053894,-0.1044435054063797,-0.1694456934928894,-0.29155847430229187,0.5355676412582397,-0.4649021029472351,-0.10121895372867584,-0.5835677981376648,1.7806562185287476,0.40936702489852905,-0.15102048218250275,-2.219278573989868,-0.48796308040618896,1.3259083032608032,-1.6975317001342773,0.21271707117557526,-3.6940789222717285,-0.33814316987991333,-0.3506137728691101,-0.2763940095901489,-0.38288626074790955,0.5479557514190674,0.2310011088848114,0.3078491687774658,-1.5006818771362305,-4.730812072753906,2.027623176574707,-1.1638246774673462,3.8497939109802246,1.0019007921218872,-0.37393316626548767,-1.0784094333648682,4.161936283111572,-4.4414753913879395,5.873822212219238,0.2456575632095337,4.6662092208862305,-0.88826584815979,-1.2943568229675293,-0.6886332035064697,-2.9662516117095947,2.8098344802856445,0.36024928092956543,-0.7252994775772095,-1.311499834060669,-1.2673527002334595,-1.2614835500717163,0.11119908094406128,-0.051933273673057556,-0.008978585712611675,0.36566266417503357,1.3269985914230347,-8.200331687927246,2.3015336990356445,1.2837412357330322,-0.38410356640815735,-8.432251930236816,-0.2101055234670639,-0.15742850303649902,0.26342564821243286,-5.774566173553467,-6.437434196472168,-0.2687147259712219,-0.653119683265686,0.44954442977905273,-1.7407455444335938,1.9978978633880615,-1.877425193786621,3.6220803260803223,1.6972867250442505,-0.256765216588974,-0.614683210849762,0.869383692741394,-0.1592266708612442,-0.5816219449043274,0.25289395451545715,1.4520251750946045,-1.5256280899047852,-1.7224215269088745,-0.5326185822486877,-0.2325768917798996,0.9321274757385254,0.2596382200717926,1.7114019393920898,-3.354735851287842,2.014582872390747,0.16275012493133545,0.29536572098731995,-0.030767900869250298,-0.030750801786780357,0.13585412502288818,0.16674742102622986,-0.011640732176601887,0.3374863862991333,0.1288658231496811,-0.1286717653274536,-0.3487168848514557,0.021884996443986893,0.2519327998161316,0.30010145902633667,-0.28191354870796204,-0.1042276918888092,-0.17540127038955688,-0.2945863604545593,0.6184310913085938,-0.28187260031700134,-1.5090117454528809,0.26595988869667053,-1.5000640153884888,-0.08423367142677307,0.25119584798812866,-0.49186596274375916,-7.089831352233887,0.8602626323699951,0.8937655091285706,-0.3517735004425049,3.56235933303833,0.37103402614593506,0.45820173621177673,0.2640766501426697,5.224207401275635,-8.881144523620605,-0.3402317762374878,-0.4089853763580322,0.6343674659729004,2.4265260696411133,0.11451314389705658,-0.020698999986052513,0.5936583876609802,-0.07365887612104416,-0.25059446692466736,-0.44909486174583435,0.817966639995575,-2.756894826889038,-1.226104736328125,0.21867941319942474,1.9589422941207886,0.19515089690685272,0.19722789525985718,-0.2144104391336441,0.3586263060569763,-0.12412995845079422,0.13947349786758423,0.45759254693984985,-0.2756965458393097,-0.04701535776257515,0.22213123738765717,-0.5631840229034424,0.5709589123725891,0.3519659638404846,-0.16150861978530884,-0.2720818519592285,-0.5526179671287537,-0.6910456418991089,0.45480480790138245,0.20023861527442932,-0.8803333640098572,-0.249846413731575,-0.4423813819885254,-0.3229353129863739,-0.06324442476034164,-0.47748133540153503,0.33337077498435974,0.42457789182662964,-0.5919930934906006,-0.689596951007843,0.29924386739730835,-0.22538527846336365,0.17242781817913055,0.36886265873908997,0.30295947194099426,-0.4737433195114136,-0.4461730420589447,0.2560241222381592,0.3166898488998413,-0.3078550696372986,-0.263832688331604,-0.3729074001312256,-0.32264626026153564,0.3498733937740326,-0.270645409822464,-0.3986474275588989,-0.35204169154167175,-0.26613861322402954,0.30208396911621094,-0.1918511688709259,-0.36327651143074036,-1.4480185508728027,-6.891533851623535,1.0651640892028809,-0.2374064028263092,0.31088608503341675,-2.573880672454834,1.0462851524353027,3.1764659881591797,0.29565516114234924,-1.50973641872406,-1.0602490901947021,-1.3580310344696045,-0.3733215630054474,-1.8727548122406006,-0.05393941327929497,0.32809463143348694,0.38622111082077026,-0.6812901496887207,1.1003968715667725,-2.6865224838256836,0.4579745829105377,-0.5717654228210449,-0.3233727216720581,0.09464733302593231,-2.5867483615875244,-6.953802108764648,-8.26191234588623,-4.308366775512695,0.035280968993902206,-1.08577299118042,0.378488153219223,0.48883962631225586,0.061799049377441406,-1.413636565208435,-4.080168724060059,0.03917667642235756,-0.04070652648806572,0.36120739579200745,-1.6899559497833252,0.49616971611976624,-0.02871047519147396,0.335609495639801,0.17037726938724518,0.2980627417564392,-0.28877028822898865,-0.23303855955600739,0.24104417860507965,0.4096516966819763,-0.22902153432369232,-0.1768089234828949,-0.3601072430610657,-0.08175855129957199,0.3696242570877075,-0.48700445890426636,-0.25958967208862305,-0.2838979959487915,-0.30729132890701294,0.12406504154205322,-0.38840606808662415,-0.42150476574897766,0.08457370847463608,0.3435678482055664,-0.06622140109539032,0.2474825084209442,-0.12208247929811478,-1.7148032188415527,-0.9058772325515747,0.08810237050056458,-0.17779512703418732,-0.20243202149868011,-0.021235458552837372,-0.08739989995956421,0.27836135029792786,-0.9586629271507263,-0.24357540905475616,-0.18488383293151855,0.9018344879150391,0.5980605483055115,-1.7446037530899048,-0.35300353169441223,0.37097296118736267,-1.6965889930725098,-0.11981445550918579,0.23495882749557495,2.315946578979492,-1.3153998851776123,4.025177001953125,-6.934219837188721,-0.19371718168258667,-1.48881196975708,0.14004893600940704,0.12499754130840302,0.24411211907863617,0.25344333052635193,-3.665531873703003,-0.2855268716812134,-0.33043351769447327,1.1206737756729126,3.2376158237457275,-0.1510307490825653,-0.020181678235530853,-1.3501449823379517,-0.29136738181114197,-0.30538588762283325,-0.0737503245472908,0.2399151474237442,0.09518701583147049,-3.5169260501861572,0.3367898464202881,-0.776436448097229,0.3071710467338562,0.21039900183677673,-0.3937534689903259,7.511789321899414,-0.8990919589996338,0.30868247151374817,0.22030740976333618,-0.2356547713279724,2.7807538509368896]},"inputBias":{"rows":20,"columns":1,"weights":[4.82211446762085,0.6275581121444702,1.5851002931594849,0.5997521281242371,0.26064372062683105,0.4786277413368225,0.8174193501472473,-0.19146710634231567,0.40949177742004395,-0.39366522431373596,-0.08155185729265213,0.34990644454956055,0.7258976101875305,-0.2789735496044159,2.2146499156951904,-0.8460203409194946,-0.13042321801185608,-0.2607468366622925,-0.6990713477134705,-5.863946914672852]},"forgetMatrix":{"rows":20,"columns":3,"weights":[0.6629126667976379,0.780799925327301,0.9024521708488464,0.9701643586158752,0.8020345568656921,1.0507951974868774,2.3032279014587402,-1.4515117406845093,1.2165836095809937,0.8193314671516418,1.0149341821670532,1.4447778463363647,-0.38231152296066284,-0.384811669588089,-0.27728044986724854,1.0732390880584717,1.229731798171997,1.3703899383544922,1.1933097839355469,1.2428641319274902,1.3114489316940308,-0.6109411716461182,-0.5685173273086548,-0.5328271985054016,-1.0172752141952515,0.20099389553070068,1.6780800819396973,-0.3178626596927643,-0.3489386737346649,-0.3373231887817383,-0.7589203715324402,-0.8168713450431824,-0.8649021983146667,0.7737996578216553,0.7665785551071167,0.9559506773948669,-1.1260108947753906,-0.2509496808052063,1.7281981706619263,-0.33279484510421753,-0.35862115025520325,-0.34753546118736267,-1.3519631624221802,0.6958829760551453,1.5991463661193848,-0.6079357266426086,-0.587526261806488,-0.5403445959091187,-0.3725864887237549,-0.3484804630279541,-0.23961322009563446,-0.5962486267089844,-0.6153134107589722,-0.710279107093811,-0.2702738046646118,-0.16620266437530518,-0.6320601105690002,0.46291840076446533,0.6022723913192749,1.2949453592300415]},"forgetHidden":{"rows":20,"columns":20,"weights":[-0.8986765146255493,0.1307738870382309,-1.7333993911743164,-0.1038510873913765,0.032499760389328,0.6103848218917847,-2.450888156890869,0.332235723733902,1.206482172012329,0.04606476426124573,-0.5432570576667786,0.1096726506948471,0.15886200964450836,-0.19005319476127625,-0.6428545713424683,-0.12518271803855896,0.08592856675386429,0.2442837953567505,0.12076140195131302,-0.6782234311103821,-0.11711404472589493,0.08747643977403641,-0.16572250425815582,-0.23322837054729462,-0.18505977094173431,0.23105967044830322,1.16745126247406,-0.3615800738334656,-0.7355812191963196,0.14862661063671112,-0.10530705004930496,0.10483163595199585,0.30882540345191956,-0.2097998857498169,0.7753180861473083,-0.548331618309021,0.01675030030310154,0.09495121985673904,-0.6248359084129333,0.34483465552330017,-2.0047519207000732,-0.24930927157402039,-4.742578029632568,-0.01907701976597309,-0.25976821780204773,-0.6082979440689087,-8.360159873962402,0.5987160801887512,5.071426868438721,0.26892346143722534,-0.5921347141265869,-0.20800308883190155,-0.07866065949201584,-0.16190549731254578,3.1013314723968506,0.08226756006479263,0.06083060801029205,0.3741598129272461,1.8042855262756348,2.8659684658050537,0.3467506170272827,-0.563668429851532,0.5486313700675964,0.35302165150642395,-0.11180649697780609,-0.09940658509731293,-0.07178706675767899,-0.06261198967695236,0.13319765031337738,0.19346147775650024,-1.0809961557388306,-0.36120355129241943,-0.38505426049232483,-0.2139872908592224,0.08068617433309555,0.5079219937324524,0.1333467662334442,0.27378541231155396,-0.7602081298828125,-1.4733339548110962,0.10593949258327484,-0.13346008956432343,0.1433982253074646,0.04710054397583008,0.19089506566524506,-0.04731252044439316,-0.10232733935117722,0.08980230242013931,0.13792774081230164,-0.07102249562740326,-0.10218250006437302,-0.10136386752128601,-0.09841588139533997,0.12321998178958893,-0.2536008656024933,-0.11555853486061096,-0.025859950110316277,-0.14562980830669403,0.07395979762077332,-0.2468758076429367,0.13977566361427307,-0.5025066137313843,0.5432783365249634,0.388502836227417,-0.30531635880470276,-0.7408537864685059,-0.8273963332176208,-0.5133807063102722,0.1390695720911026,0.2072572261095047,-0.493115097284317,-0.28897717595100403,-0.2567134201526642,-0.33748918771743774,-0.031333375722169876,-0.17112477123737335,0.12267223000526428,0.3533221185207367,-1.3388774394989014,-0.34404486417770386,-0.5445258617401123,0.20917552709579468,-0.4805852174758911,-0.27920404076576233,-0.16115683317184448,0.012602625414729118,-0.5590212345123291,-0.17562924325466156,-0.283824622631073,0.1734762340784073,0.08072282373905182,0.3832813799381256,0.3136419653892517,-0.23315711319446564,0.7281545996665955,0.028605813160538673,0.19120557606220245,0.18533864617347717,-0.16193678975105286,0.238930806517601,0.581121027469635,-0.8452886343002319,0.7362946271896362,0.9531636834144592,0.3521016538143158,-0.8662674427032471,-0.1631309986114502,-0.09608232975006104,0.35768651962280273,-0.36253440380096436,-0.23533934354782104,-0.9089730381965637,-0.7872205972671509,0.29378148913383484,-0.3694203197956085,-0.24986669421195984,-0.3269243538379669,-0.34240952134132385,-0.2419995367527008,-0.13637897372245789,0.9713019728660583,-1.5135058164596558,4.0469970703125,1.3090163469314575,-0.13641631603240967,-1.6070135831832886,2.5456230640411377,-1.032747745513916,0.12180750072002411,0.17274588346481323,0.78117436170578,-1.4721726179122925,-1.3057713508605957,-0.3484151065349579,0.566969633102417,0.026816146448254585,0.018111152574419975,0.2676028311252594,-3.211632490158081,2.015091896057129,0.21427221596240997,-0.1148705706000328,0.15675431489944458,0.15734457969665527,0.12675465643405914,-0.11535101383924484,-0.18214449286460876,0.25440171360969543,0.2293647825717926,-0.189729243516922,-0.2241678088903427,-0.17263032495975494,-0.07002787292003632,0.20316866040229797,-0.24016568064689636,-0.15749326348304749,-0.1447191834449768,-0.19799603521823883,0.16060423851013184,-0.24025051295757294,0.026772107928991318,-0.34163331985473633,-0.24886471033096313,0.4395524561405182,0.27385175228118896,-0.5067846179008484,-2.0094215869903564,0.28392159938812256,0.14590689539909363,-0.36304187774658203,-0.42274850606918335,-0.23071667551994324,-0.3805433511734009,0.23063883185386658,0.020964989438652992,0.4623209834098816,-0.2141316533088684,-0.3526420295238495,0.13005602359771729,2.0080959796905518,-0.255046010017395,0.2573244869709015,-0.3543490767478943,-0.26969945430755615,-0.13457824289798737,0.22805732488632202,0.3003978133201599,-0.2924972176551819,-0.5600188970565796,0.07639198750257492,-0.019189346581697464,0.20097044110298157,0.30227479338645935,-0.006258975714445114,0.4433531165122986,-0.4217868447303772,0.05520812049508095,-0.007509187795221806,-0.47894665598869324,0.566770076751709,1.6614652872085571,-1.998145341873169,3.0200042724609375,1.835896611213684,-0.24943794310092926,-1.4090938568115234,-0.5585386753082275,-2.603902578353882,1.0270205736160278,0.20442815124988556,1.5092415809631348,-1.8572988510131836,-2.0283048152923584,-0.352417916059494,-2.2667391300201416,0.8100827932357788,0.06481780856847763,1.015403389930725,-2.3124513626098633,-0.5512783527374268,0.2602337598800659,-0.3388409912586212,0.3445549011230469,0.23371189832687378,0.23311355710029602,-0.30246737599372864,-0.23689307272434235,0.37297311425209045,0.37925875186920166,-0.24393370747566223,-0.2780423164367676,-0.30337443947792053,-0.3280992805957794,0.29987865686416626,-0.25704020261764526,-0.3729062080383301,-0.3467061519622803,-0.2914339601993561,0.3709457516670227,-0.3256680965423584,1.7615032196044922,-1.6490793228149414,-0.35556820034980774,1.339417815208435,-0.26064056158065796,-0.7383195757865906,-1.1045200824737549,1.6533006429672241,-0.6055476069450378,0.28776806592941284,-0.7931559085845947,-1.3826478719711304,-1.8031642436981201,-0.32886749505996704,-2.4413347244262695,1.0478479862213135,0.31090041995048523,0.40528178215026855,-1.6637060642242432,0.7584426403045654,0.5617035627365112,-0.44579318165779114,0.5744673609733582,0.5726985335350037,0.0655965581536293,-0.5885714888572693,0.09560459107160568,-0.05610186979174614,0.22414860129356384,0.06338672339916229,0.2927559018135071,-0.540569543838501,-0.6027486324310303,-0.019556861370801926,-0.35531237721443176,0.6289477348327637,0.0356486476957798,-0.030361246317625046,-0.571762204170227,-0.5309863090515137,0.1713877171278,-0.09314310550689697,0.17151162028312683,0.07075528800487518,0.29452642798423767,-0.11213475465774536,-0.05221439152956009,0.2682333290576935,0.1807108074426651,-0.11983311176300049,-0.23661191761493683,-0.16248498857021332,-0.12691348791122437,0.2139868289232254,-0.35776838660240173,-0.16291047632694244,-0.05109989643096924,-0.3080047369003296,0.252907931804657,-0.2568444013595581,0.24324341118335724,-0.26238131523132324,0.2818823754787445,0.256719172000885,0.15491922199726105,-0.26669934391975403,0.06176763027906418,0.07579374313354492,0.1608935445547104,-0.07181661576032639,-0.043962132185697556,-0.3251029849052429,-0.20426124334335327,0.07790323346853256,-0.28282392024993896,0.027087440714240074,-0.09562326967716217,-0.07458966225385666,-0.0915713682770729,-0.16741549968719482,-1.519294023513794,0.9600526690483093,-4.357155799865723,-0.9428636431694031,0.22730165719985962,4.792903900146484,-1.8863645792007446,0.055004481226205826,-9.040936470031738,-0.18612362444400787,-0.6595118045806885,0.8757809400558472,1.0123969316482544,0.29131031036376953,0.2360493540763855,-0.4444965720176697,-0.19273997843265533,-0.21666157245635986,-0.3549729585647583,0.8636435866355896,0.2003660798072815,-0.568003237247467,2.2446837425231934,0.313149094581604,-0.23757588863372803,-0.4655025005340576,7.56423807144165,-5.025997638702393,2.740010976791382,0.2682505249977112,-2.8055012226104736,-0.1836884766817093,-0.5517066121101379,-0.30708399415016174,-7.504549503326416,3.14686918258667,0.28870823979377747,0.27444884181022644,-0.4604291319847107,2.5298104286193848]},"forgetBias":{"rows":20,"columns":1,"weights":[0,0,0,0,0,0,0,0,0,0,0,0,0,0,0,0,0,0,0,0]},"outputMatrix":{"rows":20,"columns":3,"weights":[0.3273681700229645,0.7363957166671753,1.0173637866973877,0.7664881944656372,0.8178678750991821,0.984704852104187,-0.28099608421325684,0.17454791069030762,2.6491355895996094,0.795888364315033,0.949193000793457,1.5679770708084106,-0.6347520351409912,-0.7434976100921631,-0.6717283129692078,-0.5444062948226929,-0.31341198086738586,1.796224594116211,-0.11352647840976715,0.5273752212524414,1.7830188274383545,-0.8067634701728821,-1.2322726249694824,-0.9567577242851257,-1.3528263568878174,0.034861717373132706,1.9987536668777466,-0.678928554058075,-0.7605032920837402,-0.7446004748344421,-1.0200128555297852,-0.9885135889053345,-0.9828590154647827,0.8204724788665771,0.7915074229240417,1.176878571510315,0.8635463714599609,1.002307653427124,1.6915043592453003,-0.41832995414733887,-0.4055051803588867,-0.3987663686275482,-1.7350831031799316,0.855391800403595,1.9430921077728271,-0.08723688870668411,-0.22515830397605896,-0.05585094913840294,-0.5972724556922913,-0.46362581849098206,-0.5541825890541077,-0.8107649683952332,-1.118330955505371,-0.8671443462371826,0.31416597962379456,0.0024632650893181562,-0.17655831575393677,-1.5166090726852417,1.5001533031463623,2.468705892562866]},"outputHidden":{"rows":20,"columns":20,"weights":[-0.8154658675193787,-0.4937465488910675,-6.2942609786987305,0.4651223421096802,-0.10889517515897751,0.8841441869735718,-3.251251220703125,0.7326351404190063,7.715433120727539,0.06223531439900398,-1.1617727279663086,-0.32280829548835754,-0.31843042373657227,-0.27336421608924866,2.349490165710449,-0.2632223665714264,0.26512494683265686,0.3178349435329437,-1.1624891757965088,4.509759426116943,-0.7225841879844666,0.5002848505973816,-0.6380569934844971,-0.56601482629776,-0.21661920845508575,0.5414695739746094,0.18034996092319489,-0.4377041161060333,-0.6166902184486389,0.22667643427848816,0.15960988402366638,0.6742842793464661,0.578694760799408,-0.3459915220737457,0.6089547276496887,-0.0038571946788579226,0.18875126540660858,0.33883601427078247,-0.046843521296978,0.3113214373588562,-2.829341411590576,-0.6573652625083923,-0.02319611981511116,0.5867305994033813,-0.3066388964653015,-0.8871963620185852,-4.4487128257751465,3.9098992347717285,-1.8124189376831055,0.3538038432598114,-11.637019157409668,-0.5196591019630432,-0.655852735042572,-0.1402898132801056,-1.1829185485839844,-1.928077220916748,0.2390606850385666,-0.3423987925052643,-0.04971567541360855,-0.8553069233894348,0.5095184445381165,-0.15725842118263245,0.43409666419029236,0.06000297889113426,-0.23741132020950317,1.2325416803359985,1.256083369255066,0.31572481989860535,-1.7705249786376953,0.22607427835464478,-3.26344895362854,-0.07763989269733429,0.04122551903128624,-0.3264150619506836,2.032759189605713,2.200192928314209,0.20130440592765808,0.5105634331703186,-0.7761931419372559,-3.159717559814453,0.40610769391059875,0.14911480247974396,0.11130506545305252,0.037279725074768066,0.18013569712638855,-0.11924469470977783,-0.18573980033397675,0.2701083719730377,0.30314645171165466,-0.1552148461341858,-0.2684939503669739,-0.19995145499706268,0.031949084252119064,0.30259719491004944,-0.4302084743976593,-0.15874259173870087,-0.1451227068901062,-0.25031107664108276,0.4286947548389435,-0.48144856095314026,-0.9110729098320007,-0.6928430795669556,-2.260565996170044,0.5855790376663208,-0.17987394332885742,-1.1700488328933716,-5.835371017456055,0.6044466495513916,3.113399028778076,0.1611640900373459,-5.89479923248291,-0.6064056754112244,-0.5572776794433594,-0.23897123336791992,0.40940409898757935,-1.9621164798736572,0.3351139426231384,0.7030209302902222,-1.0268913507461548,-0.41000479459762573,-2.6822922229766846,-0.18318326771259308,1.5967402458190918,0.06959729641675949,-0.21169593930244446,-1.111721158027649,-1.6111502647399902,-1.3594619035720825,2.8338851928710938,0.16097727417945862,1.8715101480484009,-0.021877089515328407,-0.10782910883426666,-0.43214151263237,-0.37913915514945984,-0.2512896955013275,0.2180367410182953,0.8910121321678162,-0.7513937950134277,-0.711670994758606,-1.0289000272750854,0.35033687949180603,-0.28545358777046204,-0.14820496737957,0.3695497214794159,1.7020652294158936,-6.555028915405273,1.4266276359558105,1.2590073347091675,-0.23206676542758942,-6.3040266036987305,-0.005224991589784622,0.13988250494003296,0.38009440898895264,-3.027550458908081,-2.355724334716797,-0.3282509446144104,-0.6003757119178772,0.6897175312042236,-2.135709047317505,1.8706445693969727,-1.5034303665161133,4.751907825469971,1.3707659244537354,-0.12604780495166779,0.12438780814409256,3.301788568496704,0.038819506764411926,2.8173375129699707,0.128276526927948,0.6063892245292664,-1.5159929990768433,-1.36151123046875,-0.6500955820083618,0.511570394039154,0.6401216983795166,0.23584863543510437,1.051621913909912,-3.5924770832061768,5.356205940246582,0.22783036530017853,0.3059926927089691,-0.0683196485042572,-0.09490181505680084,0.169382244348526,0.15627945959568024,0.09944464266300201,0.2374558001756668,0.1357582062482834,-0.06547662615776062,-0.2546938955783844,0.11053410172462463,0.10302744060754776,0.34127357602119446,-0.3435445725917816,-0.23349380493164062,-0.08045334368944168,-0.351394385099411,0.5332635641098022,-0.3510968089103699,-1.887960433959961,0.463518887758255,-0.9858832955360413,-0.260221391916275,0.2964232265949249,-0.11901767551898956,-5.613636016845703,9.548794746398926,2.7101948261260986,-0.3316327631473541,-2.5724923610687256,0.3717419505119324,0.4713483452796936,0.4393134117126465,0.32532981038093567,-6.546999454498291,-0.3699631094932556,-0.7837390899658203,0.6796197891235352,-1.0072590112686157,-0.743669867515564,0.6012058854103088,-0.6125391721725464,-0.760659396648407,-0.28376495838165283,0.45541703701019287,0.3250914216041565,-0.4929986298084259,-0.7923098802566528,0.26459625363349915,0.13341757655143738,0.6604974269866943,0.6549690365791321,-0.21604537963867188,0.6040338277816772,-0.2526772916316986,0.15353471040725708,0.24332083761692047,-0.8485768437385559,0.639289379119873,0.317665159702301,-0.2925325334072113,0.7596679925918579,0.0884978175163269,-0.15205281972885132,0.5161153078079224,0.5936866402626038,-0.27602267265319824,-0.5315787196159363,0.17744338512420654,-1.78347647190094,-0.09904517978429794,-0.02941523678600788,-0.2385459691286087,0.6166285276412964,1.7523361444473267,0.2295796424150467,0.5145747065544128,-0.6510140895843506,-2.213879108428955,0.34219953417778015,-0.2527723014354706,0.1749418079853058,0.2614893913269043,0.38227736949920654,-0.4676382839679718,-0.5483015179634094,0.271187961101532,0.21071434020996094,-0.29973918199539185,-0.3286031186580658,-0.2722882032394409,-0.2839573919773102,0.32746779918670654,-0.27046385407447815,-0.2865542471408844,-0.2581194043159485,-0.3271077275276184,0.3017350137233734,-0.09510204941034317,2.032548189163208,-1.7196136713027954,0.8056270480155945,1.4497010707855225,-0.3464503288269043,-1.6452271938323975,4.350069046020508,-1.6934314966201782,0.05598754435777664,0.20355938374996185,1.8925577402114868,-1.440561056137085,-1.7550522089004517,-0.48724475502967834,-5.124800205230713,2.9732308387756348,0.2844352722167969,0.7447010278701782,-1.7279447317123413,-5.408514976501465,-1.886074185371399,0.7415518164634705,-0.7343078851699829,-0.70168137550354,0.009939523413777351,-1.5665030479431152,-5.5370378494262695,-7.381308555603027,-2.863405227661133,-0.07586324959993362,-0.2457093596458435,0.6695082187652588,0.6518247127532959,0.028449954465031624,0.006487106904387474,1.0127017498016357,-0.06870874762535095,-0.029465509578585625,0.8590091466903687,0.05400853976607323,0.45148611068725586,-0.2113318294286728,0.40362149477005005,0.3114885985851288,0.34262070059776306,-0.3397459089756012,-0.3024738132953644,0.32941699028015137,0.42064884305000305,-0.2393566519021988,-0.3221835196018219,-0.36262696981430054,-0.16807878017425537,0.2383107990026474,-0.43279504776000977,-0.1725584715604782,-0.2475503385066986,-0.3078765273094177,-0.0012752475449815392,-0.46775123476982117,-0.12021045386791229,0.09925881028175354,0.41083982586860657,-0.022429293021559715,0.3135837912559509,-0.10274192690849304,-1.1024926900863647,-0.8044817447662354,0.3138357102870941,-0.15117520093917847,-0.2919864356517792,-0.01916973479092121,-0.02270112931728363,0.23956261575222015,-0.9147226214408875,-0.2980595529079437,-0.11277300119400024,0.7876430153846741,1.062595248222351,-1.508209228515625,0.4698968529701233,0.6042250394821167,-0.3117738664150238,-0.2973403334617615,0.40148478746414185,1.5630064010620117,1.3995373249053955,0.5206063389778137,0.36774617433547974,-0.2794593870639801,-0.7939848899841309,0.34971246123313904,0.2036159336566925,0.26525312662124634,-0.20747804641723633,-1.4804155826568604,-0.3380752205848694,-0.2787976861000061,4.152085781097412,0.4240211546421051,-0.2130788117647171,-0.7109512090682983,-0.7747453451156616,0.4320042133331299,-0.27736949920654297,-0.3895471394062042,-1.7289304733276367,-0.8851662874221802,2.3261706829071045,0.335097074508667,-8.044466018676758,-0.3822653591632843,-0.7939127087593079,-0.33491238951683044,-1.7290630340576172,-4.691620826721191,0.33935612440109253,-0.6018579006195068,-1.9219821691513062,-5.134756088256836]},"outputBias":{"rows":20,"columns":1,"weights":[0.9763346910476685,0.3122157156467438,2.7372570037841797,0.4639374017715454,0.23154668509960175,-0.6681897640228271,3.4932703971862793,-0.1832250952720642,2.225013017654419,-0.3708622455596924,-0.11607380211353302,0.14116932451725006,0.6801140904426575,-0.26908573508262634,1.6627424955368042,-0.8454200029373169,-0.14274506270885468,-0.2788495421409607,2.5353777408599854,-3.865231513977051]},"cellActivationMatrix":{"rows":20,"columns":3,"weights":[-0.477945476770401,-0.5218262076377869,-0.5232964754104614,0.421050488948822,0.45977556705474854,0.49976927042007446,-0.5011481046676636,-0.5123178958892822,-0.4760681986808777,-0.517223596572876,-0.5395979881286621,-0.42692917585372925,0.30628693103790283,0.25419747829437256,0.2558063268661499,-0.3421914279460907,-0.3465651571750641,-0.3840146064758301,0.1351442039012909,0.04721025750041008,0.22607997059822083,0.1570335477590561,0.16628827154636383,0.14356359839439392,-0.07933121919631958,0.14955712854862213,-1.501294732093811,-0.23445309698581696,-0.3597913384437561,-0.2814263105392456,-0.4456842839717865,-0.47253623604774475,-0.4049888849258423,0.5211129188537598,0.5666736364364624,0.5106773972511292,0.4372763931751251,0.3373357653617859,0.47306013107299805,0.12841323018074036,0.0756194069981575,0.0873187780380249,0.3132660984992981,0.34868383407592773,0.3813093304634094,-0.5525580644607544,-0.6126245260238647,-0.48674580454826355,-0.16363516449928284,-0.29011327028274536,-0.19194965064525604,-0.20994791388511658,-0.23375366628170013,-0.2299397587776184,0.014981191605329514,0.06074073165655136,0.07180541753768921,1.2721515893936157,0.3244226276874542,1.508137583732605]},"cellActivationHidden":{"rows":20,"columns":20,"weights":[0.2896498441696167,-0.291953444480896,0.299217164516449,0.2729761302471161,0.23859384655952454,-0.30990204215049744,-0.26022103428840637,0.2253888100385666,0.3516402244567871,-0.35349565744400024,-0.3784267008304596,-0.35049161314964294,-0.34591758251190186,0.35950449109077454,-0.26757845282554626,-0.2635686695575714,-0.3653455078601837,-0.30006903409957886,0.20172858238220215,-0.23808065056800842,-0.3105553090572357,0.29611140489578247,-0.3128599226474762,-0.4150606691837311,-0.38789841532707214,0.321968674659729,0.3397192656993866,-0.3540617525577545,-0.3564673960208893,0.2968769371509552,0.20768311619758606,0.29425275325775146,0.3111162483692169,-0.3457690179347992,0.3383590877056122,0.21344256401062012,0.3617438077926636,0.32708635926246643,-0.3014163076877594,0.28587764501571655,0.2553216814994812,-0.44700154662132263,0.3660868704319,0.35951516032218933,0.36392882466316223,-0.357586532831192,-0.25217440724372864,0.25517329573631287,0.3674798607826233,-0.233159139752388,-0.2660747468471527,-0.44885292649269104,-0.2831457853317261,0.3444606065750122,-0.29021313786506653,-0.2649928331375122,-0.3840768337249756,-0.36562103033065796,0.19329383969306946,-0.21127106249332428,0.28348806500434875,-0.44882678985595703,0.39303678274154663,0.550784170627594,0.24536390602588654,-0.41913363337516785,-0.3273586630821228,0.28885507583618164,0.3752174973487854,-0.3537061810493469,-0.24300247430801392,-0.5142809152603149,-0.6066912412643433,0.35216984152793884,-0.2842341661453247,-0.2880583703517914,-0.3392234742641449,-0.2623864412307739,0.2528458833694458,-0.2665412724018097,-0.24973268806934357,0.3250880837440491,-0.3096505403518677,-0.2644177973270416,-0.36102044582366943,0.31625983119010925,0.22418151795864105,-0.3594615161418915,-0.3513507544994354,0.35052254796028137,0.36734089255332947,0.24435867369174957,0.30201324820518494,-0.23968835175037384,0.3058597445487976,0.35640373826026917,0.3212800621986389,0.30889183282852173,-0.2667290270328522,0.290740042924881,-1.5470004081726074,2.0060670375823975,-1.7264131307601929,-2.063396453857422,-0.3304882347583771,1.0492337942123413,-0.014088181778788567,-0.0557943731546402,-1.3154854774475098,0.2623823583126068,-0.4360997676849365,2.030656576156616,1.8967828750610352,-0.2795526087284088,1.3806909322738647,0.17839504778385162,0.37246617674827576,0.32646268606185913,1.629746437072754,0.801122784614563,-0.776881754398346,1.5613080263137817,-1.4171751737594604,-1.6499673128128052,-0.3121519684791565,2.9228391647338867,1.347034215927124,-0.4758990705013275,0.5424045324325562,0.38217127323150635,-0.08653845638036728,1.7263238430023193,1.4883044958114624,-0.3065168857574463,0.4063170850276947,0.18190236389636993,0.23321883380413055,0.4187544286251068,1.3856430053710938,0.8123000860214233,-0.5478554964065552,0.9405832290649414,-0.7701917886734009,-0.9186817407608032,-0.2897842526435852,1.1690874099731445,-0.10808604955673218,0.44137004017829895,-0.2440732717514038,0.27194052934646606,-0.015253132209181786,0.7808888554573059,0.9669510126113892,-0.26065298914909363,0.4864588975906372,0.4806593358516693,0.29255905747413635,0.23556363582611084,0.016001369804143906,0.049890946596860886,0.6875447630882263,1.0312318801879883,-1.6097677946090698,-0.8141902685165405,0.3435991108417511,0.1951354444026947,-0.24292896687984467,0.2102462351322174,-2.743096113204956,-0.3159225583076477,-0.21374307572841644,0.6078397035598755,0.9285679459571838,0.36115097999572754,0.08983934670686722,-0.31747907400131226,-0.24138657748699188,-0.22803634405136108,1.6650421619415283,-4.467267990112305,0.3661928176879883,-0.35067740082740784,0.3497341275215149,0.3235939145088196,0.23215168714523315,-0.36787185072898865,-0.2748187780380249,0.23628513514995575,0.3509814143180847,-0.35456931591033936,-0.23203618824481964,-0.30875149369239807,-0.22149866819381714,0.3606826961040497,-0.286174476146698,-0.32668012380599976,-0.26955485343933105,-0.38205161690711975,0.3462238311767578,-0.28910455107688904,0.8632457852363586,-0.6094690561294556,1.0537683963775635,0.5126224756240845,0.3173273205757141,-0.44291597604751587,1.0501314401626587,0.926473081111908,0.34397751092910767,-0.24448412656784058,-2.3006365299224854,-0.6789077520370483,-0.708939790725708,0.37594425678253174,-1.468758225440979,0.8947380781173706,-0.26512375473976135,-0.2813466787338257,-0.060086943209171295,-0.538586437702179,-0.4100039005279541,0.316590279340744,-0.37045443058013916,-0.4015500545501709,-0.31379035115242004,0.27767232060432434,0.33052781224250793,-0.385907381772995,-0.3069113492965698,0.3345983922481537,0.2746790647506714,0.4318632185459137,0.2559022605419159,-0.3114781677722931,0.33702921867370605,0.32002905011177063,0.30022478103637695,0.35655370354652405,-0.19629162549972534,0.3231997489929199,-0.3842508792877197,0.671440839767456,-0.3039272725582123,-0.628006637096405,-0.2716914415359497,0.6013849377632141,0.18755470216274261,-0.2811899483203888,-0.44608548283576965,0.23215040564537048,0.2545568645000458,0.6103773713111877,0.82371586561203,-0.26365649700164795,0.32550469040870667,0.2954806983470917,0.3470439314842224,0.3253917992115021,-0.15090371668338776,0.28024017810821533,-0.31270653009414673,0.3528948724269867,-0.3526521623134613,-0.2604770362377167,-0.36501917243003845,0.2627258598804474,0.3142264187335968,-0.2734375298023224,-0.2731986939907074,0.23304186761379242,0.3914872109889984,0.27373120188713074,0.2654496133327484,-0.28505149483680725,0.3723280429840088,0.3721514046192169,0.2863108217716217,0.2552292048931122,-0.3859108090400696,0.3191891312599182,-0.6529545187950134,-0.02429686114192009,-1.4547432661056519,-0.05516384169459343,-0.28866660594940186,-0.10841019451618195,-0.24603873491287231,-0.06984101235866547,-0.6095471382141113,0.2860757112503052,0.07592181861400604,0.11034566909074783,0.05752428248524666,-0.31068381667137146,0.732582688331604,0.2778349220752716,0.376058429479599,0.37576058506965637,-0.2639558017253876,0.5385119915008545,0.26601991057395935,-0.18074634671211243,0.23660311102867126,0.21703357994556427,0.30859485268592834,-0.2733185589313507,-0.06949002295732498,0.2807440161705017,0.22316448390483856,-0.16840915381908417,-0.23237940669059753,-0.42650437355041504,-0.14729881286621094,0.28204748034477234,-0.2678810954093933,-0.35606682300567627,-0.1286344677209854,-0.1873769462108612,0.15823698043823242,0.11094233393669128,0.29619160294532776,-0.2643795311450958,0.29750314354896545,0.33924221992492676,0.28840067982673645,-0.29291000962257385,-0.3754957318305969,0.3340317904949188,0.3725493252277374,-0.27352064847946167,-0.3172689974308014,-0.3031749725341797,-0.3291715681552887,0.23652157187461853,-0.3336047828197479,-0.34004542231559753,-0.29534319043159485,-0.38229936361312866,0.2917041778564453,-0.36535289883613586,0.2740815579891205,-0.18529614806175232,0.2055128663778305,0.23841866850852966,0.35967254638671875,-0.22112862765789032,-0.3339543044567108,0.32352155447006226,0.26843342185020447,-0.23033398389816284,-0.35771048069000244,-0.19090640544891357,-0.2387147843837738,0.2767786383628845,-0.2725449502468109,-0.2819482684135437,-0.2771695554256439,-0.3009725511074066,0.3784753084182739,-0.2334088683128357,-0.8669281005859375,1.0598362684249878,-0.9429917335510254,-0.9820075035095215,-0.3402402400970459,0.6187269687652588,0.8118832111358643,0.19550904631614685,-1.0100369453430176,0.3745599091053009,-0.370092511177063,0.9521702527999878,0.9945136308670044,-0.2548767030239105,0.907942533493042,-0.5490032434463501,0.24460507929325104,0.31994494795799255,0.2727346122264862,0.2990442216396332,0.6288545727729797,-0.6782211065292358,0.9900692701339722,0.3668234646320343,-0.3623327314853668,-1.9637036323547363,10.298380851745605,0.11833647638559341,-4.673914909362793,0.29943761229515076,0.1715419590473175,-0.26226165890693665,-0.3662984371185303,-0.1962703913450241,2.1223137378692627,0.419937402009964,0.2559574544429779,-0.24781575798988342,-0.8696204423904419,-1.7566311359405518]},"cellActivationBias":{"rows":20,"columns":1,"weights":[-0.338336706161499,0.36899882555007935,-0.5855847001075745,0.11209379136562347,0.2920974791049957,-1.5408334732055664,-6.207646369934082,0.316598504781723,-0.5357612371444702,-0.30709078907966614,-0.31603139638900757,-0.267754465341568,0.5709903836250305,0.3082413971424103,1.2205705642700195,-0.015484543517231941,-0.3089696764945984,-0.27011796832084656,-1.6613720655441284,-1.1690996885299683]}}],"outputConnector":{"rows":3,"columns":20,"weights":[0.26530468463897705,0.9707818627357483,-0.5965161919593811,-1.0417284965515137,-0.05797421559691429,0.03363256901502609,0.45189380645751953,-0.3649790585041046,-0.5733926892280579,0.26456570625305176,-0.45310088992118835,0.9988842010498047,1.0678253173828125,-0.1037135049700737,0.46924498677253723,0.020649375393986702,0.2456599473953247,0.5867165327072144,0.3345586657524109,0.5065094232559204,-0.5613361597061157,0.5593740344047546,-0.8368491530418396,-0.5717934370040894,0.033421073108911514,0.563083291053772,0.7576090097427368,-0.10760635882616043,-0.8199368715286255,0.22304894030094147,0.19727583229541779,0.3857562839984894,0.6380965113639832,0.044491399079561234,0.2903442680835724,0.004006505012512207,0.32541388273239136,-0.6759175062179565,0.09190832823514938,0.35638508200645447,-0.42796334624290466,0.10736191272735596,-0.46277835965156555,0.0002879175008274615,-0.25207820534706116,0.6589372754096985,0.6216466426849365,-0.11072881519794464,-0.16259010136127472,0.25996676087379456,0.1784570813179016,0.1189235970377922,0.2258051186800003,0.09418994188308716,0.2622346580028534,0.06358650326728821,0.21811842918395996,0.6297898292541504,-0.3321598768234253,0.2730526924133301]},"output":{"rows":3,"columns":1,"weights":[-0.9967511296272278,0.3983994126319885,2.4771499633789062]},"inputLookup":null,"inputLookupLength":0,"outputLookup":null,"outputLookupLength":0}