{"type":"LSTMTimeStep","options":{"inputSize":1,"inputRange":0,"hiddenLayers":[20,20],"outputSize":1,"decayRate":0.999,"smoothEps":1e-8,"regc":0.000001,"clipval":5,"maxPredictionLength":100,"dataFormatter":{"indexTable":{},"characterTable":{},"characters":[],"specialIndexes":[]}},"hiddenLayers":[{"inputMatrix":{"rows":20,"columns":1,"weights":[2.0583367347717285,0.09314338862895966,-0.7666162252426147,-1.3038369417190552,0.5614383816719055,-0.24610328674316406,-1.1902072429656982,-1.0415370464324951,-0.08304665237665176,1.3110283613204956,-1.6497079133987427,-1.8465337753295898,-2.0891079902648926,0.8594484329223633,0.1562158763408661,-1.5762323141098022,-1.8652578592300415,1.1364210844039917,0.6934136748313904,0.23191317915916443]},"inputHidden":{"rows":20,"columns":20,"weights":[1.075117588043213,1.476917028427124,0.8844279646873474,-2.964787006378174,1.144952654838562,-1.0143941640853882,1.0639724731445312,2.070101022720337,-0.5446809530258179,-0.6806799173355103,0.45982858538627625,3.938345432281494,3.0815649032592773,-0.10114239901304245,-0.7709473371505737,0.11650814861059189,-0.07088097184896469,0.5756965279579163,-2.208254098892212,1.1693429946899414,-0.39009374380111694,-2.7383475303649902,0.034214891493320465,0.27352288365364075,-0.45621904730796814,-0.02470031939446926,1.950875997543335,1.9031648635864258,-1.3559244871139526,-1.4846415519714355,0.610063910484314,0.3346080183982849,-0.6955175399780273,2.5666801929473877,1.4930765628814697,-0.04986211657524109,0.40650978684425354,-0.8263260126113892,-0.33818817138671875,-0.8676599860191345,11.601526260375977,-49.74565887451172,16.39125633239746,29.376327514648438,-17.28643035888672,17.67005729675293,66.32179260253906,48.79393768310547,-56.908023834228516,-35.698421478271484,-38.86604309082031,28.99168586730957,18.950796127319336,47.41887664794922,42.253570556640625,-50.95589828491211,22.827251434326172,3.286695957183838,21.49176788330078,5.730973720550537,0.4425509572029114,-1.3029248714447021,-0.6531051993370056,-2.5501341819763184,-0.3717091679573059,0.14187751710414886,3.0400335788726807,1.9724065065383911,-1.3717372417449951,-1.4169890880584717,2.642828941345215,0.3594077229499817,4.235413074493408,0.9000453948974609,1.2571581602096558,-0.055922981351614,-2.5366790294647217,-0.026158811524510384,2.6867926120758057,0.7079553604125977,-0.33560943603515625,-7.100200176239014,0.4593885540962219,6.892955303192139,0.007887129671871662,-0.3667301535606384,10.984668731689453,7.096765041351318,-3.9465394020080566,-3.524320125579834,-1.8511028289794922,-1.1516143083572388,-1.1844956874847412,2.232914686203003,2.950267791748047,-2.474956512451172,-4.39924955368042,-1.567502498626709,0.8658241629600525,2.0782148838043213,-3.7901148796081543,0.13288991153240204,-0.16202276945114136,-0.9138158559799194,-3.4768147468566895,-0.6325891017913818,1.7677690982818604,0.42350059747695923,-0.8201702237129211,-0.19129809737205505,1.901057481765747,-1.9165716171264648,0.40791717171669006,0.17255578935146332,0.15317989885807037,-1.9666142463684082,2.7149271965026855,-4.809761047363281,0.963529646396637,1.075791358947754,0.0017604099120944738,-1.1477129459381104,-0.4895886182785034,1.2160669565200806,-0.3130664527416229,-0.04802274703979492,3.5344109535217285,2.2012856006622314,-2.149883508682251,-0.8766513466835022,-0.8563734292984009,2.2848057746887207,-0.07745186984539032,0.6853252649307251,1.2888168096542358,-1.7188528776168823,0.20564314723014832,0.3120635151863098,1.4650031328201294,1.3497284650802612,2.2897207736968994,-1.7728534936904907,-1.0346338748931885,0.07428915053606033,0.6731646060943604,0.01757390983402729,1.7435975074768066,4.779531955718994,-2.706805944442749,-1.4526458978652954,0.3786085546016693,0.18847765028476715,-0.8992018699645996,-0.2915051281452179,1.9232945442199707,-0.0839184895157814,-1.2282756567001343,0.03933388367295265,0.4756360352039337,-1.291805386543274,1.092244267463684,-3.315174102783203,-1.7268177270889282,5.97283411026001,-1.7301663160324097,0.22798021137714386,4.881959438323975,6.398021221160889,-4.2521071434021,-1.676292896270752,-1.92826509475708,0.35905614495277405,-0.703512966632843,0.3836473524570465,1.327090859413147,-4.610100269317627,-3.422685384750366,-1.988321304321289,1.8014600276947021,-0.41937774419784546,-1.71951162815094,-0.8983545899391174,1.1665360927581787,0.640998125076294,0.030054163187742233,0.5407215356826782,0.5253993272781372,1.1245335340499878,-1.3990603685379028,-1.4606434106826782,-0.34090548753738403,1.1416387557983398,0.651478111743927,0.3070891499519348,1.6716864109039307,-0.07422491163015366,-0.5964095592498779,-2.7387514114379883,1.933868646621704,-2.856149196624756,3.2720584869384766,-2.7010014057159424,-0.3911864459514618,-5.043812274932861,-3.1302876472473145,-3.8777899742126465,3.9013631343841553,0.6311219930648804,-0.9592423439025879,0.06033065915107727,0.9212590456008911,-1.1237146854400635,-1.4605437517166138,2.16640567779541,0.9305688142776489,-1.011702299118042,-1.3907145261764526,0.5306016802787781,1.829359769821167,6.908936023712158,-0.5739488005638123,-3.5359630584716797,-1.6088732481002808,3.970531702041626,-5.83314323425293,-1.6282850503921509,7.218753814697266,1.5295876264572144,-1.5995054244995117,-0.13246338069438934,-2.0870161056518555,-1.5107858180999756,0.27184635400772095,3.630980968475342,1.1317006349563599,-3.108419179916382,-1.6497955322265625,-6.71427059173584,2.609961986541748,12.592666625976562,1.658766269683838,-0.9334496855735779,-0.21081456542015076,2.8669421672821045,-0.8604629635810852,-0.18605132400989532,0.8937885165214539,-0.9752756357192993,-0.5336560606956482,-0.19317318499088287,1.1069306135177612,-1.552632451057434,-0.48061078786849976,0.15321047604084015,0.48277589678764343,-1.139053463935852,-0.6513169407844543,0.04566577076911926,1.5409855842590332,2.2682533264160156,-0.7656891942024231,-1.9536842107772827,-0.8996005058288574,1.3790730237960815,0.16812385618686676,0.670197606086731,1.7532150745391846,1.4752600193023682,-1.2867467403411865,-2.7920353412628174,0.30748751759529114,-0.7729306221008301,-0.6782654523849487,3.1132748126983643,1.5552445650100708,0.3553500473499298,0.02769939787685871,0.4503187835216522,1.1069698333740234,0.1553855985403061,0.1305510699748993,-1.8006824254989624,-1.404314637184143,0.466554194688797,0.24428847432136536,0.6411634683609009,1.7628545761108398,2.432926654815674,-2.732692003250122,-2.694305896759033,0.28657758235931396,0.720954954624176,-0.12994730472564697,0.9253740906715393,1.5523185729980469,-0.3935401737689972,0.2871234118938446,-2.454881429672241,-1.1752232313156128,-2.2001490592956543,0.7122617959976196,-1.0880568027496338,-0.6680026650428772,-1.0384172201156616,1.3401418924331665,0.47744160890579224,2.3084464073181152,1.7706847190856934,-1.0706250667572021,0.42686358094215393,0.9351826906204224,0.9321577548980713,3.0679571628570557,0.6280525922775269,0.8007872700691223,0.4089750647544861,-1.049919843673706,1.0882738828659058,1.3902643918991089,1.715309977531433,0.39015403389930725,1.8780263662338257,0.6073878407478333,-1.3955655097961426,-1.2738447189331055,-1.8063523769378662,3.810204267501831,3.8394291400909424,-2.9200823307037354,-0.01934080570936203,-0.1546454280614853,0.031160658225417137,-1.6732306480407715,-1.319047451019287,0.315509557723999,-0.5526760220527649,0.645759105682373,-1.1594243049621582,1.8586690425872803,2.2965736389160156,0.648070216178894,-4.542141437530518,0.8380908966064453,3.744035482406616,1.9381624460220337,1.331641435623169,7.491393089294434,2.2421867847442627,-2.1410059928894043,-4.364584445953369,-1.0470571517944336,0.34256798028945923,-1.5455844402313232,3.1003849506378174,3.6836674213409424,-1.1781303882598877,-3.3314642906188965,1.8261457681655884,-0.6161192059516907,1.7550863027572632,-1.9130181074142456,-1.800610899925232,1.7814077138900757,3.2833077907562256,-1.3725019693374634,-0.8991050720214844,6.61533260345459,4.330777168273926,-3.091050624847412,-0.8602039813995361,-0.06502953916788101,0.7525334358215332,-0.4535677134990692,-0.0013527681585401297,2.7017738819122314,-7.963738441467285,-3.2561557292938232,-1.4965159893035889,1.641485571861267,0.9312711954116821,1.0306611061096191,-3.0910704135894775,-0.40698862075805664,4.454216957092285,-1.3379930257797241,1.1154698133468628,5.159350395202637,9.562102317810059,-3.4936485290527344,-1.765234351158142,-3.947951555252075,1.011591911315918,0.5244311094284058,0.901618480682373,2.293272018432617,-4.982968807220459,-2.6802093982696533,-0.22079166769981384,1.3678950071334839,1.8433970212936401]},"inputBias":{"rows":20,"columns":1,"weights":[-0.9012068510055542,-1.077202558517456,2.9869496822357178,-0.5115864872932434,-0.527992844581604,0.11176425963640213,-0.950726330280304,-1.4425468444824219,-2.1501970291137695,-1.481305718421936,0.03689824044704437,-0.2522103488445282,1.2598210573196411,-1.3318696022033691,-0.852654218673706,1.0843323469161987,-0.9975177645683289,-1.9836465120315552,-0.4627046585083008,-0.7142008543014526]},"forgetMatrix":{"rows":20,"columns":1,"weights":[-6.123998165130615,4.001494407653809,0.20263497531414032,-4.889369487762451,-8.036054611206055,-0.69901442527771,45.15194320678711,-4.573713779449463,73.14726257324219,2.160386323928833,-0.2671295702457428,0.10552077740430832,-1.4261877536773682,6.905228614807129,-0.838408350944519,6.118469715118408,-3.917092800140381,-8.132652282714844,24.056367874145508,-0.7751988172531128]},"forgetHidden":{"rows":20,"columns":20,"weights":[27.002445220947266,7.436465263366699,-3.239107370376587,-16.3585262298584,7.0124688148498535,2.25504469871521,-30.463306427001953,-26.490001678466797,22.21648597717285,3.478083610534668,23.860803604125977,3.875528335571289,17.738178253173828,-4.506916046142578,-4.68316125869751,23.23935317993164,18.102333068847656,1.543306589126587,-16.158374786376953,-3.897998332977295,-1.805029273033142,-19.172609329223633,-1.0255677700042725,-3.886986017227173,-7.2212958335876465,4.859039783477783,1.3151646852493286,4.949544906616211,-6.45937442779541,-14.454273223876953,5.652353286743164,-0.8406105637550354,-0.7591431736946106,17.420442581176758,14.220916748046875,5.995056629180908,3.9509694576263428,-0.8591905236244202,-4.628044128417969,11.29662799835205,1.2562737464904785,0.9476685523986816,0.5835768580436707,0.8974370360374451,-2.2259535789489746,0.1828288435935974,1.38470458984375,-0.6213435530662537,0.6469870209693909,1.017332911491394,-1.4049718379974365,-0.08719231188297272,0.20262135565280914,-0.5137239098548889,-1.5879992246627808,-0.5697283148765564,0.9476807117462158,-1.1978837251663208,2.5144481658935547,1.022159218788147,14.705443382263184,5.505676746368408,0.9549549221992493,16.42442512512207,8.394448280334473,1.1900628805160522,-15.433792114257812,1.229856252670288,16.00934410095215,6.047453880310059,4.625289440155029,1.5363266468048096,0.8721097707748413,-6.014301776885986,-7.9835896492004395,8.066697120666504,-0.8880162239074707,8.824130058288574,-5.323689937591553,-8.845916748046875,10.435816764831543,7.6591033935546875,13.708422660827637,-35.553138732910156,14.206791877746582,8.625752449035645,-38.61305618286133,-37.80465316772461,27.1964054107666,9.557618141174316,-1.8739724159240723,12.134133338928223,-8.701831817626953,-8.85004997253418,-10.120121002197266,32.51290512084961,13.149739265441895,11.931458473205566,-27.835582733154297,-21.695486068725586,0.08593006432056427,1.7257335186004639,0.5280727744102478,1.762453556060791,-3.7207093238830566,-1.0801295042037964,0.23994502425193787,0.2908592224121094,-0.4042748510837555,0.6376641392707825,0.2550368905067444,-1.7425802946090698,-0.5730074644088745,-1.032026767730713,-1.7011220455169678,-0.8944664001464844,0.9688522815704346,-3.576340913772583,1.648188591003418,-0.1796540915966034,-6.29774284362793,-44.18633270263672,25.9854793548584,24.18609619140625,-16.24052619934082,25.55400848388672,49.3641357421875,39.196449279785156,-46.01594161987305,-45.991310119628906,-33.924373626708984,26.821796417236328,17.202678680419922,45.09906005859375,43.89191818237305,-46.80106735229492,17.447431564331055,-11.232582092285156,47.92817306518555,7.286815643310547,15.497875213623047,2.8735735416412354,7.0403242111206055,0.38898274302482605,12.976298332214355,8.479464530944824,-13.47938060760498,-7.4614410400390625,3.3915762901306152,2.687774181365967,-3.1676809787750244,9.703476905822754,6.228219509124756,-4.18154764175415,-10.075453758239746,3.3638439178466797,10.39020824432373,8.901403427124023,-15.331591606140137,-18.84163475036621,-13.71310806274414,-77.79824829101562,30.2465763092041,34.38129425048828,-41.782867431640625,31.168710708618164,67.1690673828125,67.24402618408203,-78.436279296875,-79.9305191040039,-43.10002136230469,35.005741119384766,30.79228973388672,78.42938995361328,77.40641021728516,-60.481746673583984,21.735130310058594,-38.67214584350586,61.34934616088867,35.210147857666016,0.8148250579833984,-1.1631935834884644,1.1519737243652344,1.0493038892745972,0.4253336191177368,-0.31638121604919434,0.6388979554176331,-0.09430992603302002,0.2733965814113617,-0.4408809542655945,-1.1141935586929321,2.6779918670654297,0.3581226170063019,0.18595904111862183,0.7963431477546692,0.9240099787712097,0.23402109742164612,-1.0113083124160767,1.1401700973510742,-1.4065220355987549,-7.862239837646484,0.18546785414218903,-1.3701863288879395,-0.9926731586456299,-3.246058225631714,-0.6437047719955444,2.110152006149292,0.3024103343486786,-0.22403034567832947,-0.3089241087436676,0.3613084554672241,-1.1968424320220947,-7.32487154006958,0.26375019550323486,0.17713408172130585,0.17900362610816956,-1.5040580034255981,-3.6262094974517822,2.5649356842041016,3.3825957775115967,0.25956809520721436,1.0840845108032227,0.5767120122909546,0.7891588807106018,-1.8752866983413696,0.31322619318962097,0.5560027360916138,-0.7163541316986084,0.6618223786354065,1.2845474481582642,-0.8818283677101135,-0.19148674607276917,2.160728693008423,-0.9672589898109436,-2.331408977508545,-1.1934813261032104,1.5688849687576294,-2.033067464828491,0.17949390411376953,2.670471429824829,1.387890338897705,0.6949750781059265,-0.324847012758255,-0.4282110333442688,-0.0413321852684021,-0.30181875824928284,0.1989772468805313,-0.7021759152412415,1.7372455596923828,2.2540924549102783,0.2567831873893738,-0.06265521049499512,-0.2635035216808319,-0.48320168256759644,-1.0073333978652954,0.041842665523290634,-0.41203996539115906,0.5005080103874207,0.24434328079223633,1.2523362636566162,-0.11677607893943787,-26.9888858795166,1.1742275953292847,12.264488220214844,-3.2275326251983643,6.14090633392334,19.93053436279297,15.51725959777832,-14.112481117248535,-16.6043758392334,-9.597216606140137,7.951581001281738,0.9107041358947754,18.164657592773438,12.932524681091309,-18.112621307373047,6.856818199157715,0.9210697412490845,18.121862411499023,-0.4930664300918579,1.2283780574798584,2.4465181827545166,-0.7196811437606812,-5.209294319152832,4.67189884185791,3.2615392208099365,-1.5331016778945923,0.15168166160583496,-0.138667494058609,-0.5921206474304199,2.562818765640259,-0.3804054856300354,0.19034342467784882,0.4034996032714844,0.17539043724536896,3.8641769886016846,-0.02044183947145939,2.7610557079315186,-3.540923595428467,-6.556180000305176,-8.857830047607422,-8.534421920776367,-1.6012694835662842,4.656781196594238,-9.296937942504883,-0.7870990037918091,9.314291000366211,6.968392372131348,-6.846007823944092,-8.140952110290527,-0.36007070541381836,-1.1472787857055664,-0.7960480451583862,8.827672004699707,8.542494773864746,-7.926906585693359,-3.262047529220581,-7.742300510406494,9.213059425354004,10.785659790039062,4.2689104080200195,3.832437753677368,-0.30695682764053345,-0.0046835774555802345,2.6627328395843506,0.22422394156455994,0.5859094858169556,-0.29762962460517883,0.3331798315048218,2.6079635620117188,4.024571418762207,-0.5574020743370056,1.382598876953125,-3.022881031036377,-3.0046069622039795,3.4648005962371826,5.629143714904785,0.170674666762352,0.800424337387085,0.8895216584205627,11.660425186157227,3.3185064792633057,11.052523612976074,-36.15837478637695,23.274738311767578,10.43057632446289,-38.356929779052734,-54.01544189453125,28.968156814575195,7.562726974487305,10.908895492553711,6.542651176452637,-11.076286315917969,-2.1595916748046875,-6.707304000854492,33.385311126708984,16.66213607788086,21.24791145324707,-21.3719482421875,-15.583102226257324,9.163101196289062,-48.1994743347168,19.55724334716797,30.205890655517578,-9.093194961547852,29.352615356445312,54.218257904052734,44.74592971801758,-51.46610641479492,-34.93963623046875,-36.31318283081055,28.135976791381836,19.998798370361328,53.000701904296875,45.2777214050293,-50.34660339355469,19.865604400634766,-0.8092916011810303,29.21991729736328,5.663118839263916,-0.2927986979484558,0.27318283915519714,-0.14720378816127777,0.8502333760261536,-2.399216890335083,-0.26543670892715454,-0.594244658946991,-0.22633174061775208,0.7534119486808777,0.06163536012172699,-0.5400257706642151,1.3010034561157227,-0.017483845353126526,-1.641796588897705,-0.08564162254333496,-0.6601525545120239,-0.457649290561676,-2.0609331130981445,0.07705788314342499,-0.560142457485199]},"forgetBias":{"rows":20,"columns":1,"weights":[0,0,0,0,0,0,0,0,0,0,0,0,0,0,0,0,0,0,0,0]},"outputMatrix":{"rows":20,"columns":1,"weights":[1.8304026126861572,1.2111213207244873,-1.4090789556503296,-0.9678705930709839,0.4092318117618561,0.657260000705719,-1.079108476638794,-0.755192756652832,0.010159933008253574,1.3184723854064941,13.638422012329102,7.445498466491699,-1.832953691482544,1.102884292602539,0.5922894477844238,-1.3451496362686157,-1.1572002172470093,1.6464948654174805,0.054592154920101166,0.23420555889606476]},"outputHidden":{"rows":20,"columns":20,"weights":[-0.09291894733905792,-1.6427890062332153,0.49221402406692505,2.376018762588501,0.4882562756538391,-1.0146719217300415,6.576621055603027,4.830193996429443,-3.276399612426758,-1.8123893737792969,-0.8246320486068726,0.640724241733551,0.42167139053344727,1.0518735647201538,0.5491822957992554,-4.292781829833984,-4.189984321594238,-0.15700452029705048,2.0757367610931396,2.5406441688537598,-0.09944155067205429,-2.3186421394348145,-0.05560913681983948,0.3958577513694763,-0.5760701298713684,-0.038577158004045486,2.640206813812256,1.5878671407699585,-0.5922266840934753,-1.0737683773040771,0.9449681639671326,1.07003653049469,-1.462395191192627,1.9183189868927002,1.343346118927002,-0.02228444814682007,0.42739051580429077,-2.0310609340667725,0.07854686677455902,-2.7340846061706543,-2.361201524734497,-0.04870670661330223,0.7342689633369446,0.15783165395259857,-6.609687328338623,-4.698310852050781,3.044062614440918,2.9840919971466064,-2.142695188522339,2.4474823474884033,-0.49559563398361206,-1.11420738697052,-0.5751618146896362,0.5626700520515442,-0.09271614253520966,-0.7284227609634399,-1.1721389293670654,-2.329955577850342,3.60571551322937,7.0976409912109375,0.978528618812561,-1.5121254920959473,0.7290927171707153,-1.741023063659668,-0.9313437342643738,1.0188546180725098,2.7121777534484863,1.4433618783950806,-1.0875548124313354,-0.7234615087509155,1.4577144384384155,0.8941211104393005,0.8812675476074219,1.0128620862960815,0.5288213491439819,0.2777361571788788,-0.7214000821113586,-0.02670634351670742,1.521997094154358,1.3361873626708984,-0.08875829726457596,-3.919034719467163,0.12530970573425293,3.223456382751465,0.3317408263683319,-0.11757844686508179,6.185050964355469,3.6227262020111084,-1.7112019062042236,-2.107442617416382,1.6084296703338623,-1.9254395961761475,-0.978787899017334,1.2431645393371582,1.7506637573242188,-0.7573126554489136,-0.7974549531936646,-0.5187786817550659,0.17487236857414246,0.7927024364471436,-2.4251296520233154,-3.7911899089813232,-0.23179805278778076,17.978574752807617,-2.9796552658081055,0.49202126264572144,13.977807998657227,18.136262893676758,-9.22381591796875,-4.154265880584717,-9.526845932006836,1.0545254945755005,-0.15242326259613037,2.9719104766845703,4.6808576583862305,-12.038651466369629,2.9561846256256104,-4.309732913970947,4.949586868286133,1.2137179374694824,1.0710484981536865,-0.9255760908126831,-0.16501307487487793,1.4763118028640747,0.9964988827705383,0.5518649220466614,0.7050819396972656,0.975777268409729,-1.5620081424713135,-0.7148085236549377,-0.8663885593414307,4.01005220413208,0.3672957420349121,0.35425496101379395,1.1954575777053833,-1.3157734870910645,1.662193775177002,1.1225789785385132,0.49256181716918945,-0.08294348418712616,1.8115209341049194,-2.83256459236145,-1.1612437963485718,1.402713418006897,0.41880321502685547,-0.3388126790523529,0.8918662071228027,3.312696933746338,-2.1672518253326416,-1.7329357862472534,-0.0327257364988327,0.49564260244369507,-1.1014277935028076,-0.2791566550731659,1.4004098176956177,0.2899058759212494,-0.7671055793762207,-0.5615190267562866,0.4808282256126404,-1.611804723739624,1.115748643875122,-3.0080559253692627,-1.8108354806900024,5.527861595153809,-1.6795783042907715,-0.033636726438999176,5.522308349609375,5.277082443237305,-3.6166293621063232,-2.0307066440582275,-2.4065887928009033,0.8017600178718567,-0.5525380969047546,0.4195745289325714,1.5389431715011597,-4.2578630447387695,-1.529416799545288,-1.6667077541351318,1.925820231437683,-1.1663340330123901,-1.6149969100952148,-1.1685705184936523,0.9256479740142822,0.7962424755096436,0.1833563596010208,0.6813080310821533,1.1188056468963623,1.7519252300262451,-1.4525645971298218,-1.3502402305603027,-0.3821806013584137,0.9028072953224182,0.33062076568603516,0.4819912910461426,2.08384108543396,-0.18467433750629425,-0.5709081888198853,-2.4470207691192627,1.6212087869644165,-2.764641046524048,12.814697265625,-66.28154754638672,26.587390899658203,29.931570053100586,-33.77459716796875,25.288021087646484,63.980098724365234,57.84349822998047,-68.96710205078125,-56.71231460571289,-37.681121826171875,30.916465759277344,26.980735778808594,67.60093688964844,64.1082992553711,-55.09339904785156,22.74245834350586,-30.63104248046875,38.472599029541016,34.1509895324707,14.179516792297363,-72.85900115966797,28.509183883666992,34.15568923950195,-37.48033142089844,29.260766983032227,70.90330505371094,62.39341735839844,-73.7933578491211,-62.87870788574219,-43.316741943359375,35.63633728027344,30.614990234375,73.93975830078125,67.39873504638672,-60.94593811035156,22.182252883911133,-34.93043518066406,44.12220001220703,42.22029495239258,1.6142277717590332,-0.6567645072937012,-0.25856074690818787,2.7134501934051514,-0.8985674977302551,-0.032970886677503586,1.1004338264465332,-1.1161824464797974,-0.3165860176086426,0.052234772592782974,0.7059271335601807,-1.6677716970443726,0.00946302991360426,-0.05064472183585167,0.27544325590133667,-1.0921748876571655,-0.5395658016204834,-0.3608618974685669,1.6750837564468384,2.3778860569000244,-1.785016417503357,-0.739435076713562,-1.1270432472229004,1.0716124773025513,-0.678993284702301,0.9568979740142822,2.778799057006836,3.5554819107055664,-2.6593711376190186,-2.4983155727386475,0.5729673504829407,-0.03285207599401474,-0.8726241588592529,1.1167186498641968,2.1304526329040527,0.48739370703697205,-0.01734558865427971,-1.1432831287384033,1.3051995038986206,-1.2380090951919556,0.754125714302063,-2.2610676288604736,-1.2844150066375732,0.26508283615112305,-0.34818536043167114,0.5819035172462463,1.386780858039856,2.588080644607544,-2.3530497550964355,-2.1566109657287598,0.5807990431785583,1.0449151992797852,-0.048943858593702316,-0.16848278045654297,1.4512399435043335,-0.6101858615875244,0.5190932750701904,-2.739596366882324,-0.44965752959251404,-3.059767723083496,0.44132277369499207,-1.1860404014587402,-0.5230373740196228,-1.0469589233398438,0.5791870951652527,0.5734756588935852,2.5208370685577393,1.963252067565918,-1.3319200277328491,0.3115520179271698,0.9842884540557861,0.8739135265350342,3.396824598312378,0.6847991943359375,0.5634171962738037,0.7739173173904419,-1.0274717807769775,0.6909907460212708,1.4195564985275269,1.5658142566680908,0.8664576411247253,1.6309266090393066,0.29966023564338684,-1.67942214012146,-1.2494152784347534,-0.8276762366294861,4.146341800689697,3.321289539337158,-2.807283401489258,0.18564502894878387,0.19918221235275269,0.23547527194023132,-0.9742485284805298,-0.8865521550178528,0.4210377335548401,-0.7691630125045776,0.17800591886043549,-0.9079436659812927,1.8409918546676636,2.543473958969116,1.137015700340271,-5.509509563446045,0.735636830329895,5.073692321777344,1.6095727682113647,1.4344313144683838,9.826395988464355,3.84698224067688,-3.3555455207824707,-4.790299415588379,-1.8265740871429443,0.2900455892086029,-1.407080054283142,3.0203332901000977,3.9594147205352783,-1.9383147954940796,-3.6636106967926025,1.036757230758667,-0.24767684936523438,1.3267327547073364,-1.4375320672988892,-1.2246242761611938,1.7350564002990723,0.3203142285346985,1.2181485891342163,-0.044286392629146576,1.2642170190811157,0.9153157472610474,-1.239572286605835,-0.145819753408432,0.9060958623886108,2.1672897338867188,0.7914632558822632,-0.7730596661567688,0.37118256092071533,0.054208483546972275,-0.653608500957489,0.27150970697402954,0.3801957070827484,-1.9282361268997192,0.6502902507781982,-3.0189297199249268,-0.2544877231121063,4.691162109375,-1.051958680152893,0.9024936556816101,5.695174217224121,5.580790042877197,-2.8279151916503906,-1.9017302989959717,-3.5337607860565186,0.7947434186935425,1.2972441911697388,0.20329418778419495,2.560626745223999,-4.935115814208984,-3.1047720909118652,-0.3366534411907196,1.3564168214797974,1.0734120607376099]},"outputBias":{"rows":20,"columns":1,"weights":[-0.8455628156661987,-0.9416448473930359,3.338592052459717,-0.5318603515625,-0.5618271827697754,0.11576961725950241,-0.9764401912689209,-1.4431694746017456,-2.1585659980773926,-1.6493784189224243,-1.6357901096343994,0.27881163358688354,1.2290199995040894,-1.2163705825805664,-0.9034171104431152,1.0542235374450684,-1.0041512250900269,-1.9654970169067383,-0.4709162712097168,-0.7596982717514038]},"cellActivationMatrix":{"rows":20,"columns":1,"weights":[0.0829194188117981,-2.129622220993042,1.5468140840530396,1.3814927339553833,1.8455547094345093,4.380000114440918,27.65390968322754,0.9107005596160889,-37.85887145996094,-1.3425369262695312,-37.243412017822266,44.46575927734375,0.7085800170898438,2.3765318393707275,1.5341694355010986,-4.2704243659973145,0.4681951105594635,0.13110609352588654,1.8234084844589233,-0.7242464423179626]},"cellActivationHidden":{"rows":20,"columns":20,"weights":[-11.348862648010254,-6.256021499633789,-5.014864921569824,31.617103576660156,-10.8097505569458,-12.443197250366211,9.425268173217773,11.877391815185547,-11.922139167785645,-5.859182357788086,-17.62497901916504,-5.41292667388916,-0.9886720776557922,6.736244201660156,7.522716045379639,-18.056509017944336,-14.207362174987793,-11.089716911315918,12.42733383178711,10.838266372680664,4.5119452476501465,2.9296629428863525,-0.928270697593689,4.74173641204834,3.4199657440185547,-1.0195647478103638,-0.2701539695262909,0.6213686466217041,-0.0408174991607666,0.748334527015686,-4.093087673187256,-1.0650006532669067,-1.0116218328475952,-2.9563651084899902,-1.0995875597000122,-3.87058687210083,-5.140811443328857,1.2956287860870361,2.004291534423828,1.6323411464691162,18.63730812072754,-50.24503707885742,18.945371627807617,28.388553619384766,-14.343462944030762,24.0156307220459,59.94597244262695,50.895389556884766,-58.26993942260742,-35.14322280883789,-37.81206512451172,30.431365966796875,23.715810775756836,51.94125747680664,41.44690704345703,-53.25032043457031,23.59376335144043,1.2999392747879028,21.634746551513672,4.061652660369873,-1.6420997381210327,-10.567599296569824,0.8259090185165405,-4.340311527252197,0.5344058871269226,6.231998443603516,-12.218390464782715,-1.841461181640625,0.4845148026943207,-6.289698123931885,0.21980446577072144,-0.37085282802581787,0.26115360856056213,8.878329277038574,10.601624488830566,7.35776948928833,-1.0008550882339478,-0.6590691804885864,-4.535568714141846,-2.2480576038360596,-5.2036848068237305,1.5400055646896362,3.4695422649383545,0.17676086723804474,-0.5477159023284912,0.28249359130859375,-1.1838691234588623,-1.4912199974060059,0.6515730619430542,1.4323348999023438,-1.912358045578003,1.246988296508789,1.337341070175171,-0.8628090620040894,-0.2220708578824997,-1.3409955501556396,0.08583065867424011,-1.3510454893112183,-1.1634771823883057,-1.94307279586792,11.711196899414062,-66.83255767822266,27.119491577148438,30.699384689331055,-30.48991584777832,26.968585968017578,64.00726318359375,56.63968276977539,-64.55933380126953,-45.96162796020508,-39.70829391479492,32.75541305541992,28.355899810791016,63.71294021606445,47.55575942993164,-57.40953063964844,23.948503494262695,-19.686588287353516,54.05643081665039,10.598468780517578,3.924091100692749,-64.04076385498047,26.899646759033203,26.327045440673828,-35.85068130493164,16.676790237426758,53.89353942871094,47.5207405090332,-45.58427047729492,-26.084089279174805,-38.630332946777344,30.47505760192871,20.88555335998535,66.37030792236328,25.40151596069336,-48.671714782714844,17.38977813720703,-24.457550048828125,20.5546875,4.690296173095703,-0.825009822845459,-2.1679508686065674,0.9755983948707581,-0.5038287043571472,1.6206496953964233,1.9317653179168701,-0.64540696144104,-4.3564887046813965,1.4367207288742065,-2.6319401264190674,-0.1223292276263237,1.8514546155929565,1.0080726146697998,2.692429542541504,1.7497519254684448,0.14388394355773926,3.7160181999206543,2.04840087890625,-0.44704630970954895,-1.7956713438034058,-8.044350624084473,80.26780700683594,-30.36032485961914,-34.131771087646484,37.24190902709961,-36.546112060546875,-67.9595947265625,-65.12081146240234,76.1197738647461,72.10606384277344,44.88854217529297,-36.88072967529297,-31.47612953186035,-81.14859771728516,-71.49395751953125,60.29996109008789,-22.314579010009766,33.46928787231445,-42.528480529785156,-41.23292922973633,1.5353914499282837,-0.3952934741973877,1.0297844409942627,-1.124925136566162,-2.4534294605255127,-1.6067864894866943,-0.2072785347700119,-0.689906895160675,0.7540410161018372,1.5179111957550049,1.3006916046142578,-0.23773235082626343,-1.2338753938674927,0.6628067493438721,-1.3159277439117432,1.471156120300293,-2.099404811859131,0.12873202562332153,0.9541952013969421,0.9851056933403015,-13.197134017944336,71.78172302246094,-23.9330997467041,-29.17963218688965,28.894487380981445,-26.676992416381836,-59.32730484008789,-53.80129623413086,64.50509643554688,45.79289245605469,35.66998291015625,-29.448657989501953,-25.737783432006836,-72.01892852783203,-61.965267181396484,53.69584274291992,-21.81214714050293,31.41532325744629,-36.65472412109375,-28.154462814331055,13.995686531066895,-78.31559753417969,27.503435134887695,32.421695709228516,-33.729557037353516,28.57373809814453,65.8161849975586,60.03744888305664,-69.64441680908203,-67.74296569824219,-39.39335250854492,32.84463119506836,28.326984405517578,75.74109649658203,68.73680877685547,-57.12840270996094,22.152761459350586,-34.01539611816406,41.53798294067383,37.83039474487305,-1.2369239330291748,-5.234872341156006,-0.45566290616989136,12.316549301147461,-4.132889270782471,-1.716639518737793,19.006874084472656,5.485945224761963,-3.8632843494415283,-0.4020657241344452,-5.017399311065674,-0.2013767808675766,-4.905324935913086,2.765702486038208,1.322365641593933,-16.015953063964844,-7.379173755645752,1.2214688062667847,1.9998894929885864,7.337020397186279,-1.7734440565109253,-6.387377738952637,-0.2889178991317749,8.337251663208008,-3.8843514919281006,1.769141435623169,18.085729598999023,4.136631488800049,-3.1945278644561768,-1.6541368961334229,-5.440520763397217,1.1568940877914429,1.0149346590042114,7.611434459686279,2.0952792167663574,-11.061373710632324,1.9970484972000122,-5.746630668640137,2.777636766433716,-2.070765972137451,-1.13520348072052,0.19593322277069092,0.7576565146446228,-1.3282630443572998,2.650465965270996,2.5882434844970703,-0.9766501188278198,-0.5138392448425293,1.321074366569519,-1.8279229402542114,-0.8069906830787659,1.6958928108215332,1.11514151096344,0.1572750210762024,0.5827499032020569,0.1743345558643341,9.708331108093262,1.9464643001556396,-0.5441778302192688,-3.2955617904663086,10.145977020263672,16.54140281677246,0.3051965832710266,-3.211481809616089,14.28547191619873,1.5196832418441772,-16.26694679260254,-20.90971565246582,21.429027557373047,5.224958896636963,2.0627200603485107,0.7691593170166016,6.022302150726318,-14.217236518859863,-12.905904769897461,3.945888042449951,3.3437540531158447,11.617037773132324,-0.014785400591790676,-16.152751922607422,-2.989442825317383,0.46356287598609924,-1.1017718315124512,5.928735256195068,-7.319283485412598,-5.741808891296387,13.40363597869873,9.967347145080566,-10.269529342651367,-1.8626941442489624,-4.2278265953063965,-1.867674469947815,-0.3680698275566101,-3.960603713989258,3.4300568103790283,-4.202454090118408,-4.078701496124268,-12.121596336364746,1.0839990377426147,12.278029441833496,-3.7853338718414307,1.3355175256729126,-1.0687403678894043,0.09608428180217743,-2.2604105472564697,0.9375230669975281,-1.5697576999664307,-0.07779475301504135,-0.36205533146858215,0.8781579732894897,-2.0510571002960205,0.2830774486064911,2.0191259384155273,-2.075571298599243,-0.32752734422683716,-0.30238527059555054,0.09329067915678024,-3.1979448795318604,0.09717921912670135,-3.684567451477051,2.804018020629883,-44.19401168823242,2.5740206241607666,18.836719512939453,-10.612319946289062,8.41847038269043,55.28164291381836,35.15047836303711,-38.917510986328125,-16.23427963256836,-24.634925842285156,16.41019630432129,6.042182922363281,24.123191833496094,24.8892879486084,-33.1787223815918,22.055200576782227,1.0675561428070068,11.84782600402832,1.7814520597457886,-1.2297738790512085,-0.5833556056022644,-0.5432470440864563,0.23699727654457092,1.283429503440857,-0.20381151139736176,0.9018700122833252,1.8289176225662231,-1.2239429950714111,0.9176501631736755,1.9303719997406006,-0.6851233839988708,-0.7977348566055298,0.6180338859558105,0.45713573694229126,0.4182395040988922,-0.17534194886684418,1.873979926109314,0.31755325198173523,-0.6679510474205017]},"cellActivationBias":{"rows":20,"columns":1,"weights":[2.8774473667144775,1.1237374544143677,2.250591278076172,-1.2207366228103638,-0.8217456340789795,0.816017210483551,0.9744360446929932,-1.2249804735183716,0.8808009624481201,0.06050572916865349,0.06003850698471069,0.8045947551727295,1.7184655666351318,-1.509116768836975,-0.785490095615387,-1.4096790552139282,0.0754254087805748,-0.7642468810081482,-1.0478639602661133,0.3265352249145508]}},{"inputMatrix":{"rows":20,"columns":20,"weights":[1.3991906642913818,1.9362598657608032,0.6528420448303223,-0.8231141567230225,0.892408549785614,-0.08660463243722916,0.03826220706105232,-0.9558892846107483,1.4319919347763062,1.4455066919326782,0.12356391549110413,0.27249205112457275,0.5534327626228333,-1.5337611436843872,-1.7938193082809448,-0.13361118733882904,0.39142295718193054,1.2371089458465576,0.5226241946220398,0.4384552538394928,8.562032699584961,-2.722752332687378,10.839125633239746,6.529811859130859,1.7838776111602783,6.759422302246094,6.9119672775268555,0.31204429268836975,-7.926764965057373,-4.283206462860107,-13.148329734802246,18.76465606689453,3.037557363510132,2.7970845699310303,1.3243250846862793,-5.778416156768799,4.928503036499023,1.1647449731826782,6.8633341789245605,1.79995858669281,0.35378894209861755,-0.8316922783851624,1.1559679508209229,0.14718861877918243,-1.7345476150512695,0.6220288276672363,0.3448428511619568,-2.1708974838256836,-0.18614524602890015,-0.2996806800365448,-0.508349597454071,0.22589339315891266,0.6673524379730225,0.6961483359336853,-2.0058176517486572,-0.3141549825668335,0.0435945950448513,-0.3113883435726166,1.2706470489501953,0.6024474501609802,-0.7063883543014526,0.927480936050415,-0.19663017988204956,0.28049522638320923,0.5923126339912415,0.6992313265800476,0.6007757782936096,-1.0619826316833496,-0.6598383784294128,-0.1115555614233017,-0.46947818994522095,1.1256827116012573,0.06171582639217377,0.36727374792099,-0.22819966077804565,-0.35578855872154236,0.4980413019657135,1.623483419418335,-0.4746527075767517,0.23376120626926422,0.12405533343553543,-0.42808961868286133,-0.5111284255981445,-0.5735858678817749,2.035454034805298,0.24257440865039825,-1.0092192888259888,3.1770410537719727,0.6799683570861816,1.4123286008834839,-0.3644895851612091,0.6941072344779968,-2.2454397678375244,-1.4500737190246582,1.004410982131958,0.37504684925079346,0.4025712013244629,-1.8187497854232788,-0.09687159955501556,-1.5785558223724365,-2.0654871463775635,-1.3220229148864746,-0.5306673049926758,1.4331800937652588,-1.6195545196533203,0.9419018626213074,1.195976734161377,1.2823035717010498,-0.8546003699302673,-0.8658151626586914,-1.3084542751312256,-0.011440280824899673,-1.5166113376617432,1.4771485328674316,0.6866269707679749,-0.7103489637374878,-2.419496536254883,-1.2301088571548462,1.8225702047348022,0.6379699110984802,4.307852268218994,2.055990695953369,2.3219380378723145,0.3289116322994232,0.9696493744850159,1.8544968366622925,1.1635500192642212,-0.5442682504653931,-0.6333005428314209,-0.10180430114269257,-1.384252667427063,2.3652184009552,0.8835923671722412,-1.2032893896102905,-1.8448994159698486,-0.6479023098945618,0.6331684589385986,0.9707705974578857,1.496399998664856,-0.18531590700149536,-0.7794703245162964,-0.9446566104888916,-1.0752136707305908,0.30874595046043396,0.6587284207344055,-0.34701600670814514,0.25391924381256104,0.5936494469642639,-0.4298098683357239,-0.015822317451238632,-2.3192195892333984,1.3545222282409668,-0.5461211204528809,-0.06360858678817749,0.7765860557556152,-0.7566545009613037,-0.45028895139694214,-0.08483532816171646,-0.606138288974762,-0.09607755392789841,2.8903207778930664,3.4216952323913574,1.3745297193527222,-0.2692888081073761,1.3887231349945068,0.45860806107521057,0.4306015074253082,-1.517442226409912,1.1417499780654907,0.9548290967941284,-0.25400495529174805,0.903044581413269,0.5037399530410767,-2.1590373516082764,-2.6207292079925537,-0.16916891932487488,0.5667784214019775,0.4947347640991211,0.843625545501709,0.40564045310020447,-2.7017452716827393,0.1408063769340515,-1.6383355855941772,0.7634586691856384,0.9505918025970459,-1.6837207078933716,-1.5499041080474854,-0.4059998095035553,0.5630975365638733,0.7312403917312622,-0.06994237750768661,-0.032671280205249786,-1.9102516174316406,-1.0302371978759766,-0.2695676386356354,0.8587008118629456,-0.9969523549079895,-0.69547039270401,-0.4257684648036957,-0.8076026439666748,0.17410443723201752,-0.7350433468818665,0.2125592678785324,1.0941723585128784,0.389373779296875,0.763355016708374,0.944379985332489,0.233534038066864,-1.3895272016525269,-0.6922017335891724,-1.5456622838974,2.7939300537109375,-0.013693287037312984,0.534723162651062,0.4422607123851776,-0.4143972396850586,0.5831198692321777,0.7590254545211792,0.07298347353935242,0.21859559416770935,11.338534355163574,-4.831092357635498,11.951460838317871,7.037398815155029,2.4470677375793457,12.277682304382324,8.502041816711426,0.43015965819358826,-11.1381196975708,-6.8316216468811035,-15.560484886169434,20.441007614135742,3.8088812828063965,4.290322303771973,2.2323548793792725,-6.333064079284668,6.083926200866699,1.818678617477417,7.483527660369873,2.367176055908203,1.2149689197540283,0.7920657992362976,-1.1709262132644653,0.23193088173866272,-0.16360923647880554,-0.09556159377098083,-0.1886528730392456,-0.4253656268119812,0.30234459042549133,1.5135047435760498,-1.210613489151001,-0.2798183560371399,-4.231856822967529,-0.3861916959285736,-0.13963037729263306,1.0018833875656128,-0.29843670129776,2.6903278827667236,-1.0724730491638184,-0.26831793785095215,2.4553110599517822,-2.574345111846924,-0.11852498352527618,-0.1310887634754181,-2.168522834777832,0.49786344170570374,-1.0817333459854126,-2.1677932739257812,1.1244362592697144,0.0892266109585762,2.557088613510132,-1.0937269926071167,3.3443689346313477,0.7001749873161316,0.37225744128227234,0.6475499868392944,0.6344393491744995,1.5612103939056396,-0.5234465003013611,0.9819914698600769,-0.44272559881210327,0.919735848903656,1.3605843782424927,-4.381521701812744,3.8738324642181396,-0.28115415573120117,-0.5442098379135132,-0.3018895387649536,1.4519530534744263,0.2967892289161682,1.1183034181594849,-0.39015713334083557,-1.3706309795379639,-0.7947513461112976,-0.25121209025382996,0.6045211553573608,-1.3106294870376587,4.2132697105407715,0.1463496834039688,-2.015918016433716,10.290609359741211,-3.604649305343628,13.185516357421875,7.375974655151367,2.240321397781372,9.97069263458252,7.488211154937744,0.39770516753196716,-10.154929161071777,-5.829252243041992,-15.013215065002441,21.50748062133789,3.4304158687591553,3.24670147895813,1.8659229278564453,-6.561563491821289,5.7738800048828125,1.5300453901290894,8.283331871032715,1.8476974964141846,-0.11354579776525497,0.726818859577179,-0.9641213417053223,-2.4973161220550537,-0.22031137347221375,0.12566590309143066,-1.3637255430221558,2.8824377059936523,1.1575826406478882,-0.08961818367242813,0.19110457599163055,1.1858806610107422,-0.2860892415046692,0.5286058783531189,-0.17489634454250336,0.7511458992958069,1.2148504257202148,1.1073704957962036,0.3722093403339386,1.3316760063171387,-1.3822258710861206,0.6140847206115723,0.5637484788894653,2.2638087272644043,1.4952048063278198,1.28641939163208,1.9236544370651245,-0.15137910842895508,-1.849996566772461,-1.0303436517715454,-2.175784111022949,2.6579136848449707,1.078911542892456,1.1998251676559448,-0.791511058807373,-1.952052354812622,1.8080278635025024,1.562293529510498,0.8852614760398865,1.1057395935058594,-0.014661656692624092,2.1246557235717773,-0.4346328377723694,-1.0527071952819824,-1.2377361059188843,0.3227609395980835,0.4496389925479889,-1.0263068675994873,0.4275798201560974,-0.5215399861335754,-0.17574067413806915,-0.7119866609573364,0.1422373354434967,-0.4386718273162842,-1.258392572402954,-0.1136305034160614,0.1668027639389038,-1.5066039562225342,1.1040971279144287,0.6431536674499512,7.527332782745361,-3.3330941200256348,7.134703636169434,4.520525932312012,1.1325862407684326,9.741565704345703,3.097419261932373,0.7691553831100464,-4.263119697570801,-4.1047515869140625,-11.323454856872559,13.940413475036621,2.5055012702941895,3.4396779537200928,1.9236994981765747,-4.2666096687316895,4.25868558883667,1.1026039123535156,4.4218339920043945,1.5343226194381714]},"inputHidden":{"rows":20,"columns":20,"weights":[-0.48711371421813965,-0.7325481176376343,-7.070856094360352,10.567127227783203,12.849115371704102,0.45967671275138855,0.6028454899787903,8.649951934814453,-0.5877916812896729,-11.400545120239258,-10.835469245910645,0.7361065149307251,-0.10305535048246384,11.763328552246094,-2.3702504634857178,0.7760114669799805,12.085699081420898,12.328592300415039,0.7603554725646973,10.555493354797363,0.15882866084575653,2.9039483070373535,-48.04574203491211,50.68851852416992,46.96662139892578,0.6731100678443909,-0.0867074579000473,41.97884750366211,0.07613568753004074,-57.213897705078125,-55.063072204589844,-2.218783378601074,0.35383865237236023,69.15162658691406,-24.685548782348633,-2.725848913192749,64.8996810913086,49.50589370727539,-0.6431401371955872,50.0823974609375,-0.8285235166549683,0.058148521929979324,-7.786791801452637,-1.577821969985962,2.844291925430298,-3.2170004844665527,0.7755513787269592,-2.5956785678863525,-1.1141130924224854,1.8350082635879517,0.7866064310073853,-0.1635153442621231,1.5975838899612427,-1.4029914140701294,0.9595992565155029,0.2685006558895111,-2.367237091064453,0.052985452115535736,1.9862380027770996,-0.48552364110946655,0.09443746507167816,1.5401887893676758,-29.57335090637207,-2.3517706394195557,-7.752134323120117,-1.422767162322998,-0.18076352775096893,-8.607420921325684,0.13638047873973846,-4.968714237213135,-0.8028030395507812,-1.215743899345398,-0.044911742210388184,17.835535049438477,6.897130966186523,-1.4788250923156738,13.56082820892334,-4.2441253662109375,-2.1301841735839844,4.804203033447266,-0.9220631718635559,-4.1986002922058105,-5.279727935791016,-0.4495408236980438,-0.3534819781780243,-5.979125022888184,0.8634899854660034,-0.9079101085662842,-0.9972245097160339,0.9889771342277527,1.2655681371688843,1.5846116542816162,-1.7131305932998657,0.5597140789031982,5.43272066116333,2.3148131370544434,-1.5413564443588257,-1.4633253812789917,2.8329288959503174,-1.647006630897522,-0.4659903943538666,-1.897173523902893,2.6103615760803223,-2.612138032913208,-0.6119034290313721,2.9805727005004883,0.2543533146381378,-4.644754886627197,-0.003632987616583705,3.00879168510437,2.3848626613616943,1.4371768236160278,0.8526886701583862,-1.5882796049118042,-0.9665806889533997,1.8326579332351685,-2.8570244312286377,-2.59096097946167,2.0065243244171143,-0.33170264959335327,-0.5524997115135193,-0.0823422446846962,-20.944171905517578,35.070430755615234,31.688343048095703,0.5868661403656006,0.5904187560081482,25.750812530517578,-0.6728804707527161,-41.749717712402344,-38.68350601196289,0.19898247718811035,0.0016203406266868114,38.29766082763672,-9.82650375366211,0.1179366335272789,39.149635314941406,33.62373733520508,0.6674788594245911,35.25459289550781,0.0014700001338496804,1.3693432807922363,-40.65018081665039,3.883790969848633,-2.933786630630493,-0.31361913681030273,-0.04462004825472832,-16.77415657043457,-0.1405038684606552,-11.934369087219238,-8.56493854522705,-1.0624439716339111,0.23852437734603882,26.161544799804688,14.879569053649902,-1.3302258253097534,19.595458984375,0.8290016651153564,-0.1354040950536728,7.14978551864624,-0.5980138778686523,-0.5339201092720032,-12.246142387390137,27.751901626586914,26.075990676879883,0.6126044988632202,0.6420088410377502,20.69983673095703,-0.7308053374290466,-24.706647872924805,-29.039640426635742,0.5427786111831665,-0.29015690088272095,24.81842613220215,-7.383038520812988,0.5617572665214539,26.183616638183594,27.314495086669922,0.5707172155380249,23.602783203125,-0.27011021971702576,0.7676137089729309,-32.48781204223633,7.4157185554504395,9.900530815124512,0.2796647846698761,0.38519400358200073,3.67220139503479,-0.8637908697128296,-9.631332397460938,-5.594781398773193,-0.644844651222229,-0.5766157507896423,14.325291633605957,1.189621925354004,-0.7547637820243835,13.474191665649414,4.951716423034668,0.9284176826477051,4.582427978515625,-0.015427221544086933,1.5000183582305908,-32.79197692871094,17.61271858215332,20.61546516418457,0.6279867887496948,0.00880893599241972,14.62049388885498,-0.031341712921857834,-24.770915985107422,-22.0869197845459,-1.1774719953536987,0.3465981185436249,37.599273681640625,-6.991951942443848,-1.3959660530090332,34.80791091918945,17.21095848083496,-0.11518112570047379,17.157941818237305,0.27355340123176575,3.9468374252319336,-51.15189743041992,53.7365837097168,46.6363410949707,0.9862891435623169,-0.23289549350738525,43.92902374267578,0.3631151020526886,-61.93492889404297,-57.80328369140625,-3.083651065826416,0.2042991816997528,72.12053680419922,-25.469274520874023,-3.736628770828247,68.73274230957031,52.15238952636719,-0.8010727167129517,54.9696044921875,-0.4290785491466522,0.3599787652492523,-1.6252624988555908,0.5447306632995605,-0.528150737285614,1.2980769872665405,0.22109054028987885,1.7285622358322144,0.24115663766860962,-0.9027571082115173,-0.15496651828289032,0.247359037399292,-0.28664666414260864,-4.045704364776611,1.570143222808838,0.240264430642128,2.121878147125244,-3.1274235248565674,2.04555606842041,-0.3044535219669342,-0.29982855916023254,-1.68802809715271,-8.667291641235352,-0.5743823051452637,1.7064800262451172,-3.12967848777771,0.6160759925842285,-2.5417633056640625,-0.5019441843032837,-0.6641995310783386,0.7721492052078247,2.0132360458374023,0.4303240478038788,1.763862133026123,3.071787118911743,0.6231576204299927,-0.6842385530471802,0.3369438350200653,-1.823926329612732,-1.662494421005249,-0.456261545419693,-1.1489654779434204,2.1426665782928467,-0.00961384642869234,1.5949662923812866,-0.32671552896499634,0.3308463990688324,0.7984991669654846,-0.5371124744415283,3.889603853225708,1.8082283735275269,0.37948763370513916,-2.5358753204345703,0.5112513899803162,-0.5000849962234497,-1.8661072254180908,-2.7869999408721924,1.2236829996109009,1.3958183526992798,0.2830051779747009,0.12701183557510376,3.344768762588501,-50.485652923583984,52.360591888427734,48.642459869384766,1.1096233129501343,-0.02707347646355629,43.040565490722656,-0.10106495767831802,-60.38391876220703,-56.685455322265625,-2.505274772644043,0.5006759166717529,70.1708755493164,-24.920795440673828,-3.2244713306427,66.35347747802734,51.00802230834961,-0.4103114604949951,52.36674118041992,-0.8930622339248657,-3.425748825073242,-7.109549045562744,-0.2076762318611145,4.165586471557617,-0.19422022998332977,1.0227482318878174,0.6910687685012817,-1.2269113063812256,-0.9146468043327332,0.7812948226928711,2.1117403507232666,5.532841682434082,2.5643234252929688,5.141919136047363,1.766701579093933,4.984130382537842,0.0017606046749278903,4.408067226409912,-1.57860267162323,0.08171319961547852,1.759756326675415,-33.16903305053711,-2.4582622051239014,-10.478565216064453,-0.6829934120178223,-0.17479759454727173,-12.102432250976562,0.011066960170865059,-6.279603481292725,-1.299603819847107,-1.572471261024475,0.20973388850688934,18.86365509033203,9.581807136535645,-1.8530086278915405,15.432896614074707,-5.556581974029541,-0.19067689776420593,4.9690632820129395,-0.5729988217353821,-1.5738866329193115,0.7489396929740906,-1.3074054718017578,-0.3463312089443207,1.2409307956695557,0.5730479955673218,-1.4186224937438965,-0.5289227962493896,2.6121842861175537,1.6590059995651245,1.34569251537323,-0.011722922325134277,-0.800858199596405,1.504783272743225,1.2551090717315674,-0.6890628337860107,-1.5350098609924316,0.8761003613471985,-0.904790461063385,0.4072152078151703,4.658016204833984,-49.876708984375,48.73768615722656,38.6379508972168,0.8729252815246582,-0.5344969034194946,39.59355545043945,0.5769694447517395,-57.404232025146484,-52.50823974609375,-3.9030323028564453,0.2954603433609009,64.4775390625,-20.661298751831055,-4.460831642150879,62.85481262207031,47.27635192871094,-1.0761563777923584,49.64994430541992]},"inputBias":{"rows":20,"columns":1,"weights":[-1.6198761463165283,-0.3549657464027405,2.362743854522705,-0.24720247089862823,1.2787343263626099,-2.2466378211975098,-0.7490249872207642,-1.3470649719238281,-0.0982169508934021,-2.810117244720459,-1.560928225517273,-0.2028191089630127,0.1524556428194046,0.2832769751548767,1.4163209199905396,-0.5288730263710022,-2.1416454315185547,-0.5770074129104614,-2.0652670860290527,-0.31402814388275146]},"forgetMatrix":{"rows":20,"columns":20,"weights":[0.5163353085517883,0.007419787347316742,0.2231922745704651,-0.21436858177185059,-0.116226427257061,0.5545803904533386,0.6974307894706726,-0.20877240598201752,0.21151593327522278,0.17665168642997742,-0.1547013372182846,0.19269539415836334,0.1388126015663147,-0.0820649191737175,-0.12181363254785538,-0.022610673680901527,0.09093748033046722,-0.0791657418012619,0.30153173208236694,0.603613018989563,0.7207062840461731,0.6028961539268494,-0.21596936881542206,0.7754729986190796,0.21508459746837616,-0.20282012224197388,0.33411461114883423,-0.1686321198940277,-0.056269168853759766,0.5262995958328247,-0.027165664359927177,0.343502938747406,-0.24248304963111877,-0.6684815883636475,-0.6899265050888062,-0.053762540221214294,-0.4259456396102905,0.36529579758644104,0.5815892815589905,0.45590880513191223,-6.628516674041748,-11.880374908447266,1.5496426820755005,6.74905252456665,-7.776651382446289,5.91009521484375,6.257496356964111,8.698212623596191,-6.815583229064941,-12.325395584106445,-4.76876163482666,4.669487476348877,-0.32094427943229675,12.654195785522461,12.031688690185547,-5.248741149902344,1.8760794401168823,-7.895898342132568,3.1703426837921143,-0.3303021490573883,-0.1656411737203598,0.21865591406822205,1.7657043933868408,0.23354879021644592,-0.8732392191886902,0.251350462436676,-0.3284381330013275,-1.1721339225769043,1.0181876420974731,1.3551470041275024,-0.7056697010993958,-0.29243943095207214,2.0416247844696045,-1.447601556777954,-2.086491823196411,-0.4130459129810333,0.2103041559457779,1.9061181545257568,0.970571756362915,1.4793092012405396,0.9483174681663513,-0.9541122317314148,-1.3065760135650635,-0.252908855676651,2.0204901695251465,-0.49348071217536926,0.23783205449581146,5.02443265914917,0.8042951226234436,0.21454276144504547,3.2885873317718506,-1.3910096883773804,-1.8084080219268799,-1.2030097246170044,4.0997819900512695,0.432363897562027,-3.1520071029663086,1.1832653284072876,1.1406476497650146,0.24628311395645142,1.0759220123291016,-0.6666831970214844,0.6332848072052002,-0.04523029923439026,1.8073705434799194,1.482321858406067,0.9265469312667847,-0.35001158714294434,-0.040297236293554306,-0.8628410696983337,-0.0655616968870163,0.47473299503326416,0.7366147637367249,0.955528974533081,-0.4105135202407837,-0.15172512829303741,1.1039440631866455,2.42852520942688,-0.05324775353074074,1.2015314102172852,0.35760730504989624,0.10256773233413696,0.08497118949890137,-0.09253580123186111,-0.049694906920194626,0.48468101024627686,0.6079148650169373,-0.15865208208560944,0.16854821145534515,0.0015879947459325194,-0.054111599922180176,0.147899329662323,0.15962493419647217,-0.007248342502862215,-0.16303128004074097,0.04953552037477493,0.08588776737451553,-0.1879957616329193,0.29327425360679626,0.6082724928855896,-0.4038120210170746,-2.133132219314575,0.12952789664268494,-1.233818769454956,1.1715869903564453,1.6871821880340576,1.3107340335845947,1.759701132774353,-0.7494972348213196,-0.055124878883361816,-2.1448402404785156,1.0630145072937012,-0.8724598288536072,0.2917447090148926,2.0019938945770264,-0.9492261409759521,0.7054063677787781,1.5633658170700073,1.5044914484024048,-1.7687689065933228,0.3568251430988312,-0.16006314754486084,0.0395902656018734,-0.14828826487064362,-0.05783072113990784,0.6163661479949951,0.4880295395851135,-0.09658553451299667,0.07649320363998413,-0.02873113937675953,-0.040327783674001694,0.15027841925621033,0.14099621772766113,0.10534726828336716,0.051094792783260345,0.05976574867963791,0.013159245252609253,-0.25497007369995117,0.34770506620407104,0.4310050308704376,5.995406627655029,4.253575325012207,1.258547306060791,-2.5124380588531494,3.3670945167541504,-2.0999927520751953,-1.057403326034546,-2.5832552909851074,2.1374545097351074,3.9744913578033447,3.0163447856903076,-1.859796404838562,3.9072225093841553,-3.9094879627227783,-4.024306774139404,1.4620333909988403,1.748803734779358,3.4170315265655518,0.2818835377693176,3.2744150161743164,4.51456356048584,0.8597560524940491,3.7740676403045654,1.655665636062622,0.4013344943523407,0.9115445017814636,1.109751582145691,-0.5429462194442749,-0.6759781837463379,-0.0833907499909401,-1.7940956354141235,3.5205793380737305,0.46203064918518066,-0.34805792570114136,-1.0590327978134155,-0.6830737590789795,0.39359310269355774,-0.08866456151008606,2.094964027404785,1.3277236223220825,0.7009996175765991,0.8067800402641296,-0.1331918090581894,0.6378810405731201,0.2155410200357437,-0.286369264125824,0.45408982038497925,-0.3323209583759308,0.12660686671733856,0.6748625636100769,0.03321775048971176,0.15664172172546387,-0.15903237462043762,-0.7327147722244263,-0.9504027962684631,0.10539603978395462,-0.33108261227607727,0.4932163655757904,0.5210957527160645,0.6962113380432129,0.540152907371521,0.7528923749923706,-1.2253636121749878,-0.10460852086544037,0.6991733908653259,-0.06538847088813782,-0.3260249197483063,-0.6371313333511353,0.8545519113540649,0.8933248519897461,0.22955283522605896,-0.8300875425338745,-0.7101520895957947,-0.784883439540863,-1.424307107925415,0.7231698036193848,-0.5845131874084473,0.5691247582435608,-0.9751012325286865,-0.7092530131340027,-1.250596523284912,-2.8379223346710205,-4.820981979370117,5.1339030265808105,-2.442186117172241,-3.0812199115753174,6.123074531555176,5.033583164215088,-4.379056453704834,-3.474055290222168,-0.1480039656162262,-0.40483221411705017,2.7614188194274902,3.2309963703155518,3.0740480422973633,-2.80496883392334,-0.2855979800224304,-3.196420431137085,4.701580047607422,9.301908493041992,0.8653870820999146,0.344889372587204,3.1501598358154297,-2.731659173965454,3.25264048576355,1.1593410968780518,-0.1265413612127304,-1.2276957035064697,0.42894452810287476,-0.07873828709125519,0.08388376235961914,0.339041531085968,-0.27510565519332886,0.0769151896238327,0.5967028737068176,0.3706497848033905,0.6632631421089172,1.9663861989974976,-0.0154044134542346,-2.420574903488159,0.9045778512954712,0.6765056848526001,-0.14512263238430023,0.772459089756012,0.36481142044067383,-0.3542700409889221,0.2712385356426239,-0.2416902333498001,0.09609150141477585,0.5285879373550415,0.06252653151750565,0.27147772908210754,-0.18414577841758728,-0.5367451906204224,-0.8049411177635193,0.05543483793735504,-0.48286956548690796,0.2657223343849182,0.6140621900558472,0.531285285949707,3.7510952949523926,0.2535761594772339,6.625020980834961,1.9498599767684937,-1.0477434396743774,0.5869243741035461,1.6766464710235596,0.30473682284355164,-0.17412309348583221,-1.3297704458236694,-3.585606575012207,4.420553684234619,1.1349927186965942,1.092604398727417,0.3650780916213989,-1.258579134941101,1.383858561515808,-1.6321908235549927,3.588724136352539,0.3734046220779419,0.19228196144104004,-0.7438731789588928,-3.6080105304718018,2.1495344638824463,0.13122430443763733,-2.731577157974243,1.1086020469665527,1.066872477531433,-0.36197879910469055,0.524029552936554,-1.1461050510406494,-1.2569324970245361,-3.27276611328125,-0.33603498339653015,1.1119667291641235,-0.7542915940284729,-0.7866492867469788,0.17511460185050964,1.1788601875305176,-1.9599720239639282,0.9284085035324097,0.5361970663070679,0.32329830527305603,-0.4391562342643738,0.16221104562282562,0.421573668718338,0.5200120210647583,-0.729625403881073,0.09397867321968079,-0.3093318045139313,-0.03772400692105293,0.1045895516872406,0.28245100378990173,0.102726511657238,-0.5697541832923889,-0.17846663296222687,0.39648446440696716,0.3815571367740631,0.6397491097450256,1.1042206287384033,2.682711362838745,2.7394580841064453,0.6515120267868042,-6.412380695343018,1.10935640335083,-3.3450095653533936,-1.9663432836532593,1.2555646896362305,2.7459864616394043,3.426908016204834,2.6617469787597656,-3.7924885749816895,-1.0862927436828613,-3.7249643802642822,-0.5326544046401978,3.6516730785369873,-2.574154853820801,4.158750534057617,-1.5642852783203125,4.946521282196045]},"forgetHidden":{"rows":20,"columns":20,"weights":[-0.5714541673660278,-0.5816689133644104,-0.5857893824577332,-0.6206735968589783,0.6448252201080322,0.44564390182495117,0.5355403423309326,-0.6630795001983643,-0.5848029255867004,0.5931512117385864,0.623630702495575,0.5623947978019714,0.5437366366386414,-0.4435681998729706,0.5675079822540283,0.6097546815872192,-0.4507763683795929,-0.597922146320343,0.5542771816253662,-0.6033434867858887,-0.12902572751045227,0.04279023036360741,-11.314135551452637,4.712807655334473,3.839834213256836,0.23021049797534943,0.14262719452381134,2.9825005531311035,-0.2019498348236084,-7.8051862716674805,-5.817812442779541,0.10698390752077103,-0.2686898410320282,13.894322395324707,-0.5089900493621826,-0.15940076112747192,11.325263977050781,4.271088600158691,0.009356842376291752,6.40853214263916,-0.5407189130783081,-2.4420080184936523,10.16297435760498,-5.732466220855713,1.673471212387085,0.13967275619506836,0.3772905766963959,-8.965019226074219,-0.24870651960372925,8.667924880981445,6.4101128578186035,2.1080198287963867,5.913069725036621,-15.583454132080078,-1.637725591659546,2.1998586654663086,-10.876558303833008,-7.075506687164307,0.28511032462120056,-11.561092376708984,-0.08223199099302292,0.14909212291240692,-21.43160629272461,1.0753949880599976,-6.910782814025879,3.5297324657440186,0.18274308741092682,-13.959453582763672,-0.1975022703409195,-2.135529041290283,-2.8843350410461426,0.05267971009016037,-0.35655686259269714,11.926568984985352,8.242022514343262,-0.27856698632240295,2.9322190284729004,-1.3843159675598145,-0.6541910171508789,-0.20734861493110657,-0.619044840335846,-1.4708749055862427,-0.5519413352012634,1.687681794166565,0.7533217072486877,-0.3716200590133667,0.6000878810882568,0.8962281942367554,-0.10260984301567078,-1.147627830505371,-1.0187656879425049,1.3819806575775146,2.3190855979919434,3.0318033695220947,-3.146885633468628,1.3250277042388916,0.29611045122146606,1.8280023336410522,0.8749597072601318,1.7987010478973389,-0.5053850412368774,-1.1701794862747192,1.777040719985962,-1.547781229019165,0.945340633392334,1.1251033544540405,0.5278013348579407,2.0169897079467773,-0.2719112038612366,1.45144784450531,1.1004024744033813,1.0701707601547241,1.3344894647598267,-2.396698236465454,0.33309951424598694,0.9257208108901978,-2.17279052734375,-0.7966716885566711,0.059205688536167145,-0.7204411029815674,-0.5277907252311707,-0.6243779063224792,-0.6571602821350098,-0.652003288269043,0.5927281975746155,0.5514440536499023,0.6598010659217834,-0.7284689545631409,-0.5165720582008362,0.6062963604927063,0.7116992473602295,0.7036561369895935,0.5811966061592102,-0.47052398324012756,0.624053955078125,0.6968661546707153,-0.41440337896347046,-0.6034969687461853,0.5596672296524048,-0.5651317238807678,-0.12578099966049194,-0.45979753136634827,-23.88301658630371,-3.0223941802978516,-6.104459285736084,1.228851318359375,-0.024778736755251884,-8.388703346252441,-0.256185919046402,-0.2138238400220871,1.9318801164627075,-0.02744441293179989,-2.280856132507324,5.826528072357178,3.1399898529052734,-0.19682557880878448,4.314757347106934,-4.299370288848877,1.0553817749023438,-1.4519028663635254,-0.5407583117485046,-0.7467480301856995,-0.6764331459999084,-0.7139818668365479,0.5161281824111938,0.6141485571861267,0.6718313694000244,-0.7173521518707275,-0.5150051116943359,0.5900397300720215,0.7362211346626282,0.7204419374465942,0.6027425527572632,-0.41055387258529663,0.5812548398971558,0.6889878511428833,-0.4924124479293823,-0.632935643196106,0.5635927319526672,-0.6531423330307007,-0.2597462236881256,1.0792778730392456,-11.537817001342773,4.991992473602295,7.507518291473389,1.542403221130371,0.1993478536605835,11.207387924194336,-0.3600931465625763,-7.144806385040283,-5.692831993103027,-0.7636651396751404,-1.5913162231445312,9.816924095153809,-1.627599835395813,-0.9659364223480225,8.925939559936523,9.380770683288574,0.9527658224105835,6.541439533233643,-0.15528768301010132,0.9686979651451111,-30.913785934448242,35.03881072998047,30.21324348449707,0.17895574867725372,0.22770743072032928,23.18797492980957,-0.2969118356704712,-36.949623107910156,-37.10085678100586,-0.5813349485397339,-0.1039881631731987,45.07415771484375,-7.125134468078613,-0.7953620553016663,39.254024505615234,32.817935943603516,0.17550060153007507,33.77039337158203,-0.12460334599018097,0.04204564914107323,-8.111931800842285,4.03053092956543,3.9580936431884766,0.07934485375881195,0.08404312282800674,2.974818229675293,-0.2716163694858551,-6.118166446685791,-5.033690929412842,0.2537703216075897,-0.19075419008731842,10.858654022216797,-0.6150592565536499,0.019870277494192123,8.212599754333496,3.768228530883789,0.02786443568766117,4.829517841339111,-0.7986101508140564,-0.21167077124118805,-0.2042856514453888,-0.3177546560764313,0.22487160563468933,0.6911110877990723,0.916283130645752,-0.3215640187263489,-0.866271436214447,1.033448576927185,0.4588266611099243,-0.00020155776292085648,0.14240097999572754,-1.3156827688217163,0.936427116394043,0.23588992655277252,-1.4657738208770752,-0.32181164622306824,1.1299370527267456,-0.12572762370109558,-0.6673809289932251,-1.3073941469192505,3.452486991882324,-8.849788665771484,6.682378768920898,4.129784107208252,0.6282908320426941,-7.244137763977051,-0.7589449882507324,10.72093677520752,9.904505729675293,1.1967003345489502,10.945831298828125,-2.4287877082824707,1.1490672826766968,1.304937720298767,-1.9134995937347412,-11.482412338256836,0.6799463629722595,-3.080291986465454,-0.5290674567222595,-0.6155847311019897,0.6087344884872437,-1.197259783744812,-0.7470710873603821,-0.45499953627586365,0.493833988904953,0.6543405652046204,-0.3686281740665436,0.07167211174964905,1.674101710319519,0.47526025772094727,0.7328133583068848,-1.2965117692947388,0.5260871648788452,0.45219817757606506,-0.43485355377197266,-0.5200299024581909,-0.36817672848701477,-0.43159908056259155,-0.06929510086774826,0.12195321917533875,-10.312394142150879,4.5228166580200195,3.869152545928955,0.1307346522808075,0.2341085523366928,2.992952823638916,-0.31198668479919434,-7.259259223937988,-5.442683696746826,-0.003655848791822791,-0.2485179752111435,14.048007011413574,-0.5848273634910583,-0.11227664351463318,11.240616798400879,4.05974006652832,0.08791150152683258,6.543842315673828,-0.5781285762786865,1.9026321172714233,-25.05186653137207,37.26554870605469,34.391841888427734,-0.3078393340110779,0.5469478964805603,28.56831169128418,-0.5862832069396973,-22.574356079101562,-41.96818161010742,-0.93003910779953,0.8968923687934875,20.516578674316406,-9.396818161010742,-1.6661853790283203,14.392147064208984,36.89756393432617,0.9162529706954956,14.598499298095703,-0.05934382230043411,0.4250601828098297,-26.21067237854004,0.38892126083374023,-5.36027193069458,-0.3721007704734802,-0.008554011583328247,-14.936016082763672,-0.23038771748542786,-3.789166212081909,-2.42788028717041,-0.031939540058374405,-0.5705348253250122,13.675108909606934,6.855395793914795,-0.22635814547538757,7.709969997406006,-1.2461909055709839,-0.020055115222930908,0.7060300707817078,-0.608997106552124,-0.641784131526947,-0.3832317888736725,-0.36322855949401855,0.8614164590835571,0.6601345539093018,0.5981795191764832,-0.5045336484909058,-0.6255598664283752,0.7771631479263306,0.6249200105667114,0.6956837773323059,0.5632490515708923,-0.4031587243080139,0.7589299082756042,0.6226633191108704,-0.5410990715026855,-0.4126404821872711,0.41152989864349365,-0.5830180048942566,-0.1355479210615158,0.13567814230918884,-4.777925968170166,4.504382610321045,6.693217754364014,0.13332599401474,0.48453810811042786,6.085142135620117,-0.3816439211368561,-4.005619525909424,-4.602713584899902,0.20488668978214264,3.1548614501953125,8.470370292663574,-5.033573627471924,-0.0606209933757782,8.168366432189941,6.099875450134277,-0.07829982787370682,4.853866100311279]},"forgetBias":{"rows":20,"columns":1,"weights":[0,0,0,0,0,0,0,0,0,0,0,0,0,0,0,0,0,0,0,0]},"outputMatrix":{"rows":20,"columns":20,"weights":[0.2068823128938675,2.139829158782959,-0.7666168212890625,-1.331665277481079,0.9720464944839478,-1.1435359716415405,-1.5639463663101196,-0.6136193871498108,2.5791337490081787,2.5708067417144775,1.1009631156921387,-0.9855712056159973,-0.5713278651237488,-2.68399715423584,-1.4700886011123657,1.9549514055252075,-0.9923378229141235,1.7513340711593628,-0.8712638020515442,0.9769003987312317,0.14884376525878906,0.3610271215438843,-2.1308650970458984,-3.426440715789795,3.2678799629211426,-1.8996694087982178,-3.8451309204101562,-1.4015096426010132,3.728806972503662,3.397463798522949,4.86718225479126,-2.9370968341827393,-1.5448393821716309,-3.190230369567871,-1.3599659204483032,4.76202917098999,-2.1187026500701904,4.406780242919922,-3.220913887023926,0.48704615235328674,0.4762999415397644,-2.9158732891082764,1.7637749910354614,0.16926021873950958,0.12834610044956207,2.9493227005004883,1.5006496906280518,0.7705681920051575,-2.2851970195770264,-2.5596702098846436,-1.3887938261032104,1.486097812652588,1.0543090105056763,2.782552480697632,1.8088347911834717,-1.6132816076278687,0.21113382279872894,-2.0444374084472656,0.023913178592920303,-0.7370920181274414,-0.5074392557144165,-0.022851908579468727,-1.8193471431732178,-1.7865298986434937,-0.6607766151428223,-0.6584957838058472,0.8907510638237,-0.7105260491371155,0.6479648947715759,0.9673670530319214,3.0930230617523193,-1.335750699043274,-0.9571775197982788,-0.8154459595680237,-0.5329281687736511,1.1917964220046997,-2.0771992206573486,-0.2481050342321396,-0.11504925042390823,0.731937825679779,0.9652953147888184,-0.47370198369026184,0.4196864366531372,1.8565229177474976,-1.1520445346832275,1.7475192546844482,1.2241222858428955,1.739324927330017,-1.680834412574768,-1.512026071548462,-1.7466578483581543,1.5493909120559692,0.3223124146461487,1.0878711938858032,1.7011674642562866,-2.1384384632110596,0.589765727519989,-2.288060188293457,2.4242894649505615,-2.441372871398926,-0.1281840056180954,-0.024861592799425125,1.5509498119354248,0.4266873896121979,-0.15259994566440582,3.8520965576171875,1.3660775423049927,-0.43329864740371704,-0.6901475787162781,-1.0749080181121826,-1.7605400085449219,2.2691810131073,-0.8985661864280701,1.49371337890625,0.3421926200389862,-0.8397918939590454,-0.39363187551498413,-0.2000122368335724,1.8438669443130493,-4.626496315002441,0.4626796543598175,3.7028980255126953,-1.16764497756958,-1.408246636390686,2.189706325531006,-1.9264929294586182,-2.0518910884857178,-1.0872952938079834,3.3766069412231445,3.7392053604125977,1.6886212825775146,-1.6566011905670166,-1.2875404357910156,-4.69505500793457,-2.694725513458252,1.9066015481948853,-1.0831210613250732,3.1713101863861084,-1.513451337814331,1.0281925201416016,1.1725927591323853,1.0168235301971436,0.5414459705352783,-3.985652446746826,0.6930803060531616,0.14339777827262878,0.5225621461868286,0.554025411605835,0.10313711315393448,0.18329159915447235,0.7180137634277344,-0.6543390154838562,-2.0139622688293457,-0.3798150420188904,-0.020439546555280685,-0.15541252493858337,-1.5080543756484985,1.7418763637542725,0.03897475078701973,1.6449542045593262,0.16756170988082886,3.502112865447998,-1.2311359643936157,-1.5951648950576782,1.549634575843811,-1.5137094259262085,-1.8691798448562622,-0.8605011105537415,3.222381830215454,3.254180431365967,1.5658884048461914,-1.5656862258911133,-1.2737504243850708,-3.9279744625091553,-2.640596866607666,1.8511099815368652,-0.9840731024742126,1.5288878679275513,-1.5362741947174072,1.0164034366607666,0.01575450971722603,-0.38016822934150696,0.1506289690732956,-0.1423281580209732,-0.6004443168640137,-0.04274116829037666,-0.7403510808944702,1.256033182144165,-1.0851173400878906,-0.3847382068634033,0.0848989337682724,0.4674113988876343,1.6600735187530518,-0.3005498945713043,0.5258133411407471,-0.739524781703949,1.1989561319351196,-0.8675275444984436,1.2824128866195679,-1.0739314556121826,0.8074462413787842,0.30667829513549805,0.4571010172367096,-2.209465265274048,1.3623101711273193,0.1555994749069214,0.557611882686615,0.09607840329408646,-0.5357414484024048,0.02865385077893734,0.6227482557296753,0.16225102543830872,0.866193950176239,0.028321310877799988,-0.6758878231048584,-0.22931210696697235,1.0011465549468994,0.12600378692150116,0.619795560836792,-0.006937111262232065,-0.2565390169620514,2.0787360668182373,-2.2976362705230713,-3.0415825843811035,1.8541351556777954,-2.3056528568267822,-4.56935977935791,-2.766676664352417,4.091426849365234,3.6687071323394775,3.81390643119812,-3.1265883445739746,-2.687549591064453,-3.6215662956237793,-1.8990856409072876,4.977679252624512,-2.1659858226776123,3.636995792388916,-4.198207855224609,0.9430966973304749,0.13390611112117767,0.8766859173774719,0.015707453712821007,0.10657276958227158,2.5331320762634277,0.04557868093252182,0.49633219838142395,-0.3943226933479309,-0.5339065790176392,0.6249316930770874,-0.2794328033924103,0.04072965309023857,-2.3372182846069336,0.32537606358528137,-0.31006863713264465,0.5581597089767456,-1.3918951749801636,5.272243976593018,-0.49143120646476746,0.5673168897628784,1.2336435317993164,1.103645920753479,-0.5724670886993408,-0.4773063659667969,-1.1337239742279053,1.2445989847183228,-1.0416898727416992,-0.8107911348342896,1.196698784828186,-0.028693733736872673,0.8673602342605591,0.06567506492137909,-0.36741960048675537,0.8626992702484131,-0.674801230430603,0.8641524910926819,-0.31628015637397766,1.2792770862579346,0.0010091206058859825,1.2315856218338013,0.8056885004043579,-0.33496469259262085,1.7801157236099243,-2.020815134048462,1.0688344240188599,0.5710530877113342,0.868561327457428,-0.4150499701499939,-0.2686236798763275,-0.8660451173782349,-0.016130251809954643,0.8426300287246704,0.711768627166748,0.830238401889801,-0.2627761662006378,-0.3304519057273865,0.9974587559700012,0.709355354309082,1.3276549577713013,1.4269046783447266,-0.05413804203271866,2.3204822540283203,-2.542524814605713,-3.02303147315979,1.8128846883773804,-2.655710458755493,-4.78640079498291,-2.946164846420288,4.309544563293457,3.9647648334503174,3.8573875427246094,-3.540656566619873,-2.7296972274780273,-3.8650012016296387,-2.2745211124420166,4.925623416900635,-2.324587821960449,3.220818042755127,-4.1465373039245605,1.2400861978530884,-0.2259114384651184,-3.6505489349365234,-1.2116756439208984,-0.31103676557540894,-3.100032329559326,0.9107198119163513,0.025411810725927353,1.153114676475525,0.06685084104537964,-1.4990198612213135,-1.1930439472198486,0.7551667094230652,0.012969685718417168,1.7143757343292236,0.916196346282959,-0.04918448626995087,-0.15670469403266907,-0.011784647591412067,0.9076483845710754,-0.4177401661872864,-2.8713481426239014,0.40711936354637146,-0.9735696911811829,-0.07956717908382416,0.20769686996936798,-0.42455291748046875,1.2157952785491943,-0.3059034049510956,0.03586924076080322,0.2898687422275543,0.5066189765930176,-0.9920474290847778,0.15955938398838043,-0.3269331455230713,0.39450591802597046,0.35669785737991333,-2.9332704544067383,0.7325385808944702,2.0898847579956055,-0.2570061683654785,-0.3477589786052704,2.133286476135254,-0.4196062684059143,-0.9409540295600891,-1.0945130586624146,0.0029061262030154467,0.3105543255805969,-0.9918884038925171,0.5753293037414551,-0.30394095182418823,0.06794154644012451,-0.8154769539833069,-0.012095651589334011,-0.5659627914428711,-1.5597574710845947,0.3120948374271393,0.35947588086128235,-1.4988915920257568,0.8294523358345032,1.5069427490234375,0.5619813799858093,-1.136022925376892,3.580134391784668,3.5877442359924316,0.7800244688987732,0.9297821521759033,2.147895097732544,0.7371306419372559,-2.18929123878479,-0.9344602823257446,-5.656044006347656,9.628837585449219,-0.14519160985946655,0.8276514410972595,1.1017853021621704,-2.808992862701416,2.993805408477783,0.8394029140472412,2.051569700241089,-0.1622641682624817]},"outputHidden":{"rows":20,"columns":20,"weights":[-0.5700562596321106,-0.9769222140312195,-1.3531887531280518,-0.259710431098938,1.1013277769088745,0.2687002718448639,0.5182827115058899,-0.2833087742328644,-0.6832965612411499,-1.0513392686843872,-0.16078877449035645,0.8537295460700989,-0.6600885391235352,1.912284016609192,-1.8385392427444458,0.8489280939102173,1.3367161750793457,0.3026006817817688,0.8324416875839233,0.6150252819061279,-0.17869539558887482,-1.9478225708007812,-2.3274033069610596,2.4622251987457275,0.8459924459457397,2.7245712280273438,0.820560097694397,3.495974540710449,-0.604348361492157,-2.8889808654785156,-2.4637250900268555,1.4590951204299927,-3.956071376800537,5.110978603363037,-2.799614429473877,1.2737987041473389,2.637972116470337,3.439955711364746,0.2937411665916443,2.2145917415618896,-0.5815327763557434,0.23671960830688477,-0.8973561525344849,2.705038547515869,1.4167951345443726,0.41372671723365784,0.455270916223526,2.2721972465515137,-0.22044387459754944,-2.1889657974243164,-3.513320207595825,-0.25463196635246277,1.2054316997528076,2.5531084537506104,-0.8205438852310181,-0.16956524550914764,2.063056707382202,2.6468493938446045,-0.1784924566745758,2.411911725997925,-0.3417624235153198,-1.6439539194107056,-1.0393030643463135,1.0676862001419067,-0.4841243028640747,-2.4016213417053223,0.5281519889831543,0.35287147760391235,-0.6170609593391418,-0.434309184551239,-0.9595240354537964,1.3019342422485352,-3.431539535522461,1.8626160621643066,2.7171387672424316,0.9855340123176575,0.5036105513572693,0.724384605884552,-0.20294523239135742,-0.7604441046714783,-0.8820981979370117,-1.5145721435546875,-3.0111401081085205,-0.39091113209724426,0.6912289261817932,-1.3900259733200073,0.8260787725448608,-0.35245636105537415,-0.7959479093551636,-0.72446608543396,-0.00832588691264391,1.3988982439041138,-1.7538403272628784,-0.29160693287849426,-0.4951150715351105,1.326059103012085,0.3638920187950134,-0.05373578146100044,1.7800500392913818,0.9477375745773315,-0.4823099672794342,-0.991849422454834,0.27362075448036194,-2.5324437618255615,-1.4370359182357788,0.6090198159217834,0.44012612104415894,-1.4957528114318848,-0.38926252722740173,2.0866122245788574,1.5130890607833862,0.8325365781784058,0.8504249453544617,-3.128026247024536,0.6594668030738831,0.9916708469390869,-3.452915668487549,-2.3049652576446533,0.1739218682050705,-0.007138270419090986,-0.5778672099113464,-1.2415307760238647,-2.3503644466400146,0.1992528736591339,1.0396218299865723,-0.6916505694389343,0.6536195874214172,0.2726707458496094,-0.726528525352478,-1.5898308753967285,-0.7094518542289734,1.0767382383346558,-1.3144360780715942,3.5224671363830566,-3.9485294818878174,1.1695644855499268,2.8419625759124756,-0.2209438979625702,0.9067738056182861,1.6372785568237305,-0.21585729718208313,-0.7982300519943237,-2.8359549045562744,1.5615208148956299,1.0723514556884766,-3.851961851119995,0.6128567457199097,0.7532151937484741,-0.7607006430625916,-2.511723756790161,-1.9497421979904175,0.9755732417106628,-2.1035232543945312,3.4771673679351807,0.6087003946304321,0.619558572769165,3.0435068607330322,3.0002782344818115,-2.6709506511688232,1.3125287294387817,-0.594154417514801,-1.057327151298523,-2.0645525455474854,-0.27511703968048096,1.4102771282196045,-1.233086347579956,0.6477726697921753,0.12677177786827087,-0.8199669122695923,-0.9508107304573059,-0.22538156807422638,0.9124286770820618,-1.3476368188858032,2.6110758781433105,-4.78948974609375,1.049633502960205,2.2848005294799805,-0.39336857199668884,0.939228892326355,0.8463908433914185,-0.6322474479675293,-0.545245885848999,-3.7550652027130127,1.7084357738494873,4.497107028961182,0.22192777693271637,1.130789041519165,1.1469477415084839,-1.542301893234253,-1.6828596591949463,-1.4044010639190674,0.6396791934967041,0.57810378074646,2.7251102924346924,3.2107489109039307,0.5216782093048096,0.9504384994506836,1.8884950876235962,2.544435739517212,0.8796581029891968,-0.4821036159992218,-1.0225346088409424,-2.989835262298584,1.405703067779541,3.6394009590148926,-1.5526400804519653,0.7045395970344543,3.0226023197174072,-0.9801111221313477,-1.642291784286499,-0.4150961637496948,1.2092201709747314,2.630401849746704,2.5601539611816406,0.8387820720672607,1.0718777179718018,2.0531139373779297,1.8142422437667847,0.6353752613067627,0.4181199371814728,0.011359513737261295,-1.163641095161438,-1.8251628875732422,2.790583372116089,1.9997206926345825,-0.08941984176635742,0.738059401512146,3.6495518684387207,-0.40136075019836426,-3.1093738079071045,-2.631204128265381,1.1622099876403809,-3.421776533126831,5.129913330078125,-3.371504545211792,0.9772952795028687,2.884805202484131,3.5300917625427246,0.02412782981991768,2.3478126525878906,-0.5681265592575073,-0.006501789204776287,-2.11250376701355,-1.366871953010559,-0.1037333533167839,-0.016956085339188576,0.3173162639141083,0.206763356924057,-0.09871099889278412,-0.42387500405311584,-0.45572328567504883,0.2281520515680313,1.803435206413269,-3.703188419342041,0.8679885864257812,0.1957104653120041,1.452788233757019,-4.598304271697998,1.6948022842407227,0.24372969567775726,-0.3734346330165863,-1.6123687028884888,-6.996832370758057,-1.1651321649551392,3.324432611465454,0.1297830194234848,0.49630093574523926,-1.1520040035247803,-0.4933513402938843,0.19239291548728943,0.38961371779441833,1.4149951934814453,1.8601247072219849,-0.1236012801527977,1.8426882028579712,0.88605797290802,-3.517458200454712,-1.902679204940796,0.9290797114372253,-1.68397057056427,-0.534939169883728,-0.27778360247612,-0.4619864821434021,0.4793558716773987,4.335862636566162,-0.4180878698825836,0.39487454295158386,1.8867204189300537,-1.493321418762207,-0.9967352151870728,-0.48612093925476074,0.1648196578025818,-0.606390118598938,1.3977359533309937,0.4795461595058441,0.29685088992118835,-0.37253129482269287,1.0181351900100708,0.098695307970047,0.9896467328071594,-0.05500687658786774,-1.199933409690857,-2.2984273433685303,2.763101577758789,2.639007568359375,0.7644547820091248,0.9343535304069519,3.622819662094116,-0.581164538860321,-3.0849263668060303,-2.698730945587158,1.390036940574646,-3.115138053894043,5.475205421447754,-3.1584084033966064,1.2231676578521729,3.0303025245666504,3.474471092224121,0.27556705474853516,2.3565757274627686,-0.9225788712501526,-1.6426008939743042,-5.720265865325928,0.25479042530059814,4.695354461669922,0.20190812647342682,1.0562909841537476,-0.2349034696817398,-1.2455757856369019,-0.9616770148277283,0.36566784977912903,1.8372039794921875,1.2135521173477173,3.3774638175964355,1.7477830648422241,1.4843318462371826,2.1255950927734375,-0.7652725577354431,2.561617612838745,-0.5711002945899963,-0.3501807153224945,-0.3149999976158142,-5.088107585906982,1.5516225099563599,1.3659783601760864,-3.858079195022583,0.5156524777412415,0.41476666927337646,-0.5771116614341736,-1.5563371181488037,-0.8538734316825867,1.0199668407440186,-1.424562692642212,3.6191940307617188,0.7266396284103394,-1.1010282039642334,1.0436710119247437,2.72995662689209,-1.0909860134124756,-0.5361520648002625,-0.5514801740646362,-1.1975682973861694,1.079647421836853,-1.088009238243103,-0.4360911548137665,0.8869034051895142,0.6348628997802734,-1.0768402814865112,-0.5306615829467773,2.15118670463562,1.474902868270874,1.1242221593856812,0.6958856582641602,-0.9614168405532837,1.597031831741333,1.0113341808319092,-0.6717783212661743,-0.7371821999549866,-0.4458564817905426,-1.3634783029556274,0.26758918166160583,1.2435009479522705,-25.397886276245117,33.0810432434082,35.816017150878906,0.84787917137146,-0.2560833692550659,30.128114700317383,0.11477816104888916,-36.23091125488281,-38.71747970581055,-0.8101570010185242,-0.5272513628005981,41.93798828125,-12.809212684631348,-1.1309354305267334,30.074798583984375,33.49346160888672,-1.7026894092559814,20.12192726135254]},"outputBias":{"rows":20,"columns":1,"weights":[-1.669884443283081,-0.7547689080238342,2.1553945541381836,-0.7310437560081482,1.6332316398620605,-0.10595640540122986,-1.1495996713638306,-2.03666615486145,-0.4480644166469574,-2.716691255569458,-2.4601807594299316,-0.3302232027053833,0.10890097171068192,0.4383350908756256,0.8250118494033813,-0.7401844263076782,-1.9527307748794556,-1.124986171722412,-1.922791600227356,-0.2902109920978546]},"cellActivationMatrix":{"rows":20,"columns":20,"weights":[5.68229341506958,-1.1227704286575317,2.9036061763763428,0.15380319952964783,0.5154606699943542,3.5635132789611816,1.6899136304855347,0.017622893676161766,-1.6729841232299805,-1.2441017627716064,-1.5979052782058716,2.754352331161499,0.8964316248893738,2.4827940464019775,0.42479395866394043,-0.9728559255599976,0.8115555047988892,0.46221187710762024,1.410140037536621,1.450592041015625,3.110809326171875,-0.9672515392303467,3.7596898078918457,0.20854097604751587,0.6139342784881592,1.650583267211914,0.7857330441474915,0.38227447867393494,-1.3922163248062134,-1.3098018169403076,-1.4359314441680908,2.7565176486968994,0.5040600299835205,1.5419069528579712,0.6151303052902222,-0.41410312056541443,0.6377487182617188,0.6685534119606018,0.4844723343849182,0.4794900715351105,-0.29814913868904114,1.7669739723205566,0.34749090671539307,-2.5993757247924805,2.4104321002960205,-1.6586648225784302,-1.107912540435791,-0.7575693130493164,3.2684149742126465,1.7919400930404663,1.2247551679611206,-1.390045404434204,-0.28899648785591125,-1.476853609085083,-0.6158488988876343,0.4744771420955658,-0.9151307940483093,0.7565295100212097,-0.8229194283485413,3.2224864959716797,0.6532962322235107,-0.5563514828681946,1.4096336364746094,-0.20652805268764496,0.3670071065425873,0.5650278925895691,0.29284346103668213,0.41638320684432983,-0.48933956027030945,-0.11931433528661728,-0.5853562951087952,0.9922748804092407,0.142637237906456,0.7938380241394043,0.37392112612724304,-0.11686833947896957,0.29967713356018066,0.4835259020328522,-0.31928500533103943,0.23396924138069153,0.28897517919540405,0.25670304894447327,-0.31390076875686646,1.1792844533920288,-0.7900077104568481,-1.7529042959213257,1.4968093633651733,0.3434528112411499,-2.857318162918091,-0.5094163417816162,0.06664814800024033,1.4876669645309448,-0.6408698558807373,0.7916983366012573,-0.5319704413414001,0.8609558939933777,0.710040271282196,1.375357985496521,-0.32704445719718933,0.6916765570640564,0.9272887706756592,0.23317597806453705,-0.5560643672943115,-0.19546785950660706,-1.0118861198425293,0.08148645609617233,0.3658769726753235,0.8071467280387878,-1.013058066368103,-1.6715632677078247,-0.2175299972295761,0.512489914894104,0.2828785479068756,0.7068015336990356,2.153751850128174,-1.0677605867385864,-0.10286099463701248,-0.25868141651153564,1.1432465314865112,-1.5138404369354248,-14.56131362915039,3.03745436668396,-7.842458724975586,-1.4357025623321533,-1.6785168647766113,-8.05642032623291,-3.6875362396240234,-0.16912436485290527,5.168107509613037,5.189482688903809,3.9453964233398438,-6.816085338592529,-1.7671477794647217,-5.09658670425415,-1.2969081401824951,2.1718294620513916,-1.7647111415863037,-1.3648889064788818,-4.126577377319336,-2.8364944458007812,0.7692806124687195,-0.5570580959320068,1.6814817190170288,-0.08372803032398224,0.4543411433696747,0.6738485097885132,0.35312071442604065,0.43258219957351685,-0.6850439310073853,-0.2668117880821228,-0.7269533276557922,1.2582725286483765,0.06494566798210144,0.9044320583343506,0.4346618354320526,-0.06757649034261703,0.3623194992542267,0.5084377527236938,-0.21088112890720367,0.18472322821617126,13.71141529083252,-3.3987181186676025,7.8790669441223145,1.390426754951477,1.7201141119003296,8.665077209472656,3.9721786975860596,0.18665525317192078,-5.544352054595947,-5.443587779998779,-3.885937213897705,6.694636344909668,1.5630583763122559,4.4340500831604,1.3573732376098633,-2.2578465938568115,1.6761634349822998,1.6038802862167358,4.251986980438232,3.0276360511779785,-0.18627449870109558,0.1704125851392746,-1.0961203575134277,0.21386002004146576,0.02755505032837391,-0.4177175462245941,0.011306277476251125,-0.3439725339412689,0.5407207012176514,0.2682496905326843,0.5737078189849854,-1.1243172883987427,-0.05359162390232086,-0.6288866400718689,-0.38765689730644226,-0.06885546445846558,-0.3926503658294678,-0.0559023842215538,0.08204381912946701,0.1776060163974762,-0.6276186108589172,0.523680567741394,-1.3289889097213745,-0.047940824180841446,-0.45570531487464905,-0.37601223587989807,-0.12080861628055573,-0.49976658821105957,0.38969096541404724,0.06497645378112793,0.3499038517475128,-0.8463953137397766,-0.1058616116642952,-0.7240164279937744,-0.2191254198551178,-0.09789817035198212,-0.12209845334291458,-0.3510698974132538,0.35357508063316345,-0.3132740557193756,-3.65736722946167,1.00226628780365,-4.209130764007568,-0.36240479350090027,-0.7453962564468384,-1.9763035774230957,-0.9006599187850952,-0.43657386302948,1.5993199348449707,1.516784906387329,1.6668140888214111,-3.085118055343628,-0.5035873651504517,-1.7129038572311401,-0.6728618741035461,0.4682672619819641,-0.7655073404312134,-0.7585781216621399,-0.5933277010917664,-0.5950352549552917,14.180068969726562,-7.32075309753418,12.130321502685547,4.20385217666626,5.244308948516846,6.6536383628845215,1.9838287830352783,0.9229998588562012,-15.085525512695312,-12.015756607055664,-13.949316024780273,12.616287231445312,2.0615835189819336,9.719013214111328,3.930675983428955,-1.877183198928833,4.906130313873291,4.258763790130615,6.69017219543457,1.8903889656066895,1.5807889699935913,-0.7918061017990112,0.4081650972366333,-3.0390777587890625,1.137360692024231,1.34153151512146,2.603408098220825,1.0570570230484009,-1.8933393955230713,-1.2514532804489136,-0.04516057297587395,0.13595357537269592,1.387300729751587,2.073643207550049,2.1933813095092773,-2.375943899154663,1.03922438621521,0.8990800380706787,1.9646424055099487,2.922614336013794,-3.6473424434661865,0.38839203119277954,-2.3744380474090576,0.21931694447994232,-0.7784614562988281,-2.5920791625976562,-2.3843021392822266,-0.1765901744365692,1.6762546300888062,-0.16554023325443268,0.7970189452171326,-1.3860889673233032,-0.863599419593811,-0.55060875415802,0.3193589746952057,0.9138397574424744,-0.8305701613426208,-1.014556646347046,-1.0892508029937744,-2.875912666320801,-3.8330769538879395,1.0356816053390503,-4.222330570220947,-0.37130460143089294,-0.7033701539039612,-1.9069108963012695,-0.7768844962120056,-0.4134863018989563,1.6321055889129639,1.717773675918579,1.609134554862976,-3.16145396232605,-0.5351331233978271,-1.740356206893921,-0.6245503425598145,0.385574609041214,-0.7518069744110107,-0.7286465167999268,-0.6414873003959656,-0.577372670173645,0.7133394479751587,-0.3823232352733612,3.058840274810791,0.9080175161361694,-0.6092440485954285,0.9365004897117615,1.4155067205429077,0.7971159219741821,-0.9885725975036621,-0.3911595046520233,-2.07452130317688,2.322594404220581,0.9512134790420532,1.4984937906265259,0.9881477355957031,-1.5864062309265137,1.1216771602630615,-1.3848005533218384,2.0907821655273438,0.1546863615512848,0.678400993347168,-0.5768097043037415,1.507625937461853,-0.1941603124141693,0.3762205243110657,0.615615725517273,0.3201427757740021,0.39443039894104004,-0.5423462390899658,-0.17203183472156525,-0.652258038520813,1.112310528755188,0.07335027307271957,0.878906786441803,0.40376079082489014,-0.13475824892520905,0.24761612713336945,0.4968208372592926,-0.2987951636314392,0.1651972085237503,0.16593436896800995,1.5014379024505615,1.09931218624115,-0.4695853590965271,-1.0899215936660767,-1.8359965085983276,-1.1454824209213257,-0.7121757864952087,0.35708513855934143,-0.47924235463142395,-0.19525107741355896,0.7125044465065002,0.650809645652771,-0.6591724753379822,-0.6509475111961365,-0.4858051836490631,0.49829715490341187,-1.1715450286865234,1.3444077968597412,0.31636151671409607,3.3496999740600586,-0.9345130324363708,3.8169057369232178,0.045811183750629425,0.6309516429901123,2.117629051208496,0.95530104637146,0.21392376720905304,-1.6756519079208374,-1.6183780431747437,-1.6838979721069336,3.08980131149292,0.6542537212371826,1.8019683361053467,0.5644538998603821,-0.5820416212081909,0.9008181095123291,0.863633930683136,0.4946896433830261,0.35915687680244446]},"cellActivationHidden":{"rows":20,"columns":20,"weights":[-0.6776688694953918,1.9155551195144653,-29.56022834777832,36.35818862915039,29.202091217041016,0.9509589672088623,0.6167768239974976,26.562021255493164,-0.7347524762153625,-46.57137680053711,-40.035736083984375,-1.596834421157837,0.40215858817100525,49.366947174072266,-9.06875991821289,-1.7681220769882202,49.239227294921875,34.9240608215332,0.7950544357299805,40.36103057861328,0.318589448928833,2.416642904281616,-23.7030029296875,35.28548049926758,27.682432174682617,-0.06859026104211807,-0.37637224793434143,26.122148513793945,0.39580950140953064,-39.979244232177734,-36.20762252807617,-2.6736643314361572,-0.5515896081924438,38.99213409423828,-10.320091247558594,-2.3558239936828613,42.236846923828125,33.28466796875,-0.5270212888717651,41.74640655517578,-0.3328482508659363,1.3502886295318604,0.6228715777397156,1.4454823732376099,-3.340423107147217,1.5227491855621338,0.33493009209632874,1.9327808618545532,-0.43024924397468567,-3.5252065658569336,-1.1084094047546387,-1.6553208827972412,-8.49537467956543,-0.34054356813430786,-3.565030813217163,-0.9199851751327515,-2.9243478775024414,1.0078853368759155,0.2773681879043579,0.8650016188621521,0.25492241978645325,2.09259033203125,-10.822710037231445,3.217540740966797,-1.1633267402648926,-0.05661137402057648,-0.30907559394836426,0.9445751905441284,0.37494897842407227,-7.421566486358643,-3.8559372425079346,-2.321702718734741,-0.6046993732452393,9.348892211914062,0.1893170028924942,-1.9144608974456787,10.058880805969238,2.161254644393921,-0.5160365700721741,9.719964981079102,0.693211555480957,2.4599804878234863,-35.879756927490234,40.255332946777344,30.48640251159668,-0.30090221762657166,-0.7411423325538635,31.72941780090332,0.8842015266418457,-37.34750747680664,-44.479251861572266,-1.850745677947998,-0.4110543429851532,46.246009826660156,-13.59473991394043,-2.367975950241089,50.345706939697266,38.95320510864258,-0.9146258234977722,39.07963562011719,0.7132390141487122,0.04924117773771286,1.6419401168823242,-8.415742874145508,-8.302135467529297,0.3088236451148987,-0.7218276262283325,-12.154197692871094,0.7957998514175415,5.423470497131348,8.89198112487793,-0.08145277202129364,-0.9949868321418762,-3.7843053340911865,0.7936651706695557,-0.21096886694431305,-4.170276641845703,-10.72103214263916,-2.100850820541382,-2.7148613929748535,0.6113516688346863,-3.6711935997009277,41.423316955566406,-53.492549896240234,-45.05713653564453,-1.1222752332687378,-0.6523253321647644,-41.26318359375,0.6900282502174377,65.58763122558594,57.27009582519531,3.0389795303344727,-0.8196009397506714,-68.5859603881836,17.923776626586914,3.29712176322937,-69.78662109375,-51.65438461303711,-0.6094403266906738,-60.27342224121094,0.24914203584194183,2.2206573486328125,-18.131929397583008,7.048588275909424,-0.07888319343328476,-0.13120216131210327,-0.3717401325702667,-0.8028661012649536,0.3656156659126282,-12.220810890197754,-8.257063865661621,-2.408684015274048,-0.39767691493034363,15.143743515014648,1.2959187030792236,-2.0397236347198486,15.761407852172852,5.080507278442383,-0.33771994709968567,13.883285522460938,-0.6439818143844604,3.426443576812744,-40.64912033081055,52.21513366699219,46.201927185058594,1.0932693481445312,0.6481470465660095,40.85294723510742,-0.8021807670593262,-66.51215362548828,-56.60403060913086,-2.705463171005249,1.0840517282485962,67.03631591796875,-18.04439353942871,-3.005984306335449,67.95584869384766,50.7507209777832,0.6377480626106262,58.2092170715332,-0.2996630072593689,-2.4214224815368652,8.660745620727539,-4.662421226501465,-0.9229524731636047,-0.034577809274196625,0.3588268458843231,-3.146869421005249,-0.3497149348258972,6.84748649597168,4.757967948913574,2.5646510124206543,0.4285997450351715,-9.531591415405273,0.4429238438606262,2.3114566802978516,-10.633820533752441,-4.077693939208984,0.1951403170824051,-8.740184783935547,-0.22857826948165894,-2.076388359069824,11.78193473815918,-6.949591636657715,-2.7765767574310303,0.26754143834114075,0.33678728342056274,-4.435397624969482,-0.22495287656784058,11.008604049682617,7.335998058319092,2.3800101280212402,0.31637054681777954,-13.230042457580566,0.9827051162719727,2.052335739135742,-14.465866088867188,-6.0427141189575195,0.5175086259841919,-13.399503707885742,-0.24050837755203247,-2.5572805404663086,25.766019821166992,-38.01924514770508,-29.97677230834961,0.08483963459730148,0.4144132435321808,-28.140104293823242,-0.43472644686698914,43.10374450683594,39.06733322143555,2.707628011703491,0.4401877224445343,-42.30086135864258,11.420880317687988,2.4487249851226807,-45.70525360107422,-36.03402328491211,0.4848199188709259,-44.761863708496094,0.09337326139211655,6.856547832489014,-44.97922897338867,56.04560089111328,47.15605926513672,0.5890088677406311,-0.1714027374982834,46.39057540893555,0.08318229019641876,-57.227813720703125,-58.542213439941406,-5.679957389831543,0.909618616104126,70.04159545898438,-22.318952560424805,-6.411190986633301,76.53753662109375,54.12653350830078,-0.47605714201927185,62.892417907714844,-0.7829815745353699,-1.449984073638916,-1.8620866537094116,-2.652815580368042,3.418797254562378,-0.25972989201545715,0.9777042269706726,-3.086211681365967,-1.1558808088302612,0.15524376928806305,2.295947313308716,1.5933747291564941,6.933010578155518,-1.7486473321914673,1.0434801578521729,1.5909841060638428,-0.21034815907478333,-3.5395655632019043,1.7873767614364624,-1.7007639408111572,0.7272810339927673,-2.398374080657959,31.11893653869629,-25.03194236755371,-19.651063919067383,-0.47664234042167664,-0.6641819477081299,-11.409446716308594,0.5209305882453918,42.571144104003906,30.661880493164062,1.6547462940216064,-0.9714077711105347,-40.6124267578125,-0.10852838307619095,2.1593544483184814,-38.577091217041016,-23.711641311645508,-0.6410173773765564,-25.368093490600586,-0.3538408875465393,-2.5082643032073975,26.032470703125,-38.204044342041016,-30.415639877319336,-0.023650674149394035,0.4320402145385742,-28.43393325805664,-0.4049598276615143,43.30507278442383,39.4034538269043,2.82586932182312,0.356521874666214,-43.45964431762695,11.337740898132324,2.4585587978363037,-46.88861083984375,-36.196617126464844,0.47038623690605164,-44.93822479248047,-0.605225682258606,-1.0698676109313965,-5.095084190368652,14.994091033935547,27.67238998413086,2.258683919906616,0.7330829501152039,17.318758010864258,-0.8718230128288269,-18.447370529174805,-23.17021942138672,1.4918420314788818,2.161954164505005,20.97345733642578,0.9786363840103149,0.9232500195503235,5.564062595367432,17.155105590820312,0.6294863820075989,1.4756306409835815,0.3375644087791443,2.2112414836883545,-12.9379243850708,3.6752209663391113,-1.7303146123886108,-0.12077978253364563,-0.4151192307472229,0.16128969192504883,0.3663701117038727,-8.34758186340332,-4.7166852951049805,-2.4526965618133545,-0.5353464484214783,11.02198600769043,0.5640225410461426,-2.113297939300537,11.81075382232666,2.1250417232513428,-0.34880363941192627,10.744807243347168,0.7434158325195312,-0.7320603132247925,22.93060302734375,1.4357576370239258,4.941396236419678,0.024350209161639214,-0.7864983677864075,11.117620468139648,0.8399166464805603,13.638222694396973,3.483668088912964,0.46992236375808716,-1.5103838443756104,-16.78577995300293,-4.898402690887451,0.7644570469856262,-9.721966743469238,2.379607677459717,-0.9090174436569214,-3.2618963718414307,0.23867268860340118,2.9996466636657715,-30.2138671875,32.627201080322266,23.188915252685547,0.16004635393619537,-0.2875984013080597,21.272722244262695,0.37736815214157104,-39.54585647583008,-34.04818344116211,-3.0404670238494873,-0.5216377973556519,40.197776794433594,-6.112603187561035,-2.749549627304077,43.044124603271484,30.252405166625977,-0.30529969930648804,40.835693359375]},"cellActivationBias":{"rows":20,"columns":1,"weights":[0.1664125919342041,1.3287124633789062,3.0302491188049316,1.3195186853408813,-2.907313585281372,-0.827218234539032,-0.5530955791473389,1.282932996749878,0.8958818912506104,-0.2588823735713959,-1.1108571290969849,-1.3628578186035156,0.09639468044042587,1.341797113418579,-1.0205639600753784,-1.1780354976654053,1.0232906341552734,1.293782114982605,-0.7570992708206177,1.3281269073486328]}}],"outputConnector":{"rows":1,"columns":20,"weights":[0.27706074714660645,1.2383953332901,0.13467705249786377,0.03149832412600517,0.03874970227479935,-0.17340220510959625,-0.5895423293113708,0.2845267951488495,0.3356144428253174,0.24220798909664154,0.3463783860206604,-1.593270182609558,-0.07456401735544205,-0.06190573796629906,0.17738759517669678,-1.6383620500564575,0.9544247984886169,-0.7880978584289551,0.19951987266540527,0.14316986501216888]},"output":{"rows":1,"columns":1,"weights":[0.9915972352027893]},"inputLookup":null,"inputLookupLength":0,"outputLookup":null,"outputLookupLength":0}